{"learner":{"attributes":{"scikit_learn":"{\"_estimator_type\": \"regressor\"}"},"feature_names":["year","month","day","dayofweek","quarter","weekend","lag_1","lag_2","lag_3","lag_7","lag_14","lag_21","lag_28","rolling_mean_7","rolling_std_7","rolling_mean_14","rolling_mean_30","lag_1_x_lag_7","lag_7_x_lag_14"],"feature_types":["int","int","int","int","int","int","float","float","float","float","float","float","float","float","float","float","float","float","float"],"gradient_booster":{"model":{"cats":{"enc":[],"feature_segments":[],"sorted_idx":[]},"gbtree_model_param":{"num_parallel_tree":"1","num_trees":"500"},"iteration_indptr":[0,1,2,3,4,5,6,7,8,9,10,11,12,13,14,15,16,17,18,19,20,21,22,23,24,25,26,27,28,29,30,31,32,33,34,35,36,37,38,39,40,41,42,43,44,45,46,47,48,49,50,51,52,53,54,55,56,57,58,59,60,61,62,63,64,65,66,67,68,69,70,71,72,73,74,75,76,77,78,79,80,81,82,83,84,85,86,87,88,89,90,91,92,93,94,95,96,97,98,99,100,101,102,103,104,105,106,107,108,109,110,111,112,113,114,115,116,117,118,119,120,121,122,123,124,125,126,127,128,129,130,131,132,133,134,135,136,137,138,139,140,141,142,143,144,145,146,147,148,149,150,151,152,153,154,155,156,157,158,159,160,161,162,163,164,165,166,167,168,169,170,171,172,173,174,175,176,177,178,179,180,181,182,183,184,185,186,187,188,189,190,191,192,193,194,195,196,197,198,199,200,201,202,203,204,205,206,207,208,209,210,211,212,213,214,215,216,217,218,219,220,221,222,223,224,225,226,227,228,229,230,231,232,233,234,235,236,237,238,239,240,241,242,243,244,245,246,247,248,249,250,251,252,253,254,255,256,257,258,259,260,261,262,263,264,265,266,267,268,269,270,271,272,273,274,275,276,277,278,279,280,281,282,283,284,285,286,287,288,289,290,291,292,293,294,295,296,297,298,299,300,301,302,303,304,305,306,307,308,309,310,311,312,313,314,315,316,317,318,319,320,321,322,323,324,325,326,327,328,329,330,331,332,333,334,335,336,337,338,339,340,341,342,343,344,345,346,347,348,349,350,351,352,353,354,355,356,357,358,359,360,361,362,363,364,365,366,367,368,369,370,371,372,373,374,375,376,377,378,379,380,381,382,383,384,385,386,387,388,389,390,391,392,393,394,395,396,397,398,399,400,401,402,403,404,405,406,407,408,409,410,411,412,413,414,415,416,417,418,419,420,421,422,423,424,425,426,427,428,429,430,431,432,433,434,435,436,437,438,439,440,441,442,443,444,445,446,447,448,449,450,451,452,453,454,455,456,457,458,459,460,461,462,463,464,465,466,467,468,469,470,471,472,473,474,475,476,477,478,479,480,481,482,483,484,485,486,487,488,489,490,491,492,493,494,495,496,497,498,499,500],"tree_info":[0,0,0,0,0,0,0,0,0,0,0,0,0,0,0,0,0,0,0,0,0,0,0,0,0,0,0,0,0,0,0,0,0,0,0,0,0,0,0,0,0,0,0,0,0,0,0,0,0,0,0,0,0,0,0,0,0,0,0,0,0,0,0,0,0,0,0,0,0,0,0,0,0,0,0,0,0,0,0,0,0,0,0,0,0,0,0,0,0,0,0,0,0,0,0,0,0,0,0,0,0,0,0,0,0,0,0,0,0,0,0,0,0,0,0,0,0,0,0,0,0,0,0,0,0,0,0,0,0,0,0,0,0,0,0,0,0,0,0,0,0,0,0,0,0,0,0,0,0,0,0,0,0,0,0,0,0,0,0,0,0,0,0,0,0,0,0,0,0,0,0,0,0,0,0,0,0,0,0,0,0,0,0,0,0,0,0,0,0,0,0,0,0,0,0,0,0,0,0,0,0,0,0,0,0,0,0,0,0,0,0,0,0,0,0,0,0,0,0,0,0,0,0,0,0,0,0,0,0,0,0,0,0,0,0,0,0,0,0,0,0,0,0,0,0,0,0,0,0,0,0,0,0,0,0,0,0,0,0,0,0,0,0,0,0,0,0,0,0,0,0,0,0,0,0,0,0,0,0,0,0,0,0,0,0,0,0,0,0,0,0,0,0,0,0,0,0,0,0,0,0,0,0,0,0,0,0,0,0,0,0,0,0,0,0,0,0,0,0,0,0,0,0,0,0,0,0,0,0,0,0,0,0,0,0,0,0,0,0,0,0,0,0,0,0,0,0,0,0,0,0,0,0,0,0,0,0,0,0,0,0,0,0,0,0,0,0,0,0,0,0,0,0,0,0,0,0,0,0,0,0,0,0,0,0,0,0,0,0,0,0,0,0,0,0,0,0,0,0,0,0,0,0,0,0,0,0,0,0,0,0,0,0,0,0,0,0,0,0,0,0,0,0,0,0,0,0,0,0,0,0,0,0,0,0,0,0,0,0,0,0,0,0,0,0,0,0,0,0,0,0,0,0,0,0,0,0,0,0,0,0,0,0,0,0,0,0,0,0,0,0,0,0,0,0,0,0,0,0,0,0,0,0,0,0,0,0,0,0,0,0,0,0,0,0,0,0,0,0,0],"trees":[{"base_weights":[3.9766806E2,-1.3474485E3,1.1410898E4,-3.0528997E3,1.2727223E3,1.6717797E3,9.100053E3,-5.2198883E2,-3.8431594E3,4.6352583E3,-9.153833E2,1.6638287E4,5.017351E3,1.1089065E3,-2.916133E3,-7.7897563E3,-2.8582341E3,7.6132513E2,8.152633E3,-1.9318073E2,-3.5931805E2,3.2658954E2,9.4592444E2,-2.0971787E3,8.1565034E3,-2.6046768E2,1.9498743E2,1.6579036E2,-3.7073376E3,-8.501246E3,-1.1736049E2,-2.3031392E3,-4.251826E2,-8.087404E2,3.1322287E2,6.210744E2,3.9319124E3,6.2371466E2,-2.7131685E3,-1.968763E2,-2.9981108E3,1.7545703E2,9.735167E3,-6.615438E1,9.649446E1,6.1554638E1,-4.912036E1,-3.8970364E1,-2.0071349E2,-4.5312338E2,-5.8195362E1,-1.5931598E2,-3.397212E1,8.771946E1,-9.946063E1,-2.6732578E1,4.2660693E2,-2.2207E1,1.2951335E2,-2.843815E0,-1.731992E2,-1.2320361E1,-2.4453614E0,-1.8651048E2,-2.0045362E1,3.200464E1,-1.8845362E1,6.319494E2,2.1517741E2],"categories":[],"categories_nodes":[],"categories_segments":[],"categories_sizes":[],"default_left":[0,0,0,0,0,0,0,0,0,0,0,0,0,0,0,0,0,0,0,0,0,0,0,0,0,0,0,0,0,0,0,0,0,0,0,0,0,0,0,0,0,0,0,0,0,0,0,0,0,0,0,0,0,0,0,0,0,0,0,0,0,0,0,0,0,0,0,0,0],"id":0,"left_children":[1,3,5,7,9,-1,11,13,15,17,19,21,23,25,27,29,31,33,35,37,-1,-1,-1,39,41,43,-1,45,47,49,-1,51,-1,53,-1,-1,55,57,59,61,63,65,67,-1,-1,-1,-1,-1,-1,-1,-1,-1,-1,-1,-1,-1,-1,-1,-1,-1,-1,-1,-1,-1,-1,-1,-1,-1,-1],"loss_changes":[3.513301E9,7.0992006E8,9.6812595E8,1.9000134E8,4.677708E8,0E0,6.551528E8,9.694409E7,2.614935E8,3.3444506E8,1.7523947E8,6.07872E7,3.967767E8,5.834137E7,2.4998952E7,3.4258304E7,1.6843949E8,1.1738993E8,1.8538918E8,7.580062E7,0E0,0E0,0E0,9.682004E6,1.4948448E8,2.8156098E7,0E0,4.878967E6,4.060656E6,3.886656E7,0E0,7.814003E7,0E0,3.6772588E7,0E0,0E0,1.6893936E8,5.9950216E7,1.7752444E7,9.936039E3,6.110168E6,1.0112001E6,1.0333197E8,0E0,0E0,0E0,0E0,0E0,0E0,0E0,0E0,0E0,0E0,0E0,0E0,0E0,0E0,0E0,0E0,0E0,0E0,0E0,0E0,0E0,0E0,0E0,0E0,0E0,0E0],"parents":[2147483647,0,0,1,1,2,2,3,3,4,4,6,6,7,7,8,8,9,9,10,10,11,11,12,12,13,13,14,14,15,15,16,16,17,17,18,18,19,19,23,23,24,24,25,25,27,27,28,28,29,29,31,31,33,33,36,36,37,37,38,38,39,39,40,40,41,41,42,42],"right_children":[2,4,6,8,10,-1,12,14,16,18,20,22,24,26,28,30,32,34,36,38,-1,-1,-1,40,42,44,-1,46,48,50,-1,52,-1,54,-1,-1,56,58,60,62,64,66,68,-1,-1,-1,-1,-1,-1,-1,-1,-1,-1,-1,-1,-1,-1,-1,-1,-1,-1,-1,-1,-1,-1,-1,-1,-1,-1],"split_conditions":[2.03E4,1.5930571E4,4.255E3,1.0201E4,1.4064E4,1.6717797E3,1.6E1,1.5991E4,1.1804429E4,1.5E1,3.2363E4,6.8935957E3,1.7730533E4,5.2187905E3,3.4932842E3,1.4E1,2.7143E4,1.7016166E4,1.5341E4,1.9803E4,-3.5931805E2,3.2658954E2,9.4592444E2,1.4423E4,1.7144605E8,1.9323E4,1.9498743E2,4E0,1.1639571E4,1.4739E4,-1.1736049E2,1.6959E4,-4.251826E2,6.654554E3,3.1322287E2,6.210744E2,1.2749E4,1.6156E4,8.202E3,2E0,1.0623E4,2E0,2.3561572E4,-6.615438E1,9.649446E1,6.1554638E1,-4.912036E1,-3.8970364E1,-2.0071349E2,-4.5312338E2,-5.8195362E1,-1.5931598E2,-3.397212E1,8.771946E1,-9.946063E1,-2.6732578E1,4.2660693E2,-2.2207E1,1.2951335E2,-2.843815E0,-1.731992E2,-1.2320361E1,-2.4453614E0,-1.8651048E2,-2.0045362E1,3.200464E1,-1.8845362E1,6.319494E2,2.1517741E2],"split_indices":[13,13,7,12,7,0,2,7,13,2,7,14,16,14,14,2,10,16,6,9,0,0,0,7,18,10,0,1,15,6,0,12,0,14,0,0,10,9,12,1,12,1,15,0,0,0,0,0,0,0,0,0,0,0,0,0,0,0,0,0,0,0,0,0,0,0,0,0,0],"split_type":[0,0,0,0,0,0,0,0,0,0,0,0,0,0,0,0,0,0,0,0,0,0,0,0,0,0,0,0,0,0,0,0,0,0,0,0,0,0,0,0,0,0,0,0,0,0,0,0,0,0,0,0,0,0,0,0,0,0,0,0,0,0,0,0,0,0,0,0,0],"sum_hessian":[1.81E2,1.57E2,2.4E1,9.5E1,6.2E1,1E0,2.3E1,2.3E1,7.2E1,2.4E1,3.8E1,7E0,1.6E1,1.4E1,9E0,1.3E1,5.9E1,1.2E1,1.2E1,3.5E1,3E0,2E0,5E0,5E0,1.1E1,1E1,4E0,2E0,7E0,1.1E1,2E0,5.5E1,4E0,1E1,2E0,5E0,7E0,2.7E1,8E0,2E0,3E0,2E0,9E0,7E0,3E0,1E0,1E0,1E0,6E0,1E1,1E0,3.5E1,2E1,3E0,7E0,4E0,3E0,1.8E1,9E0,2E0,6E0,1E0,1E0,2E0,1E0,1E0,1E0,5E0,4E0],"tree_param":{"num_deleted":"0","num_feature":"19","num_nodes":"69","size_leaf_vector":"1"}},{"base_weights":[1.6812128E2,-1.7778771E3,9.013852E3,-4.6248413E2,-8.871935E3,1.6299852E3,7.141E3,-1.7593905E3,1.3883726E3,-9.528202E3,1.227418E2,9.173252E3,-8.4686316E2,2.4260544E3,-2.0454775E3,8.077463E3,4.6564117E2,-4.9189157E2,-8.339019E1,1.2738372E3,1.235102E4,1.7093754E3,-2.4124866E2,1.9892286E1,1.4168227E2,-7.0745715E2,-2.7758271E3,1.3545518E2,5.0421835E2,1.3481047E3,-2.3845283E3,-1.6536013E3,3.3610205E3,1.3741514E4,1.281543E3,1.5706694E2,-2.9237955E2,-8.777925E1,8.696313E1,-2.0355661E2,-4.626912E1,2.423496E2,-2.4735615E0,-3.6400036E1,-1.8218173E2,-1.0223186E2,-1.2012354E1,2.6523947E2,7.744405E1,7.739026E2,8.180065E1,-4.3765186E1,1.398809E2,-1.9544239E1,-2.3842285E0],"categories":[],"categories_nodes":[],"categories_segments":[],"categories_sizes":[],"default_left":[0,0,0,0,0,0,0,0,0,0,0,0,0,0,0,0,0,0,0,0,0,0,0,0,0,0,0,0,0,0,0,0,0,0,0,0,0,0,0,0,0,0,0,0,0,0,0,0,0,0,0,0,0,0,0],"id":1,"left_children":[1,3,5,7,9,-1,11,13,15,17,-1,19,21,23,25,27,29,-1,-1,31,33,35,-1,-1,-1,37,39,-1,-1,41,43,45,47,49,51,-1,53,-1,-1,-1,-1,-1,-1,-1,-1,-1,-1,-1,-1,-1,-1,-1,-1,-1,-1],"loss_changes":[2.9595812E9,1.3116346E9,1.1365624E9,2.9048925E8,1.869248E8,0E0,4.9476902E8,8.997797E7,3.048505E8,3.4702464E7,0E0,5.867269E8,7.943068E7,3.006044E6,6.3510144E7,3.7323104E7,1.1639726E8,0E0,0E0,5.443859E7,2.4405427E8,1.5250661E7,0E0,0E0,0E0,6.71653E7,9.929891E7,0E0,0E0,1.713884E8,2.029062E7,1.719469E6,9.395412E6,2.900027E8,1.2258591E7,0E0,5.3672016E4,0E0,0E0,0E0,0E0,0E0,0E0,0E0,0E0,0E0,0E0,0E0,0E0,0E0,0E0,0E0,0E0,0E0,0E0],"parents":[2147483647,0,0,1,1,2,2,3,3,4,4,6,6,7,7,8,8,9,9,11,11,12,12,13,13,14,14,15,15,16,16,19,19,20,20,21,21,25,25,26,26,29,29,30,30,31,31,32,32,33,33,34,34,36,36],"right_children":[2,4,6,8,10,-1,12,14,16,18,-1,20,22,24,26,28,30,-1,-1,32,34,36,-1,-1,-1,38,40,-1,-1,42,44,46,48,50,52,-1,54,-1,-1,-1,-1,-1,-1,-1,-1,-1,-1,-1,-1,-1,-1,-1,-1,-1,-1],"split_conditions":[1.8551143E4,6E0,3.431E3,1.5697429E4,9E0,1.6299852E3,4E0,3.786E3,9.491E3,1.7519857E4,1.227418E2,6E0,2.0091E4,3E0,1.1764E4,5E0,7.8113066E3,-4.9189157E2,-8.339019E1,1.6136904E8,2.9522E4,2.2563E4,-2.4124866E2,1.9892286E1,1.4168227E2,1.6916E4,1.4029714E4,1.3545518E2,5.0421835E2,1.4179E4,2.0035869E8,8.202E3,2E0,2.3561572E4,3.7833E4,1.5706694E2,2E0,-8.777925E1,8.696313E1,-2.0355661E2,-4.626912E1,2.423496E2,-2.4735615E0,-3.6400036E1,-1.8218173E2,-1.0223186E2,-1.2012354E1,2.6523947E2,7.744405E1,7.739026E2,8.180065E1,-4.3765186E1,1.398809E2,-1.9544239E1,-2.3842285E0],"split_indices":[13,3,10,13,1,0,3,12,8,15,0,1,10,1,9,1,14,0,0,17,6,8,0,0,0,12,13,0,0,6,18,9,3,15,6,0,1,0,0,0,0,0,0,0,0,0,0,0,0,0,0,0,0,0,0],"split_type":[0,0,0,0,0,0,0,0,0,0,0,0,0,0,0,0,0,0,0,0,0,0,0,0,0,0,0,0,0,0,0,0,0,0,0,0,0,0,0,0,0,0,0,0,0,0,0,0,0,0,0,0,0,0,0],"sum_hessian":[1.7E2,1.4E2,3E1,1.19E2,2.1E1,1E0,2.9E1,7E1,4.9E1,2E1,1E0,2.3E1,6E0,4E0,6.6E1,5E0,4.4E1,1.9E1,1E0,7E0,1.6E1,4E0,2E0,1E0,3E0,2.4E1,4.2E1,2E0,3E0,3.4E1,1E1,3E0,4E0,1.4E1,2E0,2E0,2E0,1.7E1,7E0,2.4E1,1.8E1,9E0,2.5E1,5E0,5E0,2E0,1E0,1E0,3E0,1.2E1,2E0,1E0,1E0,1E0,1E0],"tree_param":{"num_deleted":"0","num_feature":"19","num_nodes":"55","size_leaf_vector":"1"}},{"base_weights":[-3.1752875E2,-4.3002354E3,3.4857148E3,-2.3150928E3,-9.083916E3,5.4183955E3,-1.5240693E3,-4.4893345E3,-1.618189E3,-1.0765625E2,-4.808059E2,2.6702993E3,9.772789E3,-3.5598896E3,2.49071E3,-4.8343755E3,-9.5141605E-2,3.414928E2,-2.1570623E3,7.4534033E3,1.429841E3,3.2467073E3,1.2832911E4,2.6906E3,-5.6900864E3,3.429969E3,4.5914355E2,-6.0083035E1,-2.5184818E2,-2.4028496E3,1.6709774E3,1.314627E3,-2.5020532E3,1.5399405E2,4.7307706E2,5.595638E2,4.9730453E2,6.03748E3,-1.7511287E3,1.4242678E4,2.5214713E2,3.2587574E1,1.5186873E2,-6.8349414E3,-2.4913306E3,-2.3246338E0,4.13456E3,-1.9822786E1,7.564854E1,-1.6683617E2,9.969287E0,-7.2219973E0,1.394558E2,1.3572986E2,-2.8447754E0,-7.862023E1,-2.287985E2,-2.8260105E1,1.931958E2,4.3965616E2,1.7539762E1,-1.429816E2,-2.142085E1,2.0629276E2,7.8535114E2,-8.130542E1,-3.641391E2,-2.8659864E1,-1.4137822E2,6.2746338E1,2.2703682E2],"categories":[],"categories_nodes":[],"categories_segments":[],"categories_sizes":[],"default_left":[0,0,0,0,0,0,0,0,0,0,0,0,0,0,0,0,0,0,0,0,0,0,0,0,0,0,0,0,0,0,0,0,0,0,0,0,0,0,0,0,0,0,0,0,0,0,0,0,0,0,0,0,0,0,0,0,0,0,0,0,0,0,0,0,0,0,0,0,0,0,0],"id":2,"left_children":[1,3,5,7,9,11,13,15,17,-1,-1,19,21,23,25,27,-1,29,31,33,35,37,39,41,43,45,47,-1,-1,49,51,53,55,-1,-1,57,-1,59,61,63,-1,-1,-1,65,67,-1,69,-1,-1,-1,-1,-1,-1,-1,-1,-1,-1,-1,-1,-1,-1,-1,-1,-1,-1,-1,-1,-1,-1,-1,-1],"loss_changes":[2.574867E9,7.671617E8,8.506192E8,8.364963E7,6.782131E7,7.277801E8,2.1320086E8,2.1667648E7,5.036955E7,0E0,0E0,2.2667248E8,4.3762995E8,2.4166088E8,1.5598656E7,3.51456E6,0E0,4.4149276E7,4.760424E7,4.112067E7,2.3901395E8,1.3610282E8,1.0388762E8,1.555488E6,3.057936E7,1.488912E7,4.206441E6,0E0,0E0,1.0385934E7,1.6641964E7,7.834811E6,5.8357184E7,0E0,0E0,1.1739919E8,0E0,9.093829E7,4.639806E6,1.2778394E8,0E0,0E0,0E0,9.151936E6,1.603954E6,0E0,1.49904E5,0E0,0E0,0E0,0E0,0E0,0E0,0E0,0E0,0E0,0E0,0E0,0E0,0E0,0E0,0E0,0E0,0E0,0E0,0E0,0E0,0E0,0E0,0E0,0E0],"parents":[2147483647,0,0,1,1,2,2,3,3,4,4,5,5,6,6,7,7,8,8,11,11,12,12,13,13,14,14,15,15,17,17,18,18,19,19,20,20,21,21,22,22,23,23,24,24,25,25,26,26,29,29,30,30,31,31,32,32,35,35,37,37,38,38,39,39,43,43,44,44,46,46],"right_children":[2,4,6,8,10,12,14,16,18,-1,-1,20,22,24,26,28,-1,30,32,34,36,38,40,42,44,46,48,-1,-1,50,52,54,56,-1,-1,58,-1,60,62,64,-1,-1,-1,66,68,-1,70,-1,-1,-1,-1,-1,-1,-1,-1,-1,-1,-1,-1,-1,-1,-1,-1,-1,-1,-1,-1,-1,-1,-1,-1],"split_conditions":[1.5930571E4,6E0,4E0,1.2381429E4,7.813E3,1.8551143E4,2.1589E4,1.6916E4,1.0497E4,-1.0765625E2,-4.808059E2,9.491E3,1.588224E8,6.3975776E3,1.6515E4,2E0,-9.5141605E-2,1.1577E4,1.649148E7,5E0,2.8E1,2.2721572E4,2.5715E4,1E1,4.8542134E8,1.7483E4,6E0,-6.0083035E1,-2.5184818E2,7E0,4E0,3E0,6.0475444E3,1.5399405E2,4.7307706E2,1.7737E4,4.9730453E2,2.7143E4,2.1E1,6E0,2.5214713E2,3.2587574E1,1.5186873E2,6.751432E3,6E0,-2.3246338E0,2E0,-1.9822786E1,7.564854E1,-1.6683617E2,9.969287E0,-7.2219973E0,1.394558E2,1.3572986E2,-2.8447754E0,-7.862023E1,-2.287985E2,-2.8260105E1,1.931958E2,4.3965616E2,1.7539762E1,-1.429816E2,-2.142085E1,2.0629276E2,7.8535114E2,-8.130542E1,-3.641391E2,-2.8659864E1,-1.4137822E2,6.2746338E1,2.2703682E2],"split_indices":[13,3,3,13,6,13,8,6,8,0,0,8,18,14,10,1,0,10,17,1,2,13,9,2,17,9,1,0,0,1,1,1,14,0,0,10,0,6,2,1,0,0,0,14,1,0,2,0,0,0,0,0,0,0,0,0,0,0,0,0,0,0,0,0,0,0,0,0,0,0,0],"split_type":[0,0,0,0,0,0,0,0,0,0,0,0,0,0,0,0,0,0,0,0,0,0,0,0,0,0,0,0,0,0,0,0,0,0,0,0,0,0,0,0,0,0,0,0,0,0,0,0,0,0,0,0,0,0,0,0,0,0,0,0,0,0,0,0,0,0,0,0,0,0,0],"sum_hessian":[1.68E2,8.2E1,8.6E1,5.9E1,2.3E1,6.2E1,2.4E1,1.3E1,4.6E1,2E0,2.1E1,3.9E1,2.3E1,1.6E1,8E0,1.2E1,1E0,1E1,3.6E1,7E0,3.2E1,8E0,1.5E1,4E0,1.2E1,5E0,3E0,1E0,1.1E1,3E0,7E0,3E0,3.3E1,3E0,4E0,3E1,2E0,5E0,3E0,1.2E1,3E0,1E0,3E0,8E0,4E0,1E0,4E0,2E0,1E0,2E0,1E0,3E0,4E0,1E0,2E0,2.4E1,9E0,2.3E1,7E0,3E0,2E0,1E0,2E0,2E0,1E1,1E0,7E0,1E0,3E0,1E0,3E0],"tree_param":{"num_deleted":"0","num_feature":"19","num_nodes":"71","size_leaf_vector":"1"}},{"base_weights":[-9.426629E1,-8.067034E2,2.4574912E4,6.475809E2,-6.996018E3,1.4695687E3,1.3272652E2,-1.6702526E3,3.0903962E3,-8.349361E3,-3.048392E3,-1.2516884E3,-2.4573131E2,1.6187546E3,6.1607783E3,-1.0406771E2,-8.824573E3,2.2369E3,-3.4723685E2,-3.423431E3,-6.544037E2,3.916307E2,8.7584436E2,1.4709259E4,3.443935E3,-4.512242E2,-1.15660866E2,-1.273479E1,1.4617363E2,-2.4834721E2,-1.0070205E2,-1.07504265E2,1.2232808E1,-8.781812E0,2.4922253E2,8.191994E2,2.0025854E2,-3.680553E1,3.4307913E2],"categories":[],"categories_nodes":[],"categories_segments":[],"categories_sizes":[],"default_left":[0,0,0,0,0,0,0,0,0,0,0,0,0,0,0,0,0,0,0,0,0,0,0,0,0,0,0,0,0,0,0,0,0,0,0,0,0,0,0],"id":3,"left_children":[1,3,5,7,9,-1,-1,11,13,15,17,19,-1,21,23,-1,25,27,-1,29,31,-1,33,35,37,-1,-1,-1,-1,-1,-1,-1,-1,-1,-1,-1,-1,-1,-1],"loss_changes":[3.1306417E9,1.5617075E9,4.4987315E8,8.035092E8,1.5085005E8,0E0,0E0,9.298085E7,3.0180397E8,5.312013E7,2.2146787E8,8.33715E7,0E0,2.1472413E8,4.602896E8,0E0,7.761664E6,9.297904E6,0E0,2.0452144E7,7.179551E7,0E0,1.9096074E8,2.401152E7,2.6219747E8,0E0,0E0,0E0,0E0,0E0,0E0,0E0,0E0,0E0,0E0,0E0,0E0,0E0,0E0],"parents":[2147483647,0,0,1,1,2,2,3,3,4,4,7,7,8,8,9,9,10,10,11,11,13,13,14,14,16,16,17,17,19,19,20,20,22,22,23,23,24,24],"right_children":[2,4,6,8,10,-1,-1,12,14,16,18,20,-1,22,24,-1,26,28,-1,30,32,-1,34,36,38,-1,-1,-1,-1,-1,-1,-1,-1,-1,-1,-1,-1,-1,-1],"split_conditions":[2.4854857E4,6E0,2.1E1,1.5930571E4,1.6185286E4,1.4695687E3,1.3272652E2,2.1002E4,1.8689572E4,7.813E3,7.322297E3,8.617E3,-2.4573131E2,3.819E3,1.3E1,-1.0406771E2,9E0,7E0,-3.4723685E2,1E1,1.0311E4,3.916307E2,1.8145E4,9E0,6E0,-4.512242E2,-1.15660866E2,-1.273479E1,1.4617363E2,-2.4834721E2,-1.0070205E2,-1.07504265E2,1.2232808E1,-8.781812E0,2.4922253E2,8.191994E2,2.0025854E2,-3.680553E1,3.4307913E2],"split_indices":[13,3,2,13,13,0,0,8,13,6,14,11,0,10,2,0,1,1,0,2,6,0,10,1,1,0,0,0,0,0,0,0,0,0,0,0,0,0,0],"split_type":[0,0,0,0,0,0,0,0,0,0,0,0,0,0,0,0,0,0,0,0,0,0,0,0,0,0,0,0,0,0,0,0,0,0,0,0,0,0,0],"sum_hessian":[1.76E2,1.72E2,4E0,1.4E2,3.2E1,3E0,1E0,7.2E1,6.8E1,2.3E1,9E0,6.5E1,7E0,4.7E1,2.1E1,2E0,2.1E1,4E0,5E0,1.3E1,5.2E1,4E0,4.3E1,4E0,1.7E1,2E1,1E0,1E0,3E0,5E0,8E0,1.9E1,3.3E1,3.5E1,8E0,3E0,1E0,8E0,9E0],"tree_param":{"num_deleted":"0","num_feature":"19","num_nodes":"39","size_leaf_vector":"1"}},{"base_weights":[-2.7073347E1,-1.7370408E3,8.578797E3,-7.2184424E2,-6.7852603E3,1.5560709E3,6.789996E3,-1.7040934E3,8.0318994E2,-8.1421323E3,-9.0533105E2,8.626387E3,-4.117234E3,2.4727168E3,-1.9564613E3,5.308816E3,-1.5658897E1,-4.5901123E1,-8.457437E3,2.2448677E3,-2.4019095E2,-8.7047595E2,1.0392656E4,-2.9254672E2,7.043916E1,1.4252077E2,2.404807E1,-4.3413907E2,-2.529818E3,7.166445E3,-1.760472E2,3.5339203E2,-5.0949237E2,-9.301046E3,-2.4694205E2,-1.241643E1,1.5793547E2,-1.0479807E2,-4.0114258E1,1.4992164E4,6.6934966E3,-1.0915193E2,1.4496574E2,-1.9470975E2,-7.862898E1,4.1924902E2,1.576458E2,-6.3821682E1,5.061814E1,-4.671683E1,1.4530956E2,-4.821604E2,-1.1276934E2,2.3884863E1,-1.8597527E1,8.129334E2,1.2150323E2,-3.395345E0,3.913028E2],"categories":[],"categories_nodes":[],"categories_segments":[],"categories_sizes":[],"default_left":[0,0,0,0,0,0,0,0,0,0,0,0,0,0,0,0,0,0,0,0,0,0,0,0,0,0,0,0,0,0,0,0,0,0,0,0,0,0,0,0,0,0,0,0,0,0,0,0,0,0,0,0,0,0,0,0,0,0,0],"id":4,"left_children":[1,3,5,7,9,-1,11,13,15,17,19,21,23,25,27,29,31,-1,33,35,-1,37,39,-1,-1,-1,-1,41,43,45,47,-1,49,51,-1,-1,-1,-1,53,55,57,-1,-1,-1,-1,-1,-1,-1,-1,-1,-1,-1,-1,-1,-1,-1,-1,-1,-1],"loss_changes":[2.7520328E9,7.945919E8,1.0387379E9,1.9760195E8,2.0006477E8,0E0,6.3641485E8,8.916518E7,1.9193333E8,4.0069504E7,8.447002E7,4.4517094E8,5.6144976E7,2.390476E6,6.523709E7,8.277238E7,1.6101411E8,0E0,1.3430016E7,9.897944E6,0E0,5.003904E6,2.739648E8,0E0,0E0,0E0,0E0,1.345866E8,6.5707936E7,2.906592E6,5.2153445E6,0E0,6.5114096E7,1.4412416E7,0E0,0E0,0E0,0E0,8.649943E5,1.0368E8,1.0773914E8,0E0,0E0,0E0,0E0,0E0,0E0,0E0,0E0,0E0,0E0,0E0,0E0,0E0,0E0,0E0,0E0,0E0,0E0],"parents":[2147483647,0,0,1,1,2,2,3,3,4,4,6,6,7,7,8,8,9,9,10,10,11,11,12,12,13,13,14,14,15,15,16,16,18,18,19,19,21,21,22,22,27,27,28,28,29,29,30,30,32,32,33,33,38,38,39,39,40,40],"right_children":[2,4,6,8,10,-1,12,14,16,18,20,22,24,26,28,30,32,-1,34,36,-1,38,40,-1,-1,-1,-1,42,44,46,48,-1,50,52,-1,-1,-1,-1,54,56,58,-1,-1,-1,-1,-1,-1,-1,-1,-1,-1,-1,-1,-1,-1,-1,-1,-1,-1],"split_conditions":[1.9550715E4,6E0,4.255E3,1.5930571E4,1.6185286E4,1.5560709E3,6E0,3.786E3,9.491E3,4.124E3,3.072E4,2E0,2.4E1,1.5353E4,1.0573E4,1.7118715E4,3.819E3,-4.5901123E1,1.6173E4,3E0,-2.4019095E2,1E0,1.602E4,-2.9254672E2,7.043916E1,1.4252077E2,2.404807E1,5.351966E3,1.3060714E4,1.8E1,1.1E1,3.5339203E2,1.9803E4,1.4971571E4,-2.4694205E2,-1.241643E1,1.5793547E2,-1.0479807E2,2E1,2.7143E4,2.03E4,-1.0915193E2,1.4496574E2,-1.9470975E2,-7.862898E1,4.1924902E2,1.576458E2,-6.3821682E1,5.061814E1,-4.671683E1,1.4530956E2,-4.821604E2,-1.1276934E2,2.3884863E1,-1.8597527E1,8.129334E2,1.2150323E2,-3.395345E0,3.913028E2],"split_indices":[13,3,7,13,13,0,3,12,8,12,7,4,2,7,8,13,10,0,8,4,0,3,8,0,0,0,0,14,13,2,2,0,10,13,0,0,0,0,2,7,13,0,0,0,0,0,0,0,0,0,0,0,0,0,0,0,0,0,0],"split_type":[0,0,0,0,0,0,0,0,0,0,0,0,0,0,0,0,0,0,0,0,0,0,0,0,0,0,0,0,0,0,0,0,0,0,0,0,0,0,0,0,0,0,0,0,0,0,0,0,0,0,0,0,0,0,0,0,0,0,0],"sum_hessian":[1.85E2,1.55E2,3E1,1.3E2,2.5E1,1E0,2.9E1,7.9E1,5.1E1,2E1,5E0,2.5E1,4E0,4E0,7.5E1,7E0,4.4E1,1E0,1.9E1,3E0,2E0,4E0,2.1E1,3E0,1E0,3E0,1E0,2.1E1,5.4E1,5E0,2E0,2E0,4.2E1,1.4E1,5E0,1E0,2E0,1E0,3E0,8E0,1.3E1,1.4E1,7E0,2.1E1,3.3E1,3E0,2E0,1E0,1E0,3.8E1,4E0,1.3E1,1E0,1E0,2E0,7E0,1E0,2E0,1.1E1],"tree_param":{"num_deleted":"0","num_feature":"19","num_nodes":"59","size_leaf_vector":"1"}},{"base_weights":[-3.3696912E2,-2.6909897E3,3.1675215E3,-1.8195134E0,-3.3048022E3,1.6668728E3,5.989274E3,2.1588062E2,-9.110778E2,-6.16052E3,-2.6684868E3,4.8198642E2,9.6774164E2,-1.6258584E3,7.8798228E3,2.2164895E3,-2.5250696E3,-3.3266968E2,-7.4798184E3,-2.140939E3,-5.639143E3,5.1324995E3,2.5057385E2,-1.601334E2,-3.678662E1,1.2122433E4,3.6876624E3,-3.3958286E1,3.5105845E3,-3.7008901E3,-9.885247E2,1.00871025E2,-8.942532E1,-2.9574502E3,-4.270392E2,-2.8921997E3,9.0970514E2,-6.2323975E1,-2.9768808E2,7.2884873E3,-1.7164583E2,2.5055103E3,-7.3491766E2,2.3287745E1,-1.7977606E1,6.8137823E2,2.0339688E2,-1.524031E3,5.5942305E3,2.1686797E2,5.087158E0,-2.0018951E2,-4.7087257E1,2.4189589E1,-1.106855E2,-4.3815308E1,-1.6795314E2,-3.2484936E1,-2.2675163E2,9.0109886E1,-1.4817502E2,1.0400659E2,4.0352716E2,4.9352688E1,-6.2226124E1,2.5219786E1,2.803207E2,-1.4493672E1,-2.3218457E2,1.9008627E1,-1.8091605E2,2.3795801E1,3.4943088E2],"categories":[],"categories_nodes":[],"categories_segments":[],"categories_sizes":[],"default_left":[0,0,0,0,0,0,0,0,0,0,0,0,0,0,0,0,0,0,0,0,0,0,0,0,0,0,0,0,0,0,0,0,0,0,0,0,0,0,0,0,0,0,0,0,0,0,0,0,0,0,0,0,0,0,0,0,0,0,0,0,0,0,0,0,0,0,0,0,0,0,0,0,0],"id":5,"left_children":[1,3,5,7,9,11,13,-1,15,17,19,-1,21,23,25,27,29,31,33,35,37,39,41,-1,43,45,47,-1,49,51,53,-1,-1,55,-1,57,59,-1,-1,61,63,65,67,-1,-1,-1,-1,69,71,-1,-1,-1,-1,-1,-1,-1,-1,-1,-1,-1,-1,-1,-1,-1,-1,-1,-1,-1,-1,-1,-1,-1,-1],"loss_changes":[1.5594565E9,1.8651706E8,3.1183552E8,9.033822E7,1.5073734E8,2.7494886E8,3.8712774E8,0E0,1.0150627E8,1.205305E8,1.0859846E8,0E0,1.420818E8,1.4916167E7,3.2879616E8,2.861504E7,1.9828688E7,1.729356E7,3.711603E7,1.5618362E8,7.780896E6,8.130072E7,9.5174616E7,0E0,8.162753E5,6.579469E7,1.2776317E8,0E0,1.3650424E7,2.079672E6,1.3697998E7,0E0,0E0,3.99684E5,0E0,1.959926E8,5.373611E7,0E0,0E0,3.578336E6,4.957835E6,7.784056E7,5.0841236E7,0E0,0E0,0E0,0E0,1.7327402E7,6.090621E7,0E0,0E0,0E0,0E0,0E0,0E0,0E0,0E0,0E0,0E0,0E0,0E0,0E0,0E0,0E0,0E0,0E0,0E0,0E0,0E0,0E0,0E0,0E0,0E0],"parents":[2147483647,0,0,1,1,2,2,3,3,4,4,5,5,6,6,8,8,9,9,10,10,12,12,13,13,14,14,15,15,16,16,17,17,18,18,19,19,20,20,21,21,22,22,24,24,25,25,26,26,28,28,29,29,30,30,33,33,35,35,36,36,39,39,40,40,41,41,42,42,47,47,48,48],"right_children":[2,4,6,8,10,12,14,-1,16,18,20,-1,22,24,26,28,30,32,34,36,38,40,42,-1,44,46,48,-1,50,52,54,-1,-1,56,-1,58,60,-1,-1,62,64,66,68,-1,-1,-1,-1,70,72,-1,-1,-1,-1,-1,-1,-1,-1,-1,-1,-1,-1,-1,-1,-1,-1,-1,-1,-1,-1,-1,-1,-1,-1],"split_conditions":[1.6323571E4,9.491E3,1.9550715E4,9.997E3,1.1804429E4,4.204E3,2E0,2.1588062E2,1.1764E4,8.617E3,7.8113066E3,4.8198642E2,9.491E3,9.8224056E7,1.8956E4,4.790648E3,1.3497643E4,4E0,3.5686987E3,1.5594714E4,1.0201E4,1.7118715E4,1.5190866E4,-1.601334E2,2E1,1.9914572E4,2.2039428E4,-3.3958286E1,7E0,1.6916E4,6E0,1.00871025E2,-8.942532E1,3.117E3,-4.270392E2,1.3767E4,1.9505E4,-6.2323975E1,-2.9768808E2,4E0,5E0,1.4771134E4,3.072E4,2.3287745E1,-1.7977606E1,6.8137823E2,2.0339688E2,1E1,2.1934E4,2.1686797E2,5.087158E0,-2.0018951E2,-4.7087257E1,2.4189589E1,-1.106855E2,-4.3815308E1,-1.6795314E2,-3.2484936E1,-2.2675163E2,9.0109886E1,-1.4817502E2,1.0400659E2,4.0352716E2,4.9352688E1,-6.2226124E1,2.5219786E1,2.803207E2,-1.4493672E1,-2.3218457E2,1.9008627E1,-1.8091605E2,2.3795801E1,3.4943088E2],"split_indices":[13,7,13,8,13,10,1,0,9,12,14,0,8,18,6,14,15,2,14,13,8,13,16,0,2,15,13,0,1,6,1,0,0,6,0,8,6,0,0,1,1,16,7,0,0,0,0,1,6,0,0,0,0,0,0,0,0,0,0,0,0,0,0,0,0,0,0,0,0,0,0,0,0],"split_type":[0,0,0,0,0,0,0,0,0,0,0,0,0,0,0,0,0,0,0,0,0,0,0,0,0,0,0,0,0,0,0,0,0,0,0,0,0,0,0,0,0,0,0,0,0,0,0,0,0,0,0,0,0,0,0,0,0,0,0,0,0,0,0,0,0,0,0,0,0,0,0,0,0],"sum_hessian":[1.87E2,1.12E2,7.5E1,2.1E1,9.1E1,5E1,2.5E1,3E0,1.8E1,1.5E1,7.6E1,3E0,4.7E1,5E0,2E1,6E0,1.2E1,3E0,1.2E1,6.6E1,1E1,6E0,4.1E1,2E0,3E0,9E0,1.1E1,2E0,4E0,6E0,6E0,1E0,2E0,3E0,9E0,5.3E1,1.3E1,1E0,9E0,4E0,2E0,1.2E1,2.9E1,1E0,2E0,7E0,2E0,3E0,8E0,3E0,1E0,5E0,1E0,3E0,3E0,1E0,2E0,2.3E1,3E1,1.1E1,2E0,1E0,3E0,1E0,1E0,8E0,4E0,2.7E1,2E0,2E0,1E0,2E0,6E0],"tree_param":{"num_deleted":"0","num_feature":"19","num_nodes":"73","size_leaf_vector":"1"}},{"base_weights":[2.1097511E2,-5.459782E2,1.8672125E4,7.232941E2,-6.301508E3,1.3679515E3,5.317187E3,-1.4447937E2,5.9805474E3,-7.7965923E3,-2.8743914E3,3.0909027E2,6.8083305E1,-1.3012056E3,1.3859982E3,-1.8725348E3,8.723077E3,-4.2517944E1,-8.101386E3,-5.0624652E2,-5.6149155E3,-6.103945E2,-2.8840315E3,4.4898296E3,-7.754582E1,1.7818098E2,-1.471219E2,1.275399E4,2.294321E3,-8.344974E3,-8.6830666E1,2.0421959E3,-2.292451E2,-3.1048386E2,-8.089678E1,-1.1452035E2,1.2378224E1,1.1706431E2,-1.6311809E2,4.1647775E2,1.3338203E2,-1.4727512E2,1.7967146E1,-9.341992E0,2.2705566E1,6.7231586E2,1.8038463E2,-4.8785416E1,1.8987373E2,-4.2830273E2,-1.0913796E2,-1.4358789E1,1.3481664E2],"categories":[],"categories_nodes":[],"categories_segments":[],"categories_sizes":[],"default_left":[0,0,0,0,0,0,0,0,0,0,0,0,0,0,0,0,0,0,0,0,0,0,0,0,0,0,0,0,0,0,0,0,0,0,0,0,0,0,0,0,0,0,0,0,0,0,0,0,0,0,0,0,0],"id":6,"left_children":[1,3,5,7,9,-1,11,13,15,17,19,-1,-1,21,23,25,27,-1,29,31,33,35,37,39,41,43,-1,45,47,49,-1,51,-1,-1,-1,-1,-1,-1,-1,-1,-1,-1,-1,-1,-1,-1,-1,-1,-1,-1,-1,-1,-1],"loss_changes":[2.483633E9,1.25377E9,6.666184E8,6.441209E8,1.3642816E8,0E0,5.262512E6,2.1778538E8,4.4708064E8,3.7571456E7,6.854701E7,0E0,0E0,7.477996E7,2.4110566E8,1.3688688E7,3.594446E8,0E0,1.6515584E7,8.212278E7,1.839376E6,7.2636104E7,4.915293E7,9.672365E7,4.7418616E7,3.8700703E5,0E0,8.479616E6,3.811272E7,7.186944E6,0E0,8.392962E6,0E0,0E0,0E0,0E0,0E0,0E0,0E0,0E0,0E0,0E0,0E0,0E0,0E0,0E0,0E0,0E0,0E0,0E0,0E0,0E0,0E0],"parents":[2147483647,0,0,1,1,2,2,3,3,4,4,6,6,7,7,8,8,9,9,10,10,13,13,14,14,15,15,16,16,18,18,19,19,20,20,21,21,22,22,23,23,24,24,25,25,27,27,28,28,29,29,31,31],"right_children":[2,4,6,8,10,-1,12,14,16,18,20,-1,-1,22,24,26,28,-1,30,32,34,36,38,40,42,44,-1,46,48,50,-1,52,-1,-1,-1,-1,-1,-1,-1,-1,-1,-1,-1,-1,-1,-1,-1,-1,-1,-1,-1,-1,-1],"split_conditions":[2.3845285E4,6E0,3E0,1.8689572E4,1.6185286E4,1.3679515E3,6E0,1.5697429E4,5E0,4.124E3,1.6877643E4,3.0909027E2,6.8083305E1,1.6765E4,1.52369E4,1.3412E4,4.1952016E8,-4.2517944E1,1.8569E4,3.072E4,1.7405E4,1.2698143E4,3.117E3,2.3297088E8,1.4567E4,2E0,-1.471219E2,1E1,1.7483E4,9E0,-8.6830666E1,7E0,-2.292451E2,-3.1048386E2,-8.089678E1,-1.1452035E2,1.2378224E1,1.1706431E2,-1.6311809E2,4.1647775E2,1.3338203E2,-1.4727512E2,1.7967146E1,-9.341992E0,2.2705566E1,6.7231586E2,1.8038463E2,-4.8785416E1,1.8987373E2,-4.2830273E2,-1.0913796E2,-1.4358789E1,1.3481664E2],"split_indices":[13,3,3,13,13,0,3,13,1,12,15,0,0,11,16,7,17,0,9,7,8,13,12,17,15,3,0,1,9,1,0,1,0,0,0,0,0,0,0,0,0,0,0,0,0,0,0,0,0,0,0,0,0],"split_type":[0,0,0,0,0,0,0,0,0,0,0,0,0,0,0,0,0,0,0,0,0,0,0,0,0,0,0,0,0,0,0,0,0,0,0,0,0,0,0,0,0,0,0,0,0,0,0,0,0,0,0,0,0],"sum_hessian":[1.76E2,1.7E2,6E0,1.4E2,3E1,3E0,3E0,1.21E2,1.9E1,2E1,1E1,2E0,1E0,6.9E1,5.2E1,5E0,1.4E1,1E0,1.9E1,6E0,4E0,4.9E1,2E1,1.6E1,3.6E1,2E0,3E0,8E0,6E0,1.8E1,1E0,4E0,2E0,3E0,1E0,1.6E1,3.3E1,1E0,1.9E1,4E0,1.2E1,4E0,3.2E1,1E0,1E0,7E0,1E0,2E0,4E0,1.7E1,1E0,1E0,3E0],"tree_param":{"num_deleted":"0","num_feature":"19","num_nodes":"53","size_leaf_vector":"1"}},{"base_weights":[1.6928827E2,-7.522599E2,8.941142E3,7.6782513E2,-3.98259E3,4.7390244E3,1.3485674E3,-1.0542415E3,3.011831E3,-2.0449127E3,-5.4488545E3,-1.7437073E2,5.575728E3,6.597445E2,-1.6152953E3,6.2812524E3,2.1866992E2,-3.2901782E3,2.2392468E3,-5.811635E3,1.1772459E2,6.3823765E3,4.905599E2,1.7674429E3,-1.01693097E3,-2.7736172E3,-3.8966953E2,-1.2473757E3,7.931878E3,6.5008896E3,-1.4296775E3,-3.5464626E3,3.3073536E1,-3.7204567E1,1.4923665E2,3.653174E1,-6.0810015E3,6.721206E3,6.63812E1,1.0457012E2,-6.777813E1,-3.7917797E1,1.4791324E2,6.1213844E1,-7.9725586E1,-7.682041E0,-1.6449652E2,1.521093E2,-3.355748E1,-1.0285026E2,-1.0977215E0,6.210138E2,1.3251465E2,4.7669678E1,3.7098553E2,1.657105E1,-1.2927426E2,-1.03942665E2,-2.1457047E2,-3.2935263E2,-7.622223E1,3.6955704E2,1.23550064E2],"categories":[],"categories_nodes":[],"categories_segments":[],"categories_sizes":[],"default_left":[0,0,0,0,0,0,0,0,0,0,0,0,0,0,0,0,0,0,0,0,0,0,0,0,0,0,0,0,0,0,0,0,0,0,0,0,0,0,0,0,0,0,0,0,0,0,0,0,0,0,0,0,0,0,0,0,0,0,0,0,0,0,0],"id":7,"left_children":[1,3,5,7,9,11,-1,13,15,17,19,-1,21,23,25,27,29,31,33,35,-1,37,39,41,43,45,47,49,51,53,55,57,-1,-1,-1,-1,59,61,-1,-1,-1,-1,-1,-1,-1,-1,-1,-1,-1,-1,-1,-1,-1,-1,-1,-1,-1,-1,-1,-1,-1,-1,-1],"loss_changes":[1.445622E9,7.9853894E8,1.1601879E9,4.5702406E8,1.3659725E8,1.2269126E8,0E0,6.068727E7,4.5522746E8,1.354055E8,9.577946E7,0E0,5.4296256E7,3.151338E7,6.5643664E7,2.9571386E8,2.9924205E8,2.1588064E7,1.5565132E7,5.378656E7,0E0,1.1629152E7,1.1701081E7,3.232118E7,1.1013472E7,3.1960016E7,2.5225736E7,4.915525E6,4.1749376E8,2.3509024E7,4.7673172E7,1.0758016E7,0E0,0E0,0E0,0E0,5.2216384E7,1.3057472E7,0E0,0E0,0E0,0E0,0E0,0E0,0E0,0E0,0E0,0E0,0E0,0E0,0E0,0E0,0E0,0E0,0E0,0E0,0E0,0E0,0E0,0E0,0E0,0E0,0E0],"parents":[2147483647,0,0,1,1,2,2,3,3,4,4,5,5,7,7,8,8,9,9,10,10,12,12,13,13,14,14,15,15,16,16,17,17,18,18,19,19,21,21,22,22,23,23,24,24,25,25,26,26,27,27,28,28,29,29,30,30,31,31,36,36,37,37],"right_children":[2,4,6,8,10,12,-1,14,16,18,20,-1,22,24,26,28,30,32,34,36,-1,38,40,42,44,46,48,50,52,54,56,58,-1,-1,-1,-1,60,62,-1,-1,-1,-1,-1,-1,-1,-1,-1,-1,-1,-1,-1,-1,-1,-1,-1,-1,-1,-1,-1,-1,-1,-1,-1],"split_conditions":[1.8126133E4,4E0,1.2174846E4,6.5168174E3,6E0,3E0,1.3485674E3,1.0201E4,1.4052E4,1.5793E4,3.1E1,-1.7437073E2,2.9458E4,1.6E1,5E0,6.774E3,9.985E3,9E0,2.6149187E3,7.801281E7,1.1772459E2,6E0,2.4E1,7.405E3,1.0497E4,5.2511456E7,3.819E3,5E0,1.8956E4,5E0,1.6416666E4,6E0,3.3073536E1,-3.7204567E1,1.4923665E2,3.653174E1,9E0,2.9349E4,6.63812E1,1.0457012E2,-6.777813E1,-3.7917797E1,1.4791324E2,6.1213844E1,-7.9725586E1,-7.682041E0,-1.6449652E2,1.521093E2,-3.355748E1,-1.0285026E2,-1.0977215E0,6.210138E2,1.3251465E2,4.7669678E1,3.7098553E2,1.657105E1,-1.2927426E2,-1.03942665E2,-2.1457047E2,-3.2935263E2,-7.622223E1,3.6955704E2,1.23550064E2],"split_indices":[16,3,14,14,3,2,0,12,12,12,2,0,8,2,1,6,8,1,14,17,0,3,2,6,8,18,7,1,6,1,16,1,0,0,0,0,1,12,0,0,0,0,0,0,0,0,0,0,0,0,0,0,0,0,0,0,0,0,0,0,0,0,0],"split_type":[0,0,0,0,0,0,0,0,0,0,0,0,0,0,0,0,0,0,0,0,0,0,0,0,0,0,0,0,0,0,0,0,0,0,0,0,0,0,0,0,0,0,0,0,0,0,0,0,0,0,0,0,0,0,0,0,0,0,0,0,0,0,0],"sum_hessian":[1.77E2,1.61E2,1.6E1,1.1E2,5.1E1,1.4E1,2E0,6.1E1,4.9E1,2.3E1,2.8E1,1E0,1.3E1,1.5E1,4.6E1,2.2E1,2.7E1,1.8E1,5E0,2.7E1,1E0,1.1E1,2E0,9E0,6E0,2.3E1,2.3E1,4E0,1.8E1,5E0,2.2E1,1.7E1,1E0,1E0,4E0,1E0,2.6E1,1E1,1E0,1E0,1E0,3E0,6E0,1E0,5E0,4E0,1.9E1,1E0,2.2E1,2E0,2E0,9E0,9E0,1E0,4E0,9E0,1.3E1,7E0,1E1,2.3E1,3E0,8E0,2E0],"tree_param":{"num_deleted":"0","num_feature":"19","num_nodes":"63","size_leaf_vector":"1"}},{"base_weights":[-2.291197E2,-1.5350139E3,6.054989E3,-4.6838562E2,-5.7503604E3,8.387594E3,-5.788906E2,-1.6020737E3,5.486239E2,-6.4781753E3,1.479685E2,1.9145858E3,1.1712227E4,-2.6817961E3,1.3600952E2,2.2070425E3,-1.9311965E3,-2.693726E2,4.115723E3,-3.322119E1,-6.668891E3,3.4262772E2,-1.6964907E3,1.3941223E4,2.2329947E2,-4.1431446E1,-2.129377E2,4.0083985E0,1.3593596E2,1.5875919E2,-2.0904575E3,1.4211495E3,-1.1071511E3,4.441732E2,2.2738286E3,-7.146361E3,-3.1387544E3,4.0604103E1,-1.1803108E2,3.0045184E2,8.082331E2,-1.9962819E2,-7.413783E1,2.3776208E2,3.5359272E1,-1.3152708E2,-3.243639E1,-1.8043816E1,1.4888072E2,-3.6405942E2,-1.0450396E2,-5.7660155E0,-1.9328915E2],"categories":[],"categories_nodes":[],"categories_segments":[],"categories_sizes":[],"default_left":[0,0,0,0,0,0,0,0,0,0,0,0,0,0,0,0,0,0,0,0,0,0,0,0,0,0,0,0,0,0,0,0,0,0,0,0,0,0,0,0,0,0,0,0,0,0,0,0,0,0,0,0,0],"id":8,"left_children":[1,3,5,7,9,11,13,15,17,19,-1,21,23,25,-1,27,29,31,33,-1,35,-1,37,39,-1,-1,-1,-1,-1,-1,41,43,45,-1,47,49,51,-1,-1,-1,-1,-1,-1,-1,-1,-1,-1,-1,-1,-1,-1,-1,-1],"loss_changes":[1.4782367E9,6.6724154E8,4.845564E8,1.3923554E8,2.0934362E8,4.725445E8,6.97339E7,7.572126E7,1.8785264E8,2.6614784E7,0E0,1.7210773E8,1.8001626E8,1.4005272E7,0E0,5.223408E6,4.973963E7,7.6636424E7,8.518066E7,0E0,2.3078656E7,0E0,1.1913142E7,9.687014E7,0E0,0E0,0E0,0E0,0E0,0E0,5.418741E7,3.9484756E7,2.3434368E7,0E0,1.9617232E7,4.6144E5,1.0544808E7,0E0,0E0,0E0,0E0,0E0,0E0,0E0,0E0,0E0,0E0,0E0,0E0,0E0,0E0,0E0,0E0],"parents":[2147483647,0,0,1,1,2,2,3,3,4,4,5,5,6,6,7,7,8,8,9,9,11,11,12,12,13,13,15,15,16,16,17,17,18,18,20,20,22,22,23,23,30,30,31,31,32,32,34,34,35,35,36,36],"right_children":[2,4,6,8,10,12,14,16,18,20,-1,22,24,26,-1,28,30,32,34,-1,36,-1,38,40,-1,-1,-1,-1,-1,-1,42,44,46,-1,48,50,52,-1,-1,-1,-1,-1,-1,-1,-1,-1,-1,-1,-1,-1,-1,-1,-1],"split_conditions":[1.8551143E4,6E0,4E0,1.4598571E4,1.7309857E4,1.588224E8,2.2E1,3.786E3,1.7737E4,7.813E3,1.479685E2,1.5614E4,5.708347E8,6E0,1.3600952E2,8.994E3,3.3244316E7,1.1621E4,1.8569E4,-3.322119E1,1.6185286E4,3.4262772E2,1.6056E4,1.4423E4,2.2329947E2,-4.1431446E1,-2.129377E2,4.0083985E0,1.3593596E2,1.5875919E2,1.1973429E4,1.3219E4,9.524E3,4.441732E2,1.8769E4,9E0,1.602E4,4.0604103E1,-1.1803108E2,3.0045184E2,8.082331E2,-1.9962819E2,-7.413783E1,2.3776208E2,3.5359272E1,-1.3152708E2,-3.243639E1,-1.8043816E1,1.4888072E2,-3.6405942E2,-1.0450396E2,-5.7660155E0,-1.9328915E2],"split_indices":[13,3,3,13,13,18,2,12,10,6,0,7,17,3,0,9,18,11,10,0,13,0,7,6,0,0,0,0,0,0,13,6,6,0,10,1,11,0,0,0,0,0,0,0,0,0,0,0,0,0,0,0,0],"split_type":[0,0,0,0,0,0,0,0,0,0,0,0,0,0,0,0,0,0,0,0,0,0,0,0,0,0,0,0,0,0,0,0,0,0,0,0,0,0,0,0,0,0,0,0,0,0,0,0,0,0,0,0,0],"sum_hessian":[1.78E2,1.48E2,3E1,1.19E2,2.9E1,2.2E1,8E0,5.6E1,6.3E1,2.7E1,2E0,8E0,1.4E1,5E0,3E0,4E0,5.2E1,5.2E1,1.1E1,1E0,2.6E1,3E0,5E0,1E1,4E0,3E0,2E0,1E0,3E0,1E0,5.1E1,1.7E1,3.5E1,2E0,9E0,2.2E1,4E0,1E0,4E0,3E0,7E0,1.1E1,4E1,2E0,1.5E1,7E0,2.8E1,2E0,7E0,2.1E1,1E0,1E0,3E0],"tree_param":{"num_deleted":"0","num_feature":"19","num_nodes":"53","size_leaf_vector":"1"}},{"base_weights":[-7.0013725E1,9.187981E2,-5.489016E3,1.4245367E2,5.5031626E3,-5.843741E3,1.11082275E2,-7.116924E2,2.159764E3,-1.9344741E3,7.6766436E3,-6.6480547E3,-8.142869E2,3.3524575E3,-1.01649854E3,4.3019404E3,-8.164588E2,-2.106735E1,-2.585701E3,1.2287225E4,2.759456E3,-6.9668394E3,-2.094285E3,-1.7771959E2,1.0986234E2,7.5589795E2,2.5554515E2,-1.6551572E3,5.2066784E0,1.3715981E3,6.6759536E3,3.3489926E2,-1.6524841E3,-1.5428146E2,-2.7147902E1,1.4233821E4,1.8247133E2,-7.1871666E1,3.9883574E3,-7.170356E3,-6.7324585E1,-1.8663235E2,2.9560987E1,4.7787746E1,3.9081788E0,-1.8265276E2,-5.1362606E1,7.911393E1,-2.8954344E1,1.9417807E2,-4.8872784E1,1.5817418E2,5.8316046E2,-1.0797231E2,1.6147281E2,2.107976E2,7.6004034E2,-1.9672705E1,2.335269E2,-7.338281E1,-3.6910544E2],"categories":[],"categories_nodes":[],"categories_segments":[],"categories_sizes":[],"default_left":[0,0,0,0,0,0,0,0,0,0,0,0,0,0,0,0,0,0,0,0,0,0,0,0,0,0,0,0,0,0,0,0,0,0,0,0,0,0,0,0,0,0,0,0,0,0,0,0,0,0,0,0,0,0,0,0,0,0,0,0,0],"id":9,"left_children":[1,3,5,7,9,11,-1,13,15,17,19,21,23,25,27,29,31,-1,33,35,37,39,41,-1,-1,43,-1,45,47,49,51,-1,53,-1,-1,55,-1,-1,57,59,-1,-1,-1,-1,-1,-1,-1,-1,-1,-1,-1,-1,-1,-1,-1,-1,-1,-1,-1,-1,-1],"loss_changes":[1.0070591E9,5.651043E8,9.230253E7,2.3759872E8,3.8665824E8,1.0785382E8,0E0,1.2356923E8,2.6491174E8,4.822856E6,3.7417357E8,2.0249536E7,4.9069464E7,2.8098032E7,5.9388016E7,1.578034E8,1.24149096E8,0E0,2.40953E6,9.938342E7,5.730863E7,1.5509696E7,1.5406301E7,0E0,0E0,4.670945E5,0E0,6.6498864E7,3.4089304E7,7.460485E7,1.9083226E8,0E0,4.9048148E7,0E0,0E0,3.72416E6,0E0,0E0,2.5751144E7,1.4524288E7,0E0,0E0,0E0,0E0,0E0,0E0,0E0,0E0,0E0,0E0,0E0,0E0,0E0,0E0,0E0,0E0,0E0,0E0,0E0,0E0,0E0],"parents":[2147483647,0,0,1,1,2,2,3,3,4,4,5,5,7,7,8,8,9,9,10,10,11,11,12,12,13,13,14,14,15,15,16,16,18,18,19,19,20,20,21,21,22,22,25,25,27,27,28,28,29,29,30,30,32,32,35,35,38,38,39,39],"right_children":[2,4,6,8,10,12,-1,14,16,18,20,22,24,26,28,30,32,-1,34,36,38,40,42,-1,-1,44,-1,46,48,50,52,-1,54,-1,-1,56,-1,-1,58,60,-1,-1,-1,-1,-1,-1,-1,-1,-1,-1,-1,-1,-1,-1,-1,-1,-1,-1,-1,-1,-1],"split_conditions":[6E0,1.8330643E4,3.1E1,7.2801E3,2E0,9E0,1.11082275E2,3.799E3,1.5305E4,8.617E3,1.767E4,2.272E4,5E0,1.099E4,1.5654357E4,1.0623E4,9.491E3,-2.106735E1,4E0,2.1E1,1.5177E4,1.8569E4,3E0,-1.7771959E2,1.0986234E2,1.3767E4,2.5554515E2,8E0,1.602E4,8.183E3,1.3595E4,3.3489926E2,9E0,-1.5428146E2,-2.7147902E1,1.4423E4,1.8247133E2,-7.1871666E1,3.213E3,7.691E3,-6.7324585E1,-1.8663235E2,2.9560987E1,4.7787746E1,3.9081788E0,-1.8265276E2,-5.1362606E1,7.911393E1,-2.8954344E1,1.9417807E2,-4.8872784E1,1.5817418E2,5.8316046E2,-1.0797231E2,1.6147281E2,2.107976E2,7.6004034E2,-1.9672705E1,2.335269E2,-7.338281E1,-3.6910544E2],"split_indices":[3,15,2,14,1,1,0,12,12,10,8,12,2,9,15,12,8,0,3,2,9,6,1,0,0,8,0,2,15,8,11,0,1,0,0,6,0,0,12,6,0,0,0,0,0,0,0,0,0,0,0,0,0,0,0,0,0,0,0,0,0],"split_type":[0,0,0,0,0,0,0,0,0,0,0,0,0,0,0,0,0,0,0,0,0,0,0,0,0,0,0,0,0,0,0,0,0,0,0,0,0,0,0,0,0,0,0,0,0,0,0,0,0,0,0,0,0,0,0,0,0,0,0,0,0],"sum_hessian":[1.86E2,1.58E2,2.8E1,1.36E2,2.2E1,2.7E1,1E0,9.6E1,4E1,5E0,1.7E1,2.3E1,4E0,6E0,9E1,2.3E1,1.7E1,2E0,3E0,8E0,9E0,2.1E1,2E0,2E0,2E0,3E0,3E0,5.5E1,3.5E1,1.1E1,1.2E1,1E0,1.6E1,2E0,1E0,6E0,2E0,2E0,7E0,2E1,1E0,1E0,1E0,2E0,1E0,1.2E1,4.3E1,9E0,2.6E1,5E0,6E0,8E0,4E0,1.5E1,1E0,1E0,5E0,1E0,6E0,1E0,1.9E1],"tree_param":{"num_deleted":"0","num_feature":"19","num_nodes":"61","size_leaf_vector":"1"}},{"base_weights":[-2.9840747E2,8.256139E2,-5.671043E3,-1.18555466E2,5.623649E3,-5.9836445E3,1.0830523E2,-1.725568E3,1.036717E3,-4.1980872E2,8.332953E3,-6.2522456E3,5.8574856E1,-1.108089E3,-3.8973171E3,5.843424E3,5.549995E2,2.6033945E3,-1.6554945E3,9.732659E3,1.0008154E3,-3.7104306E2,-4.9959756E3,-2.799743E3,-1.6893718E2,-4.068507E3,-5.035569E1,3.6106418E2,-6.0593433E1,1.1357437E3,-1.7275443E3,1.6052002E2,3.473457E1,-1.4638017E2,-2.8056524E1,6.0973945E3,1.301619E4,-4.2877785E1,9.530622E1,-5.891564E3,-2.2228718E3,-6.184796E1,-2.1039534E2,-9.1121086E1,3.744631E1,-5.7722073E1,-2.122235E2,2.9201557E1,1.6009862E2,-1.6847131E2,6.5140443E0,-1.9180908E1,3.4777368E2,7.28372E2,9.271743E1,-6.564148E1,-3.0818613E2,2.161849E1,-1.8292926E2],"categories":[],"categories_nodes":[],"categories_segments":[],"categories_sizes":[],"default_left":[0,0,0,0,0,0,0,0,0,0,0,0,0,0,0,0,0,0,0,0,0,0,0,0,0,0,0,0,0,0,0,0,0,0,0,0,0,0,0,0,0,0,0,0,0,0,0,0,0,0,0,0,0,0,0,0,0,0,0],"id":10,"left_children":[1,3,5,7,9,11,-1,13,15,17,19,21,-1,23,25,27,29,31,33,35,37,-1,39,41,43,45,-1,-1,-1,47,49,-1,-1,-1,-1,51,53,-1,-1,55,57,-1,-1,-1,-1,-1,-1,-1,-1,-1,-1,-1,-1,-1,-1,-1,-1,-1,-1],"loss_changes":[1.152084E9,7.164316E8,9.380806E7,2.4870838E8,4.2921094E8,6.88247E7,0E0,7.077797E7,1.7736397E8,3.7931468E7,1.7499046E8,8.436608E6,0E0,7.101941E7,1.83984E6,7.679966E7,9.740336E7,1.245544E6,8.102284E6,9.968282E7,8.364207E6,0E0,3.1607872E7,3.000548E7,4.689504E7,7.40448E5,0E0,0E0,0E0,6.424788E7,4.6193916E7,0E0,0E0,0E0,0E0,5.271923E7,9.419034E7,0E0,0E0,8.107904E6,2.4454858E7,0E0,0E0,0E0,0E0,0E0,0E0,0E0,0E0,0E0,0E0,0E0,0E0,0E0,0E0,0E0,0E0,0E0,0E0],"parents":[2147483647,0,0,1,1,2,2,3,3,4,4,5,5,7,7,8,8,9,9,10,10,11,11,13,13,14,14,15,15,16,16,17,17,18,18,19,19,20,20,22,22,23,23,24,24,25,25,29,29,30,30,35,35,36,36,39,39,40,40],"right_children":[2,4,6,8,10,12,-1,14,16,18,20,22,-1,24,26,28,30,32,34,36,38,-1,40,42,44,46,-1,-1,-1,48,50,-1,-1,-1,-1,52,54,-1,-1,56,58,-1,-1,-1,-1,-1,-1,-1,-1,-1,-1,-1,-1,-1,-1,-1,-1,-1,-1],"split_conditions":[1E0,1.9550715E4,3.1E1,1.4406571E4,3E0,2.1807715E4,1.0830523E2,1.6999E4,4.204E3,1.9E1,2.9349E4,1.7022E4,5.8574856E1,1.2381429E4,1.6349E4,3E1,1.8768E4,1.8E1,9.8224056E7,1.0301764E4,1.5E1,-3.7104306E2,1.9E1,1.4400667E4,1.0573E4,2E0,-5.035569E1,3.6106418E2,-6.0593433E1,1.8145E4,1.6361857E4,1.6052002E2,3.473457E1,-1.4638017E2,-2.8056524E1,3.213E3,2.1E1,-4.2877785E1,9.530622E1,1.7663E4,2.1E1,-6.184796E1,-2.1039534E2,-9.1121086E1,3.744631E1,-5.7722073E1,-2.122235E2,2.9201557E1,1.6009862E2,-1.6847131E2,6.5140443E0,-1.9180908E1,3.4777368E2,7.28372E2,9.271743E1,-6.564148E1,-3.0818613E2,2.161849E1,-1.8292926E2],"split_indices":[5,13,2,13,4,13,0,9,10,2,12,7,0,13,7,2,11,2,18,14,2,0,2,16,10,2,0,0,0,10,13,0,0,0,0,12,2,0,0,7,2,0,0,0,0,0,0,0,0,0,0,0,0,0,0,0,0,0,0],"split_type":[0,0,0,0,0,0,0,0,0,0,0,0,0,0,0,0,0,0,0,0,0,0,0,0,0,0,0,0,0,0,0,0,0,0,0,0,0,0,0,0,0,0,0,0,0,0,0,0,0,0,0,0,0,0,0,0,0,0,0],"sum_hessian":[1.89E2,1.57E2,3.2E1,1.32E2,2.5E1,3.1E1,1E0,5.5E1,7.7E1,8E0,1.7E1,3E1,1E0,4.4E1,1.1E1,6E0,7.1E1,2E0,6E0,1.4E1,3E0,1.3E1,1.7E1,1.5E1,2.9E1,1E1,1E0,5E0,1E0,5.7E1,1.4E1,1E0,1E0,2E0,4E0,8E0,6E0,1E0,2E0,1.2E1,5E0,8E0,7E0,1E1,1.9E1,1E0,9E0,4.6E1,1.1E1,7E0,7E0,1E0,7E0,5E0,1E0,1E0,1.1E1,2E0,3E0],"tree_param":{"num_deleted":"0","num_feature":"19","num_nodes":"59","size_leaf_vector":"1"}},{"base_weights":[4.3264066E2,-2.6666898E2,1.4714407E4,8.2625165E2,-5.382894E3,1.2164501E3,4.0798528E3,-8.8766754E2,3.0781067E3,4.572012E1,-5.640455E3,3.1364493E2,9.8168335E1,-4.4839703E2,-3.2662888E3,5.183334E3,1.0094066E3,-1.0364072E3,-5.9547505E3,-9.742521E2,1.2886567E3,-2.0693701E2,-6.085544E1,-1.6202388E3,6.030678E3,5.9248623E3,-1.6375262E2,-1.3886963E1,-6.384358E1,-6.4022617E3,-1.892874E3,4.48717E1,-7.206296E1,-2.5625956E1,1.5769487E2,-9.935818E1,-1.2986621E1,4.319356E2,1.3790642E2,4.0764633E2,4.895778E1,-3.5957104E1,2.1669737E2,-7.879185E1,-3.275008E2,1.0236651E2,-1.9443594E2],"categories":[],"categories_nodes":[],"categories_segments":[],"categories_sizes":[],"default_left":[0,0,0,0,0,0,0,0,0,0,0,0,0,0,0,0,0,0,0,0,0,0,0,0,0,0,0,0,0,0,0,0,0,0,0,0,0,0,0,0,0,0,0,0,0,0,0],"id":11,"left_children":[1,3,5,7,9,-1,11,13,15,-1,17,-1,-1,19,21,23,25,27,29,31,33,-1,-1,35,37,39,41,-1,-1,43,45,-1,-1,-1,-1,-1,-1,-1,-1,-1,-1,-1,-1,-1,-1,-1,-1],"loss_changes":[1.7117654E9,9.214746E8,7.187167E8,5.2762394E8,5.219379E7,0E0,1.0891752E7,8.003435E7,2.5171789E8,0E0,3.4345344E7,0E0,0E0,6.245586E7,1.6416424E7,1.7695526E8,1.7973518E8,1.926605E5,3.5142464E7,4.674614E7,5.5370456E7,0E0,0E0,1.480682E6,1.9808128E8,5.8133136E7,6.806408E7,0E0,0E0,6.080064E6,3.941763E7,0E0,0E0,0E0,0E0,0E0,0E0,0E0,0E0,0E0,0E0,0E0,0E0,0E0,0E0,0E0,0E0],"parents":[2147483647,0,0,1,1,2,2,3,3,4,4,6,6,7,7,8,8,10,10,13,13,14,14,15,15,16,16,17,17,18,18,19,19,20,20,23,23,24,24,25,25,26,26,29,29,30,30],"right_children":[2,4,6,8,10,-1,12,14,16,-1,18,-1,-1,20,22,24,26,28,30,32,34,-1,-1,36,38,40,42,-1,-1,44,46,-1,-1,-1,-1,-1,-1,-1,-1,-1,-1,-1,-1,-1,-1,-1,-1],"split_conditions":[2.4854857E4,1E0,2.1E1,1.6323571E4,7.691E3,1.2164501E3,2.3E1,3.2013555E8,1.4462E4,4.572012E1,7.813E3,3.1364493E2,9.8168335E1,1.5247E4,2.3E1,6.774E3,9.524E3,7E0,9E0,1.0573E4,5E0,-2.0693701E2,-6.085544E1,5E0,2.5542717E8,2.1589E4,2.1873E4,-1.3886963E1,-6.384358E1,7.813E3,1.7483E4,4.48717E1,-7.206296E1,-2.5625956E1,1.5769487E2,-9.935818E1,-1.2986621E1,4.319356E2,1.3790642E2,4.0764633E2,4.895778E1,-3.5957104E1,2.1669737E2,-7.879185E1,-3.275008E2,1.0236651E2,-1.9443594E2],"split_indices":[13,5,2,13,9,0,2,17,12,0,6,0,0,6,2,6,8,1,1,8,1,0,0,1,17,6,15,0,0,9,7,0,0,0,0,0,0,0,0,0,0,0,0,0,0,0,0],"split_type":[0,0,0,0,0,0,0,0,0,0,0,0,0,0,0,0,0,0,0,0,0,0,0,0,0,0,0,0,0,0,0,0,0,0,0,0,0,0,0,0,0,0,0,0,0,0,0],"sum_hessian":[1.7E2,1.63E2,7E0,1.35E2,2.8E1,3E0,4E0,7.7E1,5.8E1,1E0,2.7E1,1E0,3E0,6.6E1,1.1E1,2.8E1,3E1,2E0,2.5E1,5.1E1,1.5E1,7E0,4E0,3E0,2.5E1,5E0,2.5E1,1E0,1E0,2.2E1,3E0,1E1,4.1E1,8E0,7E0,2E0,1E0,1.3E1,1.2E1,3E0,2E0,2.3E1,2E0,1E0,2.1E1,1E0,2E0],"tree_param":{"num_deleted":"0","num_feature":"19","num_nodes":"47","size_leaf_vector":"1"}},{"base_weights":[1.4295528E2,1.8170511E3,-3.2644084E3,7.625534E2,9.746638E3,-1.513953E3,-4.5976777E3,-1.0770443E3,2.0153618E3,1.2188512E3,5.2768213E3,-3.4709033E3,5.51137E2,-6.05751E3,-2.4420457E3,2.230772E2,-1.9857083E3,1.1640265E3,7.829206E3,9.588616E3,-6.3307635E2,-4.677832E1,-3.8154956E3,1.9068347E3,-1.0769657E3,-1.3539795E1,-6.3639497E3,1.0606705E3,-3.812185E3,-1.5727275E2,8.0440186E2,-3.3068074E3,-7.964483E2,3.859919E3,1.0930489E2,5.4188617E2,2.1112588E3,1.9448444E2,5.5451245E2,-2.2947732E3,8.9677246E1,-2.20432E2,-7.635235E1,4.2832227E2,1.354139E2,-1.8427621E3,8.794531E1,-3.317597E2,-4.3819923E1,9.741565E1,-6.2247486E1,5.46563E1,-4.412029E3,-9.104941E0,9.684887E1,-2.722461E1,-1.9024107E2,-9.792147E1,2.3254438E1,3.5914104E1,2.8365366E2,3.025909E2,-2.5149319E1,-1.2661963E1,1.491919E2,-1.715459E1,-1.415485E2,3.1608204E1,-4.580078E0,-1.332646E2,-3.8258705E1,1.1252832E1,-2.4761333E2],"categories":[],"categories_nodes":[],"categories_segments":[],"categories_sizes":[],"default_left":[0,0,0,0,0,0,0,0,0,0,0,0,0,0,0,0,0,0,0,0,0,0,0,0,0,0,0,0,0,0,0,0,0,0,0,0,0,0,0,0,0,0,0,0,0,0,0,0,0,0,0,0,0,0,0,0,0,0,0,0,0,0,0,0,0,0,0,0,0,0,0,0,0],"id":12,"left_children":[1,3,5,7,9,11,13,15,17,-1,19,21,23,25,27,29,31,33,35,37,39,-1,41,43,45,-1,47,49,51,-1,53,55,57,59,61,-1,63,-1,-1,65,-1,-1,-1,67,-1,69,-1,-1,-1,-1,-1,-1,71,-1,-1,-1,-1,-1,-1,-1,-1,-1,-1,-1,-1,-1,-1,-1,-1,-1,-1,-1,-1],"loss_changes":[1.0212887E9,9.959753E8,1.3073523E8,2.4876963E8,7.868988E8,1.1102747E8,8.90537E7,5.24234E7,3.076566E8,0E0,3.1185747E8,8.661552E6,3.2954608E7,3.1969024E7,7.603161E7,3.9736212E7,3.821569E7,1.616528E8,1.1473907E8,1.6766336E7,2.8309632E7,0E0,9.556384E6,8.31953E6,1.8443148E7,0E0,2.0977344E7,1.2658384E7,3.7189536E7,0E0,1.9346592E7,1.443636E7,2.2899076E7,8.70655E7,1.5586304E8,0E0,9.008472E6,0E0,0E0,3.214656E6,0E0,0E0,0E0,4.81836E5,0E0,3.278678E6,0E0,0E0,0E0,0E0,0E0,0E0,2.616584E7,0E0,0E0,0E0,0E0,0E0,0E0,0E0,0E0,0E0,0E0,0E0,0E0,0E0,0E0,0E0,0E0,0E0,0E0,0E0,0E0],"parents":[2147483647,0,0,1,1,2,2,3,3,4,4,5,5,6,6,7,7,8,8,10,10,11,11,12,12,13,13,14,14,15,15,16,16,17,17,18,18,19,19,20,20,22,22,23,23,24,24,26,26,27,27,28,28,30,30,31,31,32,32,33,33,34,34,36,36,39,39,43,43,45,45,52,52],"right_children":[2,4,6,8,10,12,14,16,18,-1,20,22,24,26,28,30,32,34,36,38,40,-1,42,44,46,-1,48,50,52,-1,54,56,58,60,62,-1,64,-1,-1,66,-1,-1,-1,68,-1,70,-1,-1,-1,-1,-1,-1,72,-1,-1,-1,-1,-1,-1,-1,-1,-1,-1,-1,-1,-1,-1,-1,-1,-1,-1,-1,-1],"split_conditions":[4E0,1.8337572E4,6E0,5.7151753E3,9.08E3,1.5518634E4,2.0091E4,1.3007E4,1.7737E4,1.2188512E3,1.3501E4,1.0302E4,7.8113066E3,4.124E3,6.3975776E3,3.786E3,1.3487E4,9.997E3,1.8569E4,3E0,2E0,-4.677832E1,2.1002E4,1.5504E4,2.1589E4,-1.3539795E1,1.7519857E4,1.0963E4,1.3091E4,-1.5727275E2,1.47865E4,4.87E3,2.1401118E8,5.632E3,5.049E3,5.4188617E2,3E0,1.9448444E2,5.5451245E2,4.255E3,8.9677246E1,-2.20432E2,-7.635235E1,1.6515E4,1.354139E2,1.8769E4,8.794531E1,-3.317597E2,-4.3819923E1,9.741565E1,-6.2247486E1,5.46563E1,2.0424E4,-9.104941E0,9.684887E1,-2.722461E1,-1.9024107E2,-9.792147E1,2.3254438E1,3.5914104E1,2.8365366E2,3.025909E2,-2.5149319E1,-1.2661963E1,1.491919E2,-1.715459E1,-1.415485E2,3.1608204E1,-4.580078E0,-1.332646E2,-3.8258705E1,1.1252832E1,-2.4761333E2],"split_indices":[3,15,3,14,7,16,7,9,10,0,12,11,14,12,14,9,7,8,10,3,4,0,9,12,7,0,15,9,11,0,16,10,17,8,7,0,4,0,0,8,0,0,0,7,0,8,0,0,0,0,0,0,7,0,0,0,0,0,0,0,0,0,0,0,0,0,0,0,0,0,0,0,0],"split_type":[0,0,0,0,0,0,0,0,0,0,0,0,0,0,0,0,0,0,0,0,0,0,0,0,0,0,0,0,0,0,0,0,0,0,0,0,0,0,0,0,0,0,0,0,0,0,0,0,0,0,0,0,0,0,0,0,0,0,0,0,0,0,0,0,0,0,0,0,0,0,0,0,0],"sum_hessian":[1.77E2,1.19E2,5.8E1,1.06E2,1.3E1,2.6E1,3.2E1,4.3E1,6.3E1,2E0,1.1E1,1.3E1,1.3E1,1.8E1,1.4E1,1.8E1,2.5E1,5.6E1,7E0,6E0,5E0,2E0,1.1E1,7E0,6E0,1E0,1.7E1,4E0,1E1,2E0,1.6E1,1.1E1,1.4E1,1.5E1,4.1E1,4E0,3E0,2E0,4E0,3E0,2E0,8E0,3E0,3E0,4E0,5E0,1E0,1.6E1,1E0,3E0,1E0,1E0,9E0,9E0,7E0,2E0,9E0,7E0,7E0,6E0,9E0,3E0,3.8E1,1E0,2E0,1E0,2E0,2E0,1E0,2E0,3E0,1E0,8E0],"tree_param":{"num_deleted":"0","num_feature":"19","num_nodes":"73","size_leaf_vector":"1"}},{"base_weights":[6.055914E1,-1.13433E3,6.1977285E3,-2.2929329E3,6.2248004E2,1.3834696E3,4.442691E3,-1.4768003E3,-5.075557E3,2.0781543E3,-7.1617725E2,-3.090596E3,6.214736E3,-2.816452E3,-8.5781757E2,-9.852347E2,-5.4753022E3,3.8941182E3,9.174302E2,1.584645E3,-1.6853966E3,-3.967484E1,-2.0203856E2,8.496417E3,1.7214077E3,-8.785905E2,-4.0904646E3,5.714035E2,-2.0011842E3,-1.3201294E1,-6.069131E1,-5.972906E3,-1.12023186E2,3.8951868E2,1.4592256E3,2.210332E3,-1.1366012E3,3.4824446E3,-2.1326655E3,2.6706356E1,-3.5555732E3,9.469196E3,-1.2806233E2,-7.8583626E1,2.8868125E3,-8.1719154E1,7.1485985E1,-2.2268604E2,-6.975184E1,7.468366E1,-8.750117E1,-1.1459001E1,-1.3492635E2,-3.0873532E2,-7.869248E1,1.1748504E2,-9.3374026E-1,3.8281605E1,2.4541618E2,-9.3376175E1,-1.6227158E1,2.6900342E2,3.5710487E1,-1.5795923E1,-1.3164708E2,-4.6412354E1,6.477633E1,-1.8984792E2,-2.8543066E1,2.9520704E1,5.053382E2,-2.119258E1,1.754616E2],"categories":[],"categories_nodes":[],"categories_segments":[],"categories_sizes":[],"default_left":[0,0,0,0,0,0,0,0,0,0,0,0,0,0,0,0,0,0,0,0,0,0,0,0,0,0,0,0,0,0,0,0,0,0,0,0,0,0,0,0,0,0,0,0,0,0,0,0,0,0,0,0,0,0,0,0,0,0,0,0,0,0,0,0,0,0,0,0,0,0,0,0,0],"id":13,"left_children":[1,3,5,7,9,-1,11,13,15,17,19,21,23,25,27,29,31,33,35,37,39,-1,-1,41,43,45,47,49,51,-1,-1,53,-1,-1,55,57,59,61,63,65,67,69,-1,-1,71,-1,-1,-1,-1,-1,-1,-1,-1,-1,-1,-1,-1,-1,-1,-1,-1,-1,-1,-1,-1,-1,-1,-1,-1,-1,-1,-1,-1],"loss_changes":[1.3050134E9,3.0470867E8,9.698971E8,1.9689357E8,1.1840726E8,0E0,3.929883E8,5.645869E7,2.7307264E7,5.7554576E7,7.403081E7,9.88954E6,2.2117811E8,5.072107E7,8.284966E7,1.74105E5,1.5591936E7,9.298869E7,5.296982E7,7.797399E7,7.373945E7,0E0,0E0,1.8560294E8,3.9077064E7,1.9782748E7,6.515616E6,5.1856544E7,3.398099E7,0E0,0E0,3.59792E6,0E0,0E0,1.0572148E7,4.30155E7,4.142318E6,3.2928984E7,2.803704E6,1.6954204E7,5.757584E6,7.328435E7,0E0,0E0,1.5911748E7,0E0,0E0,0E0,0E0,0E0,0E0,0E0,0E0,0E0,0E0,0E0,0E0,0E0,0E0,0E0,0E0,0E0,0E0,0E0,0E0,0E0,0E0,0E0,0E0,0E0,0E0,0E0,0E0],"parents":[2147483647,0,0,1,1,2,2,3,3,4,4,6,6,7,7,8,8,9,9,10,10,11,11,12,12,13,13,14,14,15,15,16,16,17,17,18,18,19,19,20,20,23,23,24,24,25,25,26,26,27,27,28,28,31,31,34,34,35,35,36,36,37,37,38,38,39,39,40,40,41,41,44,44],"right_children":[2,4,6,8,10,-1,12,14,16,18,20,22,24,26,28,30,32,34,36,38,40,-1,-1,42,44,46,48,50,52,-1,-1,54,-1,-1,56,58,60,62,64,66,68,70,-1,-1,72,-1,-1,-1,-1,-1,-1,-1,-1,-1,-1,-1,-1,-1,-1,-1,-1,-1,-1,-1,-1,-1,-1,-1,-1,-1,-1,-1,-1],"split_conditions":[1.9550715E4,1.5783429E4,4.255E3,6E0,1.5793E4,1.3834696E3,2E0,1.2514571E4,7.813E3,1.4179E4,1.2738E4,8.617E3,1.9802E4,1.4052E4,1.4015E4,7E0,1.6261E4,1.4015E4,1.6501285E4,2.9522E4,7.322297E3,-3.967484E1,-2.0203856E2,4E0,1.5177E4,1.3487E4,1.8956E4,1.8175E4,1.0603E4,-1.3201294E1,-6.069131E1,9E0,-1.12023186E2,3.8951868E2,7.7943013E3,1.61E4,1.5736E4,1.1302E4,8.183E3,1.7864428E4,1.7818428E4,5.049E3,-1.2806233E2,-7.8583626E1,3.213E3,-8.1719154E1,7.1485985E1,-2.2268604E2,-6.975184E1,7.468366E1,-8.750117E1,-1.1459001E1,-1.3492635E2,-3.0873532E2,-7.869248E1,1.1748504E2,-9.3374026E-1,3.8281605E1,2.4541618E2,-9.3376175E1,-1.6227158E1,2.6900342E2,3.5710487E1,-1.5795923E1,-1.3164708E2,-4.6412354E1,6.477633E1,-1.8984792E2,-2.8543066E1,2.9520704E1,5.053382E2,-2.119258E1,1.754616E2],"split_indices":[13,13,7,3,11,0,1,13,6,6,7,10,8,9,7,1,8,10,15,8,14,0,0,3,9,9,11,8,11,0,0,1,0,0,14,10,8,6,6,13,13,8,0,0,12,0,0,0,0,0,0,0,0,0,0,0,0,0,0,0,0,0,0,0,0,0,0,0,0,0,0,0,0],"split_type":[0,0,0,0,0,0,0,0,0,0,0,0,0,0,0,0,0,0,0,0,0,0,0,0,0,0,0,0,0,0,0,0,0,0,0,0,0,0,0,0,0,0,0,0,0,0,0,0,0,0,0,0,0,0,0,0,0,0,0,0,0,0,0,0,0,0,0,0,0,0,0,0,0],"sum_hessian":[1.76E2,1.48E2,2.8E1,8.9E1,5.9E1,1E0,2.7E1,7E1,1.9E1,2.8E1,3.1E1,5E0,2.2E1,2.1E1,4.9E1,2E0,1.7E1,1E1,1.8E1,9E0,2.2E1,2E0,3E0,1.4E1,8E0,9E0,1.2E1,2.2E1,2.7E1,1E0,1E0,1.4E1,3E0,3E0,7E0,1.1E1,7E0,6E0,3E0,1.2E1,1E1,1.3E1,1E0,2E0,6E0,7E0,2E0,1E1,2E0,1.6E1,6E0,8E0,1.9E1,1.3E1,1E0,4E0,3E0,8E0,3E0,3E0,4E0,3E0,3E0,1E0,2E0,7E0,5E0,9E0,1E0,1E0,1.2E1,1E0,5E0],"tree_param":{"num_deleted":"0","num_feature":"19","num_nodes":"73","size_leaf_vector":"1"}},{"base_weights":[-3.006389E1,1.4352018E3,-2.8624097E3,-7.523792E2,2.7825066E3,-1.2376167E3,-4.4459487E3,1.2502156E2,-1.8553812E3,6.724361E2,5.121043E3,-1.9458026E3,2.0374585E3,-5.020591E3,-1.3106156E3,-1.452284E3,7.825701E2,-2.7835771E3,-8.4289557E2,2.809111E3,-5.0394418E2,4.613864E2,6.780064E3,-2.608384E3,1.3587164E3,-2.8106153E1,1.3348997E2,3.920459E1,-5.295123E3,1.0057952E2,-1.7373082E2,2.1809132E1,-2.15447E3,1.7305728E3,-6.421103E1,-1.6910464E2,-1.0402808E3,-2.4749143E3,9.296058E2,4.9426285E2,4.4834644E3,-1.8121963E3,1.444781E3,1.388809E3,-7.4379785E2,9.112012E1,7.688051E3,-2.9614402E3,6.147835E2,-2.0662745E1,1.905023E3,-5.546445E3,1.2131812E1,-1.3211052E2,-3.9299644E1,1.443884E2,3.3534023E1,2.2258106E1,-7.854634E1,-5.985098E1,-1.4251612E1,-1.384363E2,-2.5146437E1,8.587166E1,-2.1534962E1,1.3805724E2,-9.480923E1,3.2617496E2,4.0627758E1,-1.3151811E2,-3.326176E1,1.4814168E2,-4.847243E1,1.0688057E2,-3.6265302E0,1.3057642E1,-5.3016186E1,6.2224285E1,-8.422442E1,5.894643E2,2.4940945E2,-9.768143E1,-1.8869444E2,-1.886145E1,6.4970215E1,2.9453077E1,1.0736615E2,-8.4969696E1,-2.9159537E2],"categories":[],"categories_nodes":[],"categories_segments":[],"categories_sizes":[],"default_left":[0,0,0,0,0,0,0,0,0,0,0,0,0,0,0,0,0,0,0,0,0,0,0,0,0,0,0,0,0,0,0,0,0,0,0,0,0,0,0,0,0,0,0,0,0,0,0,0,0,0,0,0,0,0,0,0,0,0,0,0,0,0,0,0,0,0,0,0,0,0,0,0,0,0,0,0,0,0,0,0,0,0,0,0,0,0,0,0,0],"id":14,"left_children":[1,3,5,7,9,11,13,15,17,19,21,23,25,27,29,31,33,35,37,39,41,43,45,47,49,-1,-1,-1,51,-1,-1,-1,53,55,57,-1,59,61,63,65,67,69,71,73,75,77,79,81,83,-1,85,87,-1,-1,-1,-1,-1,-1,-1,-1,-1,-1,-1,-1,-1,-1,-1,-1,-1,-1,-1,-1,-1,-1,-1,-1,-1,-1,-1,-1,-1,-1,-1,-1,-1,-1,-1,-1,-1],"loss_changes":[7.303825E8,3.439847E8,1.4887302E8,4.3781824E7,3.5183872E8,7.586472E7,4.7470784E7,2.8102546E7,1.644944E7,9.9443784E7,2.5970765E8,6.04714E7,1.1363684E7,4.399117E7,5.012504E7,1.1548182E7,1.5363385E7,6.915576E6,3.4121004E7,5.2046224E7,6.890325E7,1.2210142E7,1.5113626E8,2.6855712E7,5.627458E6,0E0,0E0,0E0,3.474797E7,0E0,0E0,0E0,1.92801E6,9.101752E6,9.141602E6,0E0,1.323175E5,2.08388E6,7.1698095E6,4.3167668E7,5.4609536E7,1.3264652E7,4.318651E7,6.720569E6,1.8673708E6,1.0288023E7,1.8479373E8,9.003136E6,2.52763E6,0E0,1.0524E4,1.5347648E7,0E0,0E0,0E0,0E0,0E0,0E0,0E0,0E0,0E0,0E0,0E0,0E0,0E0,0E0,0E0,0E0,0E0,0E0,0E0,0E0,0E0,0E0,0E0,0E0,0E0,0E0,0E0,0E0,0E0,0E0,0E0,0E0,0E0,0E0,0E0,0E0,0E0],"parents":[2147483647,0,0,1,1,2,2,3,3,4,4,5,5,6,6,7,7,8,8,9,9,10,10,11,11,12,12,13,13,14,14,15,15,16,16,17,17,18,18,19,19,20,20,21,21,22,22,23,23,24,24,28,28,32,32,33,33,34,34,36,36,37,37,38,38,39,39,40,40,41,41,42,42,43,43,44,44,45,45,46,46,47,47,48,48,50,50,51,51],"right_children":[2,4,6,8,10,12,14,16,18,20,22,24,26,28,30,32,34,36,38,40,42,44,46,48,50,-1,-1,-1,52,-1,-1,-1,54,56,58,-1,60,62,64,66,68,70,72,74,76,78,80,82,84,-1,86,88,-1,-1,-1,-1,-1,-1,-1,-1,-1,-1,-1,-1,-1,-1,-1,-1,-1,-1,-1,-1,-1,-1,-1,-1,-1,-1,-1,-1,-1,-1,-1,-1,-1,-1,-1,-1,-1],"split_conditions":[4E0,5.5422817E3,6E0,1.4052E4,2.2241965E8,2.0767E4,9E0,3E0,9.462E3,1.5388667E4,5E0,9E0,2.6149187E3,7.691E3,1.3091E4,4E0,1.3767E4,1.5721E4,2.318236E8,1.1043E4,1.6848E4,1.4275E4,5.241E3,2.9394E4,1.4423E4,-2.8106153E1,1.3348997E2,3.920459E1,3.0584E4,1.0057952E2,-1.7373082E2,2.1809132E1,1.1E1,9E0,1.0976E4,-1.6910464E2,3E0,2.8E1,1.4E1,9.143E3,1.6826466E8,1.394666E8,1.5736E4,1.4548E4,1.7E1,8E0,1.4E1,6E0,2E0,-2.0662745E1,1E1,1.3266833E4,1.2131812E1,-1.3211052E2,-3.9299644E1,1.443884E2,3.3534023E1,2.2258106E1,-7.854634E1,-5.985098E1,-1.4251612E1,-1.384363E2,-2.5146437E1,8.587166E1,-2.1534962E1,1.3805724E2,-9.480923E1,3.2617496E2,4.0627758E1,-1.3151811E2,-3.326176E1,1.4814168E2,-4.847243E1,1.0688057E2,-3.6265302E0,1.3057642E1,-5.3016186E1,6.2224285E1,-8.422442E1,5.894643E2,2.4940945E2,-9.768143E1,-1.8869444E2,-1.886145E1,6.4970215E1,2.9453077E1,1.0736615E2,-8.4969696E1,-2.9159537E2],"split_indices":[3,14,3,9,17,12,1,1,11,16,1,1,14,9,11,2,8,7,17,12,16,12,8,8,7,0,0,0,8,0,0,0,2,2,9,0,3,2,2,7,17,17,12,7,2,1,2,1,1,0,2,16,0,0,0,0,0,0,0,0,0,0,0,0,0,0,0,0,0,0,0,0,0,0,0,0,0,0,0,0,0,0,0,0,0,0,0,0,0],"split_type":[0,0,0,0,0,0,0,0,0,0,0,0,0,0,0,0,0,0,0,0,0,0,0,0,0,0,0,0,0,0,0,0,0,0,0,0,0,0,0,0,0,0,0,0,0,0,0,0,0,0,0,0,0,0,0,0,0,0,0,0,0,0,0,0,0,0,0,0,0,0,0,0,0,0,0,0,0,0,0,0,0,0,0,0,0,0,0,0,0],"sum_hessian":[1.74E2,1.15E2,5.9E1,4.4E1,7.1E1,3E1,2.9E1,2.5E1,1.9E1,3.8E1,3.3E1,2.5E1,5E0,2.4E1,5E0,7E0,1.8E1,9E0,1E1,1.3E1,2.5E1,9E0,2.4E1,2.1E1,4E0,1E0,4E0,1E0,2.3E1,2E0,3E0,2E0,5E0,8E0,1E1,6E0,3E0,5E0,5E0,6E0,7E0,1.5E1,1E1,5E0,4E0,3E0,2.1E1,1.9E1,2E0,1E0,3E0,2.2E1,1E0,3E0,2E0,3E0,5E0,8E0,2E0,2E0,1E0,4E0,1E0,3E0,2E0,3E0,3E0,4E0,3E0,8E0,7E0,6E0,4E0,3E0,2E0,1E0,3E0,2E0,1E0,7E0,1.4E1,1E1,9E0,1E0,1E0,1E0,2E0,2E0,2E1],"tree_param":{"num_deleted":"0","num_feature":"19","num_nodes":"89","size_leaf_vector":"1"}},{"base_weights":[3.8079364E2,-1.2203262E2,1.1018252E4,-1.8253706E3,1.3767484E3,1.2225814E3,2.4651895E3,-1.1817168E3,-5.051762E3,7.6573813E3,9.9996783E2,2.4423094E2,3.4320312E1,1.2152207E2,-1.3858232E3,-5.6189966E3,4.387627E1,4.8865942E2,-2.0146193E1,6.207951E3,6.067012E2,-7.6465576E1,5.326507E1,-4.0554333E1,-2.0269617E3,-2.933304E2,-7.238191E1,1.3990443E2,3.6066803E2,1.1443055E3,-2.3347607E3,1.3817719E2,-6.3240627E1,-1.5156326E2,-3.913322E1,1.2584709E1,2.0705688E2,4.339105E1,-1.9272775E2],"categories":[],"categories_nodes":[],"categories_segments":[],"categories_sizes":[],"default_left":[0,0,0,0,0,0,0,0,0,0,0,0,0,0,0,0,0,0,0,0,0,0,0,0,0,0,0,0,0,0,0,0,0,0,0,0,0,0,0],"id":15,"left_children":[1,3,5,7,9,-1,11,13,15,17,19,-1,21,-1,23,25,-1,-1,-1,27,29,-1,-1,31,33,-1,-1,-1,-1,35,37,-1,-1,-1,-1,-1,-1,-1,-1],"loss_changes":[9.480811E8,4.365113E8,8.588941E8,1.601646E8,2.0768714E8,0E0,3.5120252E7,5.350216E7,4.865363E7,8.920813E7,1.744206E8,0E0,8.0774775E6,0E0,5.598052E7,3.901792E6,0E0,0E0,0E0,3.8624E5,1.3234179E8,0E0,0E0,7.902005E7,5.261224E7,0E0,0E0,0E0,0E0,1.8620816E8,6.6619504E7,0E0,0E0,0E0,0E0,0E0,0E0,0E0,0E0],"parents":[2147483647,0,0,1,1,2,2,3,3,4,4,6,6,7,7,8,8,9,9,10,10,12,12,14,14,15,15,19,19,20,20,23,23,24,24,29,29,30,30],"right_children":[2,4,6,8,10,-1,12,14,16,18,20,-1,22,-1,24,26,-1,-1,-1,28,30,-1,-1,32,34,-1,-1,-1,-1,36,38,-1,-1,-1,-1,-1,-1,-1,-1],"split_conditions":[2.4854857E4,1.5378571E4,1.9E1,1E0,4.53E3,1.2225814E3,2.4E1,3.786E3,2.1934E4,9E0,4.204E3,2.4423094E2,9.08E3,1.2152207E2,1.1909E4,9E0,4.387627E1,4.8865942E2,-2.0146193E1,3E0,1E0,-7.6465576E1,5.326507E1,9.491E3,1.4464786E4,-2.933304E2,-7.238191E1,1.3990443E2,3.6066803E2,1.8145E4,1.1896E4,1.3817719E2,-6.3240627E1,-1.5156326E2,-3.913322E1,1.2584709E1,2.0705688E2,4.339105E1,-1.9272775E2],"split_indices":[13,13,2,5,12,0,2,12,12,1,10,0,9,0,9,1,0,0,0,1,5,0,0,7,15,0,0,0,0,10,6,0,0,0,0,0,0,0,0],"split_type":[0,0,0,0,0,0,0,0,0,0,0,0,0,0,0,0,0,0,0,0,0,0,0,0,0,0,0,0,0,0,0,0,0,0,0,0,0,0,0],"sum_hessian":[1.76E2,1.69E2,7E0,7.9E1,9E1,2E0,5E0,6.7E1,1.2E1,4E0,8.6E1,2E0,3E0,3E0,6.4E1,1.1E1,1E0,3E0,1E0,5E0,8.1E1,1E0,2E0,2.1E1,4.3E1,1E1,1E0,2E0,3E0,6.9E1,1.2E1,6E0,1.5E1,2.3E1,2E1,5.4E1,1.5E1,4E0,8E0],"tree_param":{"num_deleted":"0","num_feature":"19","num_nodes":"39","size_leaf_vector":"1"}},{"base_weights":[-1.706198E2,-7.6771216E2,1.0396971E4,-2.1274664E1,-3.8490906E3,1.1189469E3,3.7765603E3,-1.07735E3,1.5632474E3,-4.958848E3,-1.02271436E3,3.904316E2,6.0200507E2,1.2061735E3,-1.3194745E3,7.961551E2,6.380819E3,1.7518799E0,-5.198321E3,2.5734482E3,-2.9315623E3,-7.4553955E1,7.49023E1,-1.3048378E2,2.913069E3,-3.1744663E3,-9.264848E2,3.9273605E2,2.967948E2,4.3660986E2,1.2171177E2,-4.455088E1,-5.3691353E3,1.4680342E2,3.7139698E1,-2.4949707E2,-3.954489E3,1.9242166E2,3.4744694E1,-2.1504078E1,-1.6924287E2,-7.902754E1,4.854904E1,2.1101115E2,-1.5720985E1,-2.751574E2,-7.0572365E1,-2.945603E1,1.0743751E1,-2.1731538E2,-5.9680397E1],"categories":[],"categories_nodes":[],"categories_segments":[],"categories_sizes":[],"default_left":[0,0,0,0,0,0,0,0,0,0,0,0,0,0,0,0,0,0,0,0,0,0,0,0,0,0,0,0,0,0,0,0,0,0,0,0,0,0,0,0,0,0,0,0,0,0,0,0,0,0,0],"id":16,"left_children":[1,3,5,7,9,-1,11,13,15,17,19,-1,21,23,25,27,29,-1,31,33,35,-1,-1,-1,37,39,41,-1,43,-1,-1,-1,45,-1,-1,47,49,-1,-1,-1,-1,-1,-1,-1,-1,-1,-1,-1,-1,-1,-1],"loss_changes":[1.06172314E9,3.6562707E8,6.294144E8,2.1754949E8,9.216291E7,0E0,8.48994E7,4.471748E7,1.8708706E8,2.6491904E7,7.6189496E7,0E0,1.1611149E7,5.9708204E7,4.881737E7,1.5980806E8,4.370317E7,0E0,1.0666752E7,4.74436E5,1.821826E7,0E0,0E0,0E0,9.774556E6,5.47296E6,7.5998744E7,0E0,1.068414E8,0E0,0E0,0E0,2.840192E6,0E0,0E0,5.997224E5,2.21032E5,0E0,0E0,0E0,0E0,0E0,0E0,0E0,0E0,0E0,0E0,0E0,0E0,0E0,0E0],"parents":[2147483647,0,0,1,1,2,2,3,3,4,4,6,6,7,7,8,8,9,9,10,10,12,12,13,13,14,14,15,15,16,16,18,18,19,19,20,20,24,24,25,25,26,26,28,28,32,32,35,35,36,36],"right_children":[2,4,6,8,10,-1,12,14,16,18,20,-1,22,24,26,28,30,-1,32,34,36,-1,-1,-1,38,40,42,-1,44,-1,-1,-1,46,-1,-1,48,50,-1,-1,-1,-1,-1,-1,-1,-1,-1,-1,-1,-1,-1,-1],"split_conditions":[2.3600143E4,1E0,9.08E3,1.5930571E4,1.6185286E4,1.1189469E3,1.5504E4,4.124E3,1.8145E4,4.124E3,6.3975776E3,3.904316E2,9.08E3,2.756E3,1.1973429E4,4.53E3,1.8569E4,1.7518799E0,9.7536056E7,1.6515E4,1.6301714E4,-7.4553955E1,7.49023E1,-1.3048378E2,1.0573E4,2.749E3,1.7022E4,3.9273605E2,1.0254E4,4.3660986E2,1.2171177E2,-4.455088E1,9E0,1.4680342E2,3.7139698E1,6E0,2.9349E4,1.9242166E2,3.4744694E1,-2.1504078E1,-1.6924287E2,-7.902754E1,4.854904E1,2.1101115E2,-1.5720985E1,-2.751574E2,-7.0572365E1,-2.945603E1,1.0743751E1,-2.1731538E2,-5.9680397E1],"split_indices":[13,5,7,13,13,0,8,7,10,12,14,0,9,7,13,12,10,0,17,8,13,0,0,0,8,9,12,0,8,0,0,0,1,0,0,1,7,0,0,0,0,0,0,0,0,0,0,0,0,0,0],"split_type":[0,0,0,0,0,0,0,0,0,0,0,0,0,0,0,0,0,0,0,0,0,0,0,0,0,0,0,0,0,0,0,0,0,0,0,0,0,0,0,0,0,0,0,0,0,0,0,0,0,0,0],"sum_hessian":[1.66E2,1.58E2,8E0,1.28E2,3E1,2E0,6E0,7.7E1,5.1E1,2.1E1,9E0,2E0,4E0,7E0,7E1,4.5E1,6E0,1E0,2E1,3E0,6E0,1E0,3E0,2E0,5E0,1.1E1,5.9E1,2E0,4.3E1,3E0,3E0,1E0,1.9E1,2E0,1E0,2E0,4E0,3E0,2E0,1E0,1E1,4.4E1,1.5E1,5E0,3.8E1,1.8E1,1E0,1E0,1E0,3E0,1E0],"tree_param":{"num_deleted":"0","num_feature":"19","num_nodes":"51","size_leaf_vector":"1"}},{"base_weights":[-3.2947372E2,-1.0144032E3,7.4239785E3,-3.4219824E2,-3.871071E3,1.2915565E3,4.021034E3,-1.1674153E3,3.2731265E2,-4.8473853E3,-2.4090417E3,5.706249E3,1.1039078E3,-4.788008E2,-2.0572344E3,2.5066685E3,-1.0677888E2,1.7080811E0,-5.1546167E3,8.715095E1,-4.29208E3,3.3115628E2,9.8520706E1,-7.269009E1,9.531051E1,-9.4578687E2,1.8580986E3,-2.4647183E3,-3.5608188E2,2.5535583E2,-8.038239E1,6.1601825E2,-1.2467585E3,-5.504707E3,-1.8026582E3,9.120718E1,-9.724748E2,-8.977526E1,-2.4125105E2,-1.10139675E1,-1.1511116E2,-3.3997396E-1,1.3961238E2,-7.816454E1,-1.696382E2,4.9352184E1,-1.014111E2,9.220706E1,-6.0951008E1,5.6877174E1,-9.280496E1,-1.8696445E1,-1.3299635E2,-2.9126218E2,-1.19382996E2,-1.8485767E2,4.9658302E1,-6.601725E1,1.0475146E1],"categories":[],"categories_nodes":[],"categories_segments":[],"categories_sizes":[],"default_left":[0,0,0,0,0,0,0,0,0,0,0,0,0,0,0,0,0,0,0,0,0,0,0,0,0,0,0,0,0,0,0,0,0,0,0,0,0,0,0,0,0,0,0,0,0,0,0,0,0,0,0,0,0,0,0,0,0,0,0],"id":17,"left_children":[1,3,5,7,9,-1,11,13,15,17,19,21,23,25,27,29,31,-1,33,35,37,-1,-1,-1,-1,39,41,43,45,-1,47,49,51,53,55,-1,57,-1,-1,-1,-1,-1,-1,-1,-1,-1,-1,-1,-1,-1,-1,-1,-1,-1,-1,-1,-1,-1,-1],"loss_changes":[9.15638E8,3.020774E8,7.7307136E8,7.1653544E7,3.1144416E7,0E0,5.7608624E7,3.455404E7,6.8382536E7,2.567216E7,6.618003E7,1.4352096E7,1.5083588E7,3.8861544E7,1.6452176E7,8.1140424E7,5.103045E7,0E0,8.852704E6,1.4657869E7,1.98088E6,0E0,0E0,0E0,0E0,2.803191E7,1.0471542E7,1.1427432E7,1.5477308E7,0E0,1.7587392E7,5.1103704E7,2.8608304E7,7.9072E4,1.9561914E7,0E0,2.33249E6,0E0,0E0,0E0,0E0,0E0,0E0,0E0,0E0,0E0,0E0,0E0,0E0,0E0,0E0,0E0,0E0,0E0,0E0,0E0,0E0,0E0,0E0],"parents":[2147483647,0,0,1,1,2,2,3,3,4,4,6,6,7,7,8,8,9,9,10,10,11,11,12,12,13,13,14,14,15,15,16,16,18,18,19,19,20,20,25,25,26,26,27,27,28,28,30,30,31,31,32,32,33,33,34,34,36,36],"right_children":[2,4,6,8,10,-1,12,14,16,18,20,22,24,26,28,30,32,-1,34,36,38,-1,-1,-1,-1,40,42,44,46,-1,48,50,52,54,56,-1,58,-1,-1,-1,-1,-1,-1,-1,-1,-1,-1,-1,-1,-1,-1,-1,-1,-1,-1,-1,-1,-1,-1],"split_conditions":[1.7730533E4,6E0,2E0,1.4598571E4,1.6261E4,1.2915565E3,1.4462E4,1.9745926E8,1.0254E4,4.124E3,7.322297E3,4E0,1E0,1.7875595E8,1.4128857E4,1.1302E4,1.5736E4,1.7080811E0,2.1934E4,1.2145E4,1.2990986E8,3.3115628E2,9.8520706E1,-7.269009E1,9.531051E1,5.0755146E3,1.3E1,1.43725E4,5.227092E3,2.5535583E2,4.87E3,1.0307539E4,3.1977968E8,1.4971571E4,1.4E1,9.120718E1,1.9323E4,-8.977526E1,-2.4125105E2,-1.10139675E1,-1.1511116E2,-3.3997396E-1,1.3961238E2,-7.816454E1,-1.696382E2,4.9352184E1,-1.014111E2,9.220706E1,-6.0951008E1,5.6877174E1,-9.280496E1,-1.8696445E1,-1.3299635E2,-2.9126218E2,-1.19382996E2,-1.8485767E2,4.9658302E1,-6.601725E1,1.0475146E1],"split_indices":[16,3,4,13,8,0,12,17,8,12,14,3,3,17,13,7,11,0,12,11,17,0,0,0,0,14,2,16,14,0,8,14,17,13,2,0,8,0,0,0,0,0,0,0,0,0,0,0,0,0,0,0,0,0,0,0,0,0,0],"split_type":[0,0,0,0,0,0,0,0,0,0,0,0,0,0,0,0,0,0,0,0,0,0,0,0,0,0,0,0,0,0,0,0,0,0,0,0,0,0,0,0,0,0,0,0,0,0,0,0,0,0,0,0,0,0,0,0,0,0,0],"sum_hessian":[1.7E2,1.57E2,1.3E1,1.28E2,2.9E1,1E0,1.2E1,5.7E1,7.1E1,1.6E1,1.3E1,7E0,5E0,3.3E1,2.4E1,1.1E1,6E1,1E0,1.5E1,6E0,7E0,5E0,2E0,1E0,4E0,2.8E1,5E0,1.9E1,5E0,5E0,6E0,3.7E1,2.3E1,1.3E1,2E0,2E0,4E0,2E0,5E0,1.9E1,9E0,2E0,3E0,1.1E1,8E0,3E0,2E0,2E0,4E0,3.1E1,6E0,1.5E1,8E0,1.1E1,2E0,1E0,1E0,3E0,1E0],"tree_param":{"num_deleted":"0","num_feature":"19","num_nodes":"59","size_leaf_vector":"1"}},{"base_weights":[3.397974E2,1.0861983E4,-9.0406685E1,1.2592676E3,4.277197E3,5.735368E2,-3.2521902E3,-3.7049904E1,5.4290356E3,4.565279E1,4.0162715E3,-4.4331484E3,-1.5858702E3,2.9909903E2,8.04314E1,6.077121E2,-1.7544589E3,-2.8251382E2,5.5717314E3,1.6653808E0,-4.714384E3,2.8877576E2,-3.50177E3,1.7443323E3,-5.1811395E2,1.116313E2,-1.9689316E3,3.7143444E1,-9.8092236E2,1.1147627E3,7.243043E3,-2.4265735E2,-6.582349E1,-5.424409E2,9.274753E1,-5.534212E1,-2.1191862E2,1.4102356E1,2.1971306E2,5.664865E0,-9.78433E1,1.5652991E1,-1.1221395E2,-1.3868555E1,-5.614912E1,-3.0882862E1,8.51141E1,4.3901328E2,1.3710716E2,-6.2755215E1,2.9429525E1],"categories":[],"categories_nodes":[],"categories_segments":[],"categories_sizes":[],"default_left":[0,0,0,0,0,0,0,0,0,0,0,0,0,0,0,0,0,0,0,0,0,0,0,0,0,0,0,0,0,0,0,0,0,0,0,0,0,0,0,0,0,0,0,0,0,0,0,0,0,0,0],"id":18,"left_children":[1,3,5,-1,7,9,11,-1,13,15,17,19,21,-1,-1,23,25,27,29,-1,31,33,35,37,39,-1,41,-1,43,45,47,-1,-1,49,-1,-1,-1,-1,-1,-1,-1,-1,-1,-1,-1,-1,-1,-1,-1,-1,-1],"loss_changes":[8.067324E8,5.524916E8,3.629355E8,0E0,3.87038E7,2.5969979E8,5.200525E7,0E0,9.396E5,1.275374E8,1.2861923E8,2.1511136E7,5.129409E7,0E0,0E0,1.2374888E8,3.004952E7,5.0255125E6,9.621149E7,0E0,1.15504E6,1.1420846E7,7.657568E6,1.8475829E8,4.473547E7,0E0,1.8924472E7,0E0,8.83035E4,6.140578E6,4.5112064E7,0E0,0E0,5.57501E6,0E0,0E0,0E0,0E0,0E0,0E0,0E0,0E0,0E0,0E0,0E0,0E0,0E0,0E0,0E0,0E0,0E0],"parents":[2147483647,0,0,1,1,2,2,4,4,5,5,6,6,8,8,9,9,10,10,11,11,12,12,15,15,16,16,17,17,18,18,20,20,21,21,22,22,23,23,24,24,26,26,28,28,29,29,30,30,33,33],"right_children":[2,4,6,-1,8,10,12,-1,14,16,18,20,22,-1,-1,24,26,28,30,-1,32,34,36,38,40,-1,42,-1,44,46,48,-1,-1,50,-1,-1,-1,-1,-1,-1,-1,-1,-1,-1,-1,-1,-1,-1,-1,-1,-1],"split_conditions":[3.786E3,2E0,1E0,1.2592676E3,2E0,9E0,1.6173E4,-3.7049904E1,1.5341E4,1.9505E4,1.5177E4,7.813E3,1.602E4,2.9909903E2,8.04314E1,1.4056E4,3.819E3,1.7483E4,8.183E3,1.6653808E0,1.8175E4,8E0,7E0,1.4077E4,2.1002E4,1.116313E2,4.53E3,3.7143444E1,7E0,1.4423E4,2.1E1,-2.4265735E2,-6.582349E1,1.8E1,9.274753E1,-5.534212E1,-2.1191862E2,1.4102356E1,2.1971306E2,5.664865E0,-9.78433E1,1.5652991E1,-1.1221395E2,-1.3868555E1,-5.614912E1,-3.0882862E1,8.51141E1,4.3901328E2,1.3710716E2,-6.2755215E1,2.9429525E1],"split_indices":[10,1,5,0,2,1,8,0,6,9,9,6,11,0,0,8,10,8,12,0,6,1,1,11,8,0,8,0,2,7,2,0,0,2,0,0,0,0,0,0,0,0,0,0,0,0,0,0,0,0,0],"split_type":[0,0,0,0,0,0,0,0,0,0,0,0,0,0,0,0,0,0,0,0,0,0,0,0,0,0,0,0,0,0,0,0,0,0,0,0,0,0,0,0,0,0,0,0,0,0,0,0,0,0,0],"sum_hessian":[1.77E2,6E0,1.71E2,1E0,5E0,1.42E2,2.9E1,1E0,4E0,1.24E2,1.8E1,1.6E1,1.3E1,3E0,1E0,9.5E1,2.9E1,5E0,1.3E1,1E0,1.5E1,7E0,6E0,4.7E1,4.8E1,1E0,2.8E1,2E0,3E0,4E0,9E0,1.4E1,1E0,5E0,2E0,2E0,4E0,3.1E1,1.6E1,3.4E1,1.4E1,3E0,2.5E1,1E0,2E0,1E0,3E0,6E0,3E0,3E0,2E0],"tree_param":{"num_deleted":"0","num_feature":"19","num_nodes":"51","size_leaf_vector":"1"}},{"base_weights":[-7.088104E1,-5.671035E2,9.365222E3,9.25015E1,-3.8000835E3,1.1052532E3,2.5674011E3,-8.8578424E2,1.7212648E3,-4.1030728E3,1.1709041E2,-6.491846E1,4.5578706E3,1.7144335E3,-1.1603717E3,3.9515552E3,3.9763403E2,-1.3053047E3,-4.5149795E3,-6.946914E1,4.1984863E1,2.5978683E2,6.6106834E1,-1.4024285E3,3.5066025E3,1.9324341E3,-1.3022812E3,5.608797E3,1.733434E3,-6.335028E2,2.1913657E3,-1.7385835E2,1.3016592E3,-4.02178E1,-4.6413394E3,-2.2786898E1,-1.060625E2,1.95605E1,2.0257195E2,1.2430123E2,6.791553E0,-1.14700745E2,-3.241404E1,3.5750247E2,5.620464E1,2.0557664E2,3.1248388E1,1.24856834E2,-4.446554E1,3.0194986E2,2.1658838E1,1.6237549E0,9.600069E1,-5.456045E1,-2.3765543E2],"categories":[],"categories_nodes":[],"categories_segments":[],"categories_sizes":[],"default_left":[0,0,0,0,0,0,0,0,0,0,0,0,0,0,0,0,0,0,0,0,0,0,0,0,0,0,0,0,0,0,0,0,0,0,0,0,0,0,0,0,0,0,0,0,0,0,0,0,0,0,0,0,0,0,0],"id":19,"left_children":[1,3,5,7,9,-1,11,13,15,17,-1,19,21,23,25,27,29,31,33,-1,-1,-1,-1,35,37,39,41,43,45,47,49,-1,51,-1,53,-1,-1,-1,-1,-1,-1,-1,-1,-1,-1,-1,-1,-1,-1,-1,-1,-1,-1,-1,-1],"loss_changes":[8.434618E8,3.650073E8,7.226758E8,2.2938027E8,6.357549E7,0E0,3.6972748E7,6.624824E7,1.578411E8,2.6374336E7,0E0,5.9591865E6,1.386384E6,5.5191252E7,3.8506264E7,6.37968E7,6.6123644E7,3.2835922E7,7.51968E6,0E0,0E0,0E0,0E0,1.7552715E6,8.599312E6,3.640652E6,4.9751784E7,6.799533E7,2.3790844E7,2.0640112E7,8.5327256E7,0E0,2.2920645E6,0E0,3.939616E6,0E0,0E0,0E0,0E0,0E0,0E0,0E0,0E0,0E0,0E0,0E0,0E0,0E0,0E0,0E0,0E0,0E0,0E0,0E0,0E0],"parents":[2147483647,0,0,1,1,2,2,3,3,4,4,6,6,7,7,8,8,9,9,11,11,12,12,13,13,14,14,15,15,16,16,17,17,18,18,23,23,24,24,25,25,26,26,27,27,28,28,29,29,30,30,32,32,34,34],"right_children":[2,4,6,8,10,-1,12,14,16,18,-1,20,22,24,26,28,30,32,34,-1,-1,-1,-1,36,38,40,42,44,46,48,50,-1,52,-1,54,-1,-1,-1,-1,-1,-1,-1,-1,-1,-1,-1,-1,-1,-1,-1,-1,-1,-1,-1,-1],"split_conditions":[2.3600143E4,6E0,1.9E1,1.6361857E4,3.1E1,1.1052532E3,2.1934E4,4.946808E7,1.2029E4,4.413452E3,1.1709041E2,1E0,4E0,5.938896E3,3.786E3,1.6664E4,1.7737E4,5E0,7.691E3,-6.946914E1,4.1984863E1,2.5978683E2,6.6106834E1,1.5E1,5E0,1.3007E4,1.3060714E4,1.767E4,1.0254E4,5.049E3,1.767E4,-1.7385835E2,7E0,-4.02178E1,7.813E3,-2.2786898E1,-1.060625E2,1.95605E1,2.0257195E2,1.2430123E2,6.791553E0,-1.14700745E2,-3.241404E1,3.5750247E2,5.620464E1,2.0557664E2,3.1248388E1,1.24856834E2,-4.446554E1,3.0194986E2,2.1658838E1,1.6237549E0,9.600069E1,-5.456045E1,-2.3765543E2],"split_indices":[13,3,2,13,2,0,6,18,12,14,0,3,3,14,12,6,9,1,6,0,0,0,0,2,2,6,13,8,8,7,6,0,1,0,9,0,0,0,0,0,0,0,0,0,0,0,0,0,0,0,0,0,0,0,0],"split_type":[0,0,0,0,0,0,0,0,0,0,0,0,0,0,0,0,0,0,0,0,0,0,0,0,0,0,0,0,0,0,0,0,0,0,0,0,0,0,0,0,0,0,0,0,0,0,0,0,0,0,0,0,0,0,0],"sum_hessian":[1.78E2,1.7E2,8E0,1.42E2,2.8E1,2E0,6E0,8.9E1,5.3E1,2.7E1,1E0,3E0,3E0,8E0,8.1E1,1.9E1,3.4E1,4E0,2.3E1,1E0,2E0,2E0,1E0,3E0,5E0,3E0,7.8E1,1E1,9E0,2.2E1,1.2E1,2E0,2E0,1E0,2.2E1,2E0,1E0,1E0,4E0,2E0,1E0,3E1,4.8E1,7E0,3E0,2E0,7E0,1E0,2.1E1,3E0,9E0,1E0,1E0,1E0,2.1E1],"tree_param":{"num_deleted":"0","num_feature":"19","num_nodes":"55","size_leaf_vector":"1"}},{"base_weights":[2.5662146E2,-2.5181538E2,9.944901E3,3.4703378E2,-3.6279312E3,1.7440023E4,4.6079843E2,-5.0914203E2,1.6326713E3,-3.9557095E3,1.1416314E2,1.0684114E3,3.8492392E2,-6.773242E1,6.2666115E1,-2.643856E2,-1.4771265E2,5.379809E2,5.4648076E3,-4.1462285E3,1.5418897E1,-4.8505707E2,1.6154834E2,3.0653445E2,1.531786E2,4.8660153E2,2.4869277E3,-7.575957E2,-4.41985E3,2.994571E1,-4.607989E1,-1.0263918E2,4.636241E1,2.3737713E1,2.441728E2,-1.1724434E2,6.042466E1,1.5831543E0,-2.3166675E2],"categories":[],"categories_nodes":[],"categories_segments":[],"categories_sizes":[],"default_left":[0,0,0,0,0,0,0,0,0,0,0,0,0,0,0,0,0,0,0,0,0,0,0,0,0,0,0,0,0,0,0,0,0,0,0,0,0,0,0],"id":20,"left_children":[1,3,5,7,9,11,13,15,17,19,-1,-1,-1,-1,-1,21,-1,23,25,27,-1,29,-1,-1,31,-1,33,35,37,-1,-1,-1,-1,-1,-1,-1,-1,-1,-1],"loss_changes":[8.891624E8,3.490059E8,6.317242E8,1.626388E8,5.940851E7,2.6830976E7,8.891736E6,5.2481576E7,2.4456522E8,2.1588384E7,0E0,0E0,0E0,0E0,0E0,6.4815824E7,0E0,1.0020899E8,1.4099174E8,1.8904416E7,0E0,3.7461372E7,0E0,0E0,7.874402E7,0E0,4.1081644E7,1.2196044E7,2.1053984E7,0E0,0E0,0E0,0E0,0E0,0E0,0E0,0E0,0E0,0E0],"parents":[2147483647,0,0,1,1,2,2,3,3,4,4,5,5,6,6,7,7,8,8,9,9,15,15,17,17,18,18,19,19,21,21,24,24,26,26,27,27,28,28],"right_children":[2,4,6,8,10,12,14,16,18,20,-1,-1,-1,-1,-1,22,-1,24,26,28,-1,30,-1,-1,32,-1,34,36,38,-1,-1,-1,-1,-1,-1,-1,-1,-1,-1],"split_conditions":[2.4854857E4,1E0,2.3E1,1.6361857E4,3.1E1,1.9E1,9.08E3,7.8113066E3,1.8145E4,3.0584E4,1.1416314E2,1.0684114E3,3.8492392E2,-6.773242E1,6.2666115E1,7.2669863E3,-1.4771265E2,4.204E3,1.4E1,1.3266833E4,1.5418897E1,1.0573E4,1.6154834E2,3.0653445E2,1.3131496E8,4.8660153E2,1.8231E4,3E0,4.124E3,2.994571E1,-4.607989E1,-1.0263918E2,4.636241E1,2.3737713E1,2.441728E2,-1.1724434E2,6.042466E1,1.5831543E0,-2.3166675E2],"split_indices":[13,5,2,13,2,2,9,14,10,8,0,0,0,0,0,14,0,10,2,16,0,8,0,0,18,0,11,1,12,0,0,0,0,0,0,0,0,0,0],"split_type":[0,0,0,0,0,0,0,0,0,0,0,0,0,0,0,0,0,0,0,0,0,0,0,0,0,0,0,0,0,0,0,0,0,0,0,0,0,0,0],"sum_hessian":[1.79E2,1.71E2,8E0,1.46E2,2.5E1,4E0,4E0,8.8E1,5.8E1,2.4E1,1E0,2E0,2E0,1E0,3E0,8.1E1,7E0,4.6E1,1.2E1,2.3E1,1E0,7.7E1,4E0,2E0,4.4E1,4E0,8E0,2E0,2.1E1,2.2E1,5.5E1,1.1E1,3.3E1,5E0,3E0,1E0,1E0,1E0,2E1],"tree_param":{"num_deleted":"0","num_feature":"19","num_nodes":"39","size_leaf_vector":"1"}},{"base_weights":[-2.4900516E2,-1.4831605E3,1.0634402E3,-3.8991448E3,-1.118758E3,1.3158961E3,-2.0942119E2,-5.254658E1,-2.2076553E2,9.2439795E2,-1.7577616E3,5.639277E2,2.8270654E3,2.1617578E3,-1.505613E3,-2.0326402E2,-2.3314521E3,1.2287308E3,-1.246476E3,-1.7641448E3,3.7420193E3,-4.3679214E1,2.793055E3,7.053284E2,-2.5310552E3,-1.1929406E3,1.8099664E3,-2.7785068E3,3.6461566E2,2.1526357E3,-2.9166608E2,3.0489664E2,-2.3146018E3,-9.817483E1,-2.4168432E1,5.0305005E3,-5.323467E2,-7.5479164E0,1.7320268E2,-9.938403E0,6.283804E1,-1.4138335E2,-3.3615234E1,3.7451366E1,-8.281185E1,1.5871826E2,-3.06277E1,-4.378394E1,-1.7254128E2,1.0313891E2,-7.123504E1,1.7716593E1,1.6639413E2,6.6392746E1,-8.494164E1,-5.0981518E1,7.765997E1,3.6448731E0,-1.3110757E2,3.616445E2,8.243502E1,-1.1987498E2,1.0659863E2],"categories":[],"categories_nodes":[],"categories_segments":[],"categories_sizes":[],"default_left":[0,0,0,0,0,0,0,0,0,0,0,0,0,0,0,0,0,0,0,0,0,0,0,0,0,0,0,0,0,0,0,0,0,0,0,0,0,0,0,0,0,0,0,0,0,0,0,0,0,0,0,0,0,0,0,0,0,0,0,0,0,0,0],"id":21,"left_children":[1,3,5,7,9,11,-1,-1,-1,13,15,17,19,21,23,25,27,29,31,33,35,-1,37,39,41,43,45,47,49,51,53,55,57,-1,-1,59,61,-1,-1,-1,-1,-1,-1,-1,-1,-1,-1,-1,-1,-1,-1,-1,-1,-1,-1,-1,-1,-1,-1,-1,-1,-1,-1],"loss_changes":[2.7369718E8,7.223178E7,1.142324E8,1.1531472E7,1.0215485E8,8.817752E7,0E0,0E0,0E0,6.0383936E7,5.2142336E7,6.6523944E7,1.1582083E8,2.7350608E7,1.7655574E7,3.6030784E7,5.2840544E7,5.6815924E7,2.5561628E7,3.27532E5,1.2384163E8,0E0,2.225264E7,1.7454481E6,8.5558E5,1.2037046E7,2.1776176E7,4.4312544E7,2.420869E7,5.1657104E7,3.8718784E7,1.3157564E7,6.79962E6,0E0,0E0,1.1469187E8,3.4927584E7,0E0,0E0,0E0,0E0,0E0,0E0,0E0,0E0,0E0,0E0,0E0,0E0,0E0,0E0,0E0,0E0,0E0,0E0,0E0,0E0,0E0,0E0,0E0,0E0,0E0,0E0],"parents":[2147483647,0,0,1,1,2,2,3,3,4,4,5,5,9,9,10,10,11,11,12,12,13,13,14,14,15,15,16,16,17,17,18,18,19,19,20,20,22,22,23,23,24,24,25,25,26,26,27,27,28,28,29,29,30,30,31,31,32,32,35,35,36,36],"right_children":[2,4,6,8,10,12,-1,-1,-1,14,16,18,20,22,24,26,28,30,32,34,36,-1,38,40,42,44,46,48,50,52,54,56,58,-1,-1,60,62,-1,-1,-1,-1,-1,-1,-1,-1,-1,-1,-1,-1,-1,-1,-1,-1,-1,-1,-1,-1,-1,-1,-1,-1,-1,-1],"split_conditions":[1.5697429E4,1.1157714E4,3.7833E4,7.405E3,1.0573E4,1.8689572E4,-2.0942119E2,-5.254658E1,-2.2076553E2,2.464105E8,9.918E3,3.3299194E8,5E0,5.679E3,1.364E4,8.994E3,2.0091E4,7.8113066E3,1.5182E4,1.6261E4,2.272E4,-4.3679214E1,5.186E3,4E0,1.61E4,1.1043E4,9.491E3,9.918E3,1.5721E4,6.3424644E3,1.3007E4,6E0,6E0,-9.817483E1,-2.4168432E1,1.9802E4,2.9349E4,-7.5479164E0,1.7320268E2,-9.938403E0,6.283804E1,-1.4138335E2,-3.3615234E1,3.7451366E1,-8.281185E1,1.5871826E2,-3.06277E1,-4.378394E1,-1.7254128E2,1.0313891E2,-7.123504E1,1.7716593E1,1.6639413E2,6.6392746E1,-8.494164E1,-5.0981518E1,7.765997E1,3.6448731E0,-1.3110757E2,3.616445E2,8.243502E1,-1.1987498E2,1.0659863E2],"split_indices":[13,13,7,6,8,13,0,0,0,17,7,17,1,6,12,7,12,14,8,7,7,0,8,1,6,12,7,12,8,14,10,1,1,0,0,8,7,0,0,0,0,0,0,0,0,0,0,0,0,0,0,0,0,0,0,0,0,0,0,0,0,0,0],"split_type":[0,0,0,0,0,0,0,0,0,0,0,0,0,0,0,0,0,0,0,0,0,0,0,0,0,0,0,0,0,0,0,0,0,0,0,0,0,0,0,0,0,0,0,0,0,0,0,0,0,0,0,0,0,0,0,0,0,0,0,0,0,0,0],"sum_hessian":[1.67E2,8.6E1,8.1E1,1E1,7.6E1,7.8E1,3E0,2E0,8E0,1.8E1,5.8E1,5.3E1,2.5E1,1.2E1,6E0,1.6E1,4.2E1,3.9E1,1.4E1,4E0,2.1E1,2E0,1E1,2E0,4E0,1.1E1,5E0,3.6E1,6E0,2.4E1,1.5E1,6E0,8E0,3E0,1E0,1.6E1,5E0,2E0,8E0,1E0,1E0,3E0,1E0,2E0,9E0,3E0,2E0,1E1,2.6E1,3E0,3E0,1E1,1.4E1,7E0,8E0,3E0,3E0,1E0,7E0,9E0,7E0,3E0,2E0],"tree_param":{"num_deleted":"0","num_feature":"19","num_nodes":"63","size_leaf_vector":"1"}},{"base_weights":[2.1199019E2,-4.413826E2,5.9436357E3,3.8219727E2,-2.0374525E3,1.1758987E3,3.6607295E3,1.4527334E3,-8.603866E2,-2.3311326E3,1.2182957E2,6.734924E3,1.0921584E3,2.5121518E2,3.843209E3,1.711378E2,-1.01148267E3,-4.130461E3,-1.8794788E3,8.725809E3,1.2812932E2,3.4360981E3,-7.3810675E2,2.8743691E3,-1.9295535E2,2.1933376E3,7.3273525E3,-6.288383E1,-1.788443E3,-1.2564697E1,-4.533558E3,-2.4923342E3,-4.8761224E2,4.8468002E2,1.2136602E2,2.6193463E2,8.378882E1,1.4709863E3,-1.9159412E3,2.0367842E2,1.5865691E1,1.888441E1,-8.571987E1,1.8917613E2,-8.225997E0,4.4608282E2,-1.61042E1,-6.556487E1,3.2163956E1,-1.0139037E2,1.1685996E2,-6.756638E1,-2.3812105E2,3.6191113E1,-1.3118333E2,4.861041E1,-1.4196887E2,1.9816944E1,9.0507034E1,-3.8450798E1,-1.21210976E2],"categories":[],"categories_nodes":[],"categories_segments":[],"categories_sizes":[],"default_left":[0,0,0,0,0,0,0,0,0,0,0,0,0,0,0,0,0,0,0,0,0,0,0,0,0,0,0,0,0,0,0,0,0,0,0,0,0,0,0,0,0,0,0,0,0,0,0,0,0,0,0,0,0,0,0,0,0,0,0,0,0],"id":22,"left_children":[1,3,5,7,9,-1,11,13,15,17,-1,19,21,23,25,-1,27,29,31,33,-1,35,37,39,41,43,45,47,49,-1,51,53,55,-1,-1,-1,-1,57,59,-1,-1,-1,-1,-1,-1,-1,-1,-1,-1,-1,-1,-1,-1,-1,-1,-1,-1,-1,-1,-1,-1],"loss_changes":[6.9543014E8,2.202987E8,6.761977E8,1.4890554E8,8.057446E7,0E0,1.3477755E8,1.7136653E8,3.711469E7,3.612125E7,0E0,4.409251E7,4.9726548E7,4.832486E7,9.889638E7,0E0,3.747574E7,1.4497568E7,3.717029E7,6.948672E6,0E0,7.086856E6,2.1031946E7,1.7105912E7,3.1902746E7,5.6863904E7,7.604669E7,2.2001534E7,3.2390288E7,0E0,1.19056E5,1.499304E7,5.4257788E7,0E0,0E0,0E0,0E0,3.75985E5,1.05052E6,0E0,0E0,0E0,0E0,0E0,0E0,0E0,0E0,0E0,0E0,0E0,0E0,0E0,0E0,0E0,0E0,0E0,0E0,0E0,0E0,0E0,0E0],"parents":[2147483647,0,0,1,1,2,2,3,3,4,4,6,6,7,7,8,8,9,9,11,11,12,12,13,13,14,14,16,16,17,17,18,18,19,19,21,21,22,22,23,23,24,24,25,25,26,26,27,27,28,28,30,30,31,31,32,32,37,37,38,38],"right_children":[2,4,6,8,10,-1,12,14,16,18,-1,20,22,24,26,-1,28,30,32,34,-1,36,38,40,42,44,46,48,50,-1,52,54,56,-1,-1,-1,-1,58,60,-1,-1,-1,-1,-1,-1,-1,-1,-1,-1,-1,-1,-1,-1,-1,-1,-1,-1,-1,-1,-1,-1],"split_conditions":[1.8917E4,4E0,4.255E3,1.5305E4,2.9522E4,1.1758987E3,1.9802E4,7.2868125E3,3.18E3,3E0,1.2182957E2,2.1E1,1.5177E4,3.799E3,1.7385E4,1.711378E2,1.2738E4,5E0,1.6466357E4,2.7143E4,1.2812932E2,2.3E1,2.272E4,1.4064E4,1.6765E4,1.3842E4,1.8913E4,6.348795E7,2.9522E4,-1.2564697E1,7.405E3,7.691E3,8.63418E3,4.8468002E2,1.2136602E2,2.6193463E2,8.378882E1,1E1,1.7405E4,2.0367842E2,1.5865691E1,1.888441E1,-8.571987E1,1.8917613E2,-8.225997E0,4.4608282E2,-1.61042E1,-6.556487E1,3.2163956E1,-1.0139037E2,1.1685996E2,-6.756638E1,-2.3812105E2,3.6191113E1,-1.3118333E2,4.861041E1,-1.4196887E2,1.9816944E1,9.0507034E1,-3.8450798E1,-1.21210976E2],"split_indices":[15,3,7,12,12,0,8,14,10,1,0,2,11,12,10,0,9,2,15,7,0,2,8,7,11,11,8,18,10,0,7,9,14,0,0,0,0,1,7,0,0,0,0,0,0,0,0,0,0,0,0,0,0,0,0,0,0,0,0,0,0],"split_type":[0,0,0,0,0,0,0,0,0,0,0,0,0,0,0,0,0,0,0,0,0,0,0,0,0,0,0,0,0,0,0,0,0,0,0,0,0,0,0,0,0,0,0,0,0,0,0,0,0,0,0,0,0,0,0,0,0,0,0,0,0],"sum_hessian":[1.84E2,1.66E2,1.8E1,1.1E2,5.6E1,1E0,1.7E1,5.9E1,5.1E1,5.3E1,3E0,7E0,1E1,4E1,1.9E1,1E0,5E1,9E0,4.4E1,4E0,3E0,4E0,6E0,5E0,3.5E1,1.4E1,5E0,2.3E1,2.7E1,1E0,8E0,3E1,1.4E1,3E0,1E0,1E0,3E0,2E0,4E0,3E0,2E0,2.6E1,9E0,8E0,6E0,4E0,1E0,8E0,1.5E1,2.6E1,1E0,1E0,7E0,1E0,2.9E1,9E0,5E0,1E0,1E0,2E0,2E0],"tree_param":{"num_deleted":"0","num_feature":"19","num_nodes":"61","size_leaf_vector":"1"}},{"base_weights":[2.4386116E2,-4.0648447E2,6.8946626E3,4.8240305E2,-2.2261147E3,2.3635432E3,1.6390416E4,-1.869904E2,2.2959983E3,-2.5602283E3,3.8296625E2,3.1545679E3,-1.0610527E3,1.1465012E3,4.5115045E2,3.062798E2,-8.9238007E2,3.8597407E3,-3.7126025E2,-1.6770485E3,-3.6158855E3,-1.0985707E3,1.3622696E2,3.7942742E3,-6.5069725E1,3.1107227E1,-1.1068618E2,-1.7862608E2,1.9976478E3,-1.4965489E2,-5.9253326E2,5.0755225E3,3.7962662E2,2.1765562E3,-1.917238E3,-2.4616843E3,-4.2572714E2,3.5286327E1,-3.8672524E3,7.410017E1,-1.6564772E2,2.0859753E2,1.9321533E1,2.6456976E1,-6.731635E1,-1.0948269E2,1.3176717E2,-1.01034225E2,-8.447478E0,1.4239256E2,3.7855545E2,8.411797E1,-3.461648E1,2.1552005E2,-3.4140366E1,-1.09495445E2,-3.6640835E1,-7.042173E1,-1.6207066E2,4.531269E1,-9.543752E1,-1.3273193E1,-2.1263516E2],"categories":[],"categories_nodes":[],"categories_segments":[],"categories_sizes":[],"default_left":[0,0,0,0,0,0,0,0,0,0,0,0,0,0,0,0,0,0,0,0,0,0,0,0,0,0,0,0,0,0,0,0,0,0,0,0,0,0,0,0,0,0,0,0,0,0,0,0,0,0,0,0,0,0,0,0,0,0,0,0,0,0,0],"id":23,"left_children":[1,3,5,7,9,11,13,15,17,19,21,23,25,-1,-1,27,29,31,33,35,37,39,-1,41,-1,-1,-1,43,45,-1,47,49,51,53,55,57,59,-1,61,-1,-1,-1,-1,-1,-1,-1,-1,-1,-1,-1,-1,-1,-1,-1,-1,-1,-1,-1,-1,-1,-1,-1,-1],"loss_changes":[7.770348E8,2.6633514E8,6.4968275E8,1.3518432E8,4.805387E7,3.5854428E7,3.400205E7,2.8805026E7,1.2656013E8,3.8688064E7,2.7276984E7,3.344292E7,7.197774E6,0E0,0E0,4.054439E7,1.9642872E7,7.846333E7,5.1439388E7,2.6443272E7,2.5541728E7,3.3481712E7,0E0,9.971392E6,0E0,0E0,0E0,3.294428E7,3.5142956E7,0E0,1.8411792E7,5.626947E7,9.543582E6,3.3450362E7,9.78856E5,9.39592E6,2.5434114E7,0E0,2.6637312E7,0E0,0E0,0E0,0E0,0E0,0E0,0E0,0E0,0E0,0E0,0E0,0E0,0E0,0E0,0E0,0E0,0E0,0E0,0E0,0E0,0E0,0E0,0E0,0E0],"parents":[2147483647,0,0,1,1,2,2,3,3,4,4,5,5,6,6,7,7,8,8,9,9,10,10,11,11,12,12,15,15,16,16,17,17,18,18,19,19,20,20,21,21,23,23,27,27,28,28,30,30,31,31,32,32,33,33,34,34,35,35,36,36,38,38],"right_children":[2,4,6,8,10,12,14,16,18,20,22,24,26,-1,-1,28,30,32,34,36,38,40,-1,42,-1,-1,-1,44,46,-1,48,50,52,54,56,58,60,-1,62,-1,-1,-1,-1,-1,-1,-1,-1,-1,-1,-1,-1,-1,-1,-1,-1,-1,-1,-1,-1,-1,-1,-1,-1],"split_conditions":[1.7730533E4,4E0,1.10964E4,7.3796445E3,2.1934E4,6E0,2E0,1.5150033E4,1.5556E4,6E0,1.6349E4,2.9349E4,1E1,1.1465012E3,4.5115045E2,6.161808E3,5.353E3,2.7770922E8,1.3007E4,1.6466357E4,7.801281E7,1.5721E4,1.3622696E2,2.9349E4,-6.5069725E1,3.1107227E1,-1.1068618E2,1.4657E4,4.898E3,-1.4965489E2,9.246E3,1.2738E4,1.4638E4,1.2738E4,1.0672E4,1.3992429E4,2.9324E4,3.5286327E1,7.813E3,7.410017E1,-1.6564772E2,2.0859753E2,1.9321533E1,2.6456976E1,-6.731635E1,-1.0948269E2,1.3176717E2,-1.01034225E2,-8.447478E0,1.4239256E2,3.7855545E2,8.411797E1,-3.461648E1,2.1552005E2,-3.4140366E1,-1.09495445E2,-3.6640835E1,-7.042173E1,-1.6207066E2,4.531269E1,-9.543752E1,-1.3273193E1,-2.1263516E2],"split_indices":[16,3,14,14,12,3,1,16,11,3,11,8,1,0,0,14,8,17,12,15,17,8,0,12,0,0,0,12,6,0,6,11,7,7,6,15,6,0,6,0,0,0,0,0,0,0,0,0,0,0,0,0,0,0,0,0,0,0,0,0,0,0,0],"split_type":[0,0,0,0,0,0,0,0,0,0,0,0,0,0,0,0,0,0,0,0,0,0,0,0,0,0,0,0,0,0,0,0,0,0,0,0,0,0,0,0,0,0,0,0,0,0,0,0,0,0,0,0,0,0,0,0,0,0,0,0,0,0,0],"sum_hessian":[1.78E2,1.63E2,1.5E1,1.1E2,5.3E1,1.1E1,4E0,8.1E1,2.9E1,4.7E1,6E0,9E0,2E0,1E0,3E0,4.8E1,3.3E1,1.8E1,1.1E1,2.7E1,2E1,4E0,2E0,8E0,1E0,1E0,1E0,3.8E1,1E1,3E0,3E1,1.3E1,5E0,4E0,7E0,1.6E1,1.1E1,1E0,1.9E1,2E0,2E0,7E0,1E0,2.4E1,1.4E1,1E0,9E0,6E0,2.4E1,8E0,5E0,2E0,3E0,2E0,2E0,5E0,2E0,8E0,8E0,6E0,5E0,2E0,1.7E1],"tree_param":{"num_deleted":"0","num_feature":"19","num_nodes":"63","size_leaf_vector":"1"}},{"base_weights":[9.8187454E1,9.0264136E2,-1.5123301E3,-4.619069E1,3.0836392E3,-1.8389738E3,3.374501E2,-1.8965233E3,4.714933E2,1.1884689E3,6.4909946E3,-2.295724E3,3.089499E2,1.793901E3,-1.1478507E2,1.0643672E3,-2.5182131E3,-1.1829564E3,9.223313E2,2.2884802E3,-1.9670579E3,7.810398E3,1.5697368E3,-1.862762E3,-3.5382224E3,1.2852826E3,-1.1987936E2,1.9015478E1,9.830573E1,-1.9141895E1,1.6743815E3,-2.5492073E1,-2.7687063E3,4.608789E2,-1.8226128E3,2.607369E2,6.5695526E2,1.0708535E3,5.4836646E3,-1.2463506E2,-9.4965015E2,8.806599E3,1.2751983E2,1.8838476E1,9.209014E1,-3.3602043E3,-1.0988191E3,-2.5495728E1,-1.909022E2,-1.1598425E2,2.1316616E3,2.2876026E1,1.0270259E2,-1.5649002E2,-5.4176052E1,4.5254654E1,-6.8480797E0,-1.9917952E1,-1.0474258E2,-3.255239E1,8.189296E1,8.18034E1,-4.462516E1,3.538804E1,3.25035E2,-5.59459E1,-1.1046167E1,1.288669E2,4.664151E2,-1.8388127E2,-4.6498046E0,-1.1063087E1,-9.7896904E1,1.2923404E2,-1.4661328E1],"categories":[],"categories_nodes":[],"categories_segments":[],"categories_sizes":[],"default_left":[0,0,0,0,0,0,0,0,0,0,0,0,0,0,0,0,0,0,0,0,0,0,0,0,0,0,0,0,0,0,0,0,0,0,0,0,0,0,0,0,0,0,0,0,0,0,0,0,0,0,0,0,0,0,0,0,0,0,0,0,0,0,0,0,0,0,0,0,0,0,0,0,0,0,0],"id":24,"left_children":[1,3,5,7,9,11,13,15,17,19,21,23,25,27,-1,29,31,33,35,37,39,41,43,45,47,49,-1,-1,-1,-1,51,-1,53,55,57,-1,59,61,63,-1,65,67,-1,-1,-1,69,71,-1,-1,-1,73,-1,-1,-1,-1,-1,-1,-1,-1,-1,-1,-1,-1,-1,-1,-1,-1,-1,-1,-1,-1,-1,-1,-1,-1],"loss_changes":[2.3716194E8,2.5260931E8,3.747792E7,8.327253E7,2.3121392E8,5.1724624E7,4.246882E7,3.7654656E7,5.181152E7,9.127946E7,7.215034E7,1.6541184E7,2.9506384E7,9.56346E5,0E0,4.17228E6,6.637728E6,1.6612352E7,5.8085652E7,6.804811E7,1.37636E6,2.993984E7,6.04328E5,3.5202384E7,6.526984E6,2.9354132E7,0E0,0E0,0E0,0E0,4.46247E5,0E0,5.127944E6,1.4518092E6,3.430604E6,0E0,6.778363E7,1.810596E7,1.9685392E7,0E0,2.46205E5,1.956416E6,0E0,0E0,0E0,1.1065904E7,1.7661006E7,0E0,0E0,0E0,8.44754E6,0E0,0E0,0E0,0E0,0E0,0E0,0E0,0E0,0E0,0E0,0E0,0E0,0E0,0E0,0E0,0E0,0E0,0E0,0E0,0E0,0E0,0E0,0E0,0E0],"parents":[2147483647,0,0,1,1,2,2,3,3,4,4,5,5,6,6,7,7,8,8,9,9,10,10,11,11,12,12,13,13,15,15,16,16,17,17,18,18,19,19,20,20,21,21,22,22,23,23,24,24,25,25,30,30,32,32,33,33,34,34,36,36,37,37,38,38,40,40,41,41,45,45,46,46,50,50],"right_children":[2,4,6,8,10,12,14,16,18,20,22,24,26,28,-1,30,32,34,36,38,40,42,44,46,48,50,-1,-1,-1,-1,52,-1,54,56,58,-1,60,62,64,-1,66,68,-1,-1,-1,70,72,-1,-1,-1,74,-1,-1,-1,-1,-1,-1,-1,-1,-1,-1,-1,-1,-1,-1,-1,-1,-1,-1,-1,-1,-1,-1,-1,-1],"split_conditions":[4E0,2.1630006E8,9E0,3E0,8E0,2.1284E4,1.5177E4,5.2511456E7,8.183E3,1.716E4,2.5715E4,2.0091E4,8E0,1.0254E4,-1.1478507E2,3.117E3,4.255E3,5.351394E7,4.946808E7,1.509E4,1.3836E4,2.9458E4,2E0,1.2145E4,7.691E3,9.462E3,-1.1987936E2,1.9015478E1,9.830573E1,-1.9141895E1,2E0,-2.5492073E1,1.7405E4,3.18E3,1.4018143E4,2.607369E2,1.3422731E8,2.2334E4,6E0,-1.2463506E2,6E0,1E0,1.2751983E2,1.8838476E1,9.209014E1,2.1002E4,1.602E4,-2.5495728E1,-1.909022E2,-1.1598425E2,1.7663E4,2.2876026E1,1.0270259E2,-1.5649002E2,-5.4176052E1,4.5254654E1,-6.8480797E0,-1.9917952E1,-1.0474258E2,-3.255239E1,8.189296E1,8.18034E1,-4.462516E1,3.538804E1,3.25035E2,-5.59459E1,-1.1046167E1,1.288669E2,4.664151E2,-1.8388127E2,-4.6498046E0,-1.1063087E1,-9.7896904E1,1.2923404E2,-1.4661328E1],"split_indices":[3,18,1,1,1,12,11,18,6,12,9,10,1,11,0,6,12,18,18,11,15,10,3,10,6,6,0,0,0,0,2,0,6,6,15,0,18,9,2,0,1,3,0,0,0,6,11,0,0,0,6,0,0,0,0,0,0,0,0,0,0,0,0,0,0,0,0,0,0,0,0,0,0,0,0],"split_type":[0,0,0,0,0,0,0,0,0,0,0,0,0,0,0,0,0,0,0,0,0,0,0,0,0,0,0,0,0,0,0,0,0,0,0,0,0,0,0,0,0,0,0,0,0,0,0,0,0,0,0,0,0,0,0,0,0,0,0,0,0,0,0,0,0,0,0,0,0,0,0,0,0,0,0],"sum_hessian":[1.81E2,1.21E2,6E1,8.5E1,3.6E1,5.1E1,9E0,1.8E1,6.7E1,2.4E1,1.2E1,4.2E1,9E0,6E0,3E0,3E0,1.5E1,1.4E1,5.3E1,1.8E1,6E0,9E0,3E0,3.3E1,9E0,7E0,2E0,1E0,5E0,1E0,2E0,2E0,1.3E1,4E0,1E1,2E0,5.1E1,1.4E1,4E0,3E0,3E0,7E0,2E0,1E0,2E0,1E1,2.3E1,1E0,8E0,1E0,6E0,1E0,1E0,1E1,3E0,2E0,2E0,2E0,8E0,2.2E1,2.9E1,1.1E1,3E0,1E0,3E0,2E0,1E0,1E0,6E0,9E0,1E0,1.2E1,1.1E1,5E0,1E0],"tree_param":{"num_deleted":"0","num_feature":"19","num_nodes":"75","size_leaf_vector":"1"}},{"base_weights":[2.039953E2,-2.5058084E2,8.818275E3,6.253676E2,-2.0134491E3,1.5666939E4,2.0595663E2,-4.5375607E2,1.9414935E3,-2.9301694E3,-1.0907285E3,1.1152711E3,4.215482E2,-6.549029E1,4.561743E1,-7.6363293E2,1.1087081E3,3.84954E2,1.4318641E3,-5.895339E2,-3.4133713E3,1.4361656E3,-1.653554E3,3.1750443E2,-1.3130212E3,-4.7594677E1,1.6723856E3,7.885536E2,4.203405E3,5.9880176E2,-1.3334021E3,-2.1548405E2,-3.707671E3,1.06737526E2,2.5997396E1,1.1850123E3,-2.2506624E3,-1.1749053E2,5.9272125E1,5.2057983E1,-7.79294E1,1.083092E1,1.1820831E2,1.6137308E2,9.575008E0,3.4375558E2,8.608499E1,4.645171E1,-1.5415772E0,-2.233532E1,-9.9837234E1,8.6970215E0,-2.4858326E1,-1.3055046E2,-2.1562915E2,-1.42948E1,1.6244604E1,9.796722E1,-4.7807888E1,-1.2801776E2,-1.4718933E1],"categories":[],"categories_nodes":[],"categories_segments":[],"categories_sizes":[],"default_left":[0,0,0,0,0,0,0,0,0,0,0,0,0,0,0,0,0,0,0,0,0,0,0,0,0,0,0,0,0,0,0,0,0,0,0,0,0,0,0,0,0,0,0,0,0,0,0,0,0,0,0,0,0,0,0,0,0,0,0,0,0],"id":25,"left_children":[1,3,5,7,9,11,13,15,17,19,21,-1,-1,-1,-1,23,25,-1,27,29,31,33,35,37,39,-1,41,43,45,47,49,51,53,-1,55,57,59,-1,-1,-1,-1,-1,-1,-1,-1,-1,-1,-1,-1,-1,-1,-1,-1,-1,-1,-1,-1,-1,-1,-1,-1],"loss_changes":[7.0314624E8,2.6531424E8,5.276192E8,1.6421115E8,4.5018944E7,5.2123264E7,6.5486115E6,3.1833624E7,1.4155622E8,2.9655712E7,4.5040788E7,0E0,0E0,0E0,0E0,3.2490956E7,1.4368596E7,0E0,8.40505E7,6.102234E6,2.0847168E7,5.855234E6,4.504036E7,4.677178E7,2.243464E7,0E0,8.55152E6,5.9084424E7,4.783661E7,6.524195E5,1.4607735E6,4.155595E5,2.670912E6,0E0,3.725552E5,1.0163323E7,1.1969072E7,0E0,0E0,0E0,0E0,0E0,0E0,0E0,0E0,0E0,0E0,0E0,0E0,0E0,0E0,0E0,0E0,0E0,0E0,0E0,0E0,0E0,0E0,0E0,0E0],"parents":[2147483647,0,0,1,1,2,2,3,3,4,4,5,5,6,6,7,7,8,8,9,9,10,10,15,15,16,16,18,18,19,19,20,20,21,21,22,22,23,23,24,24,26,26,27,27,28,28,29,29,30,30,31,31,32,32,34,34,35,35,36,36],"right_children":[2,4,6,8,10,12,14,16,18,20,22,-1,-1,-1,-1,24,26,-1,28,30,32,34,36,38,40,-1,42,44,46,48,50,52,54,-1,56,58,60,-1,-1,-1,-1,-1,-1,-1,-1,-1,-1,-1,-1,-1,-1,-1,-1,-1,-1,-1,-1,-1,-1,-1,-1],"split_conditions":[2.4854857E4,4E0,2.3E1,1.6406572E4,1.4189E4,2E0,1E0,1.8769E4,4.53E3,1.0549E4,6.3975776E3,1.1152711E3,4.215482E2,-6.549029E1,4.561743E1,1.0573E4,2E0,3.84954E2,1.7737E4,1.2738E4,7.813E3,1.6261E4,1.3007E4,3.786E3,4.87E3,-4.7594677E1,1.2634643E4,1.0254E4,1.8569E4,2E0,6E0,7E0,5.0751855E3,1.06737526E2,4E0,1.5E1,3.0584E4,-1.1749053E2,5.9272125E1,5.2057983E1,-7.79294E1,1.083092E1,1.1820831E2,1.6137308E2,9.575008E0,3.4375558E2,8.608499E1,4.645171E1,-1.5415772E0,-2.233532E1,-9.9837234E1,8.6970215E0,-2.4858326E1,-1.3055046E2,-2.1562915E2,-1.42948E1,1.6244604E1,9.796722E1,-4.7807888E1,-1.2801776E2,-1.4718933E1],"split_indices":[13,3,2,13,13,1,3,10,12,11,14,0,0,0,0,8,1,0,10,10,6,9,10,11,12,0,15,8,10,1,3,1,14,0,1,2,8,0,0,0,0,0,0,0,0,0,0,0,0,0,0,0,0,0,0,0,0,0,0,0,0],"split_type":[0,0,0,0,0,0,0,0,0,0,0,0,0,0,0,0,0,0,0,0,0,0,0,0,0,0,0,0,0,0,0,0,0,0,0,0,0,0,0,0,0,0,0,0,0,0,0,0,0,0,0,0,0,0,0,0,0,0,0,0,0],"sum_hessian":[1.78E2,1.7E2,8E0,1.14E2,5.6E1,4E0,4E0,6.3E1,5.1E1,2.7E1,2.9E1,1E0,3E0,1E0,3E0,5.3E1,1E1,3E0,4.8E1,5E0,2.2E1,5E0,2.4E1,1.8E1,3.5E1,2E0,8E0,4E1,8E0,2E0,3E0,2E0,2E1,3E0,2E0,4E0,2E1,4E0,1.4E1,3E0,3.2E1,3E0,5E0,7E0,3.3E1,3E0,5E0,1E0,1E0,2E0,1E0,1E0,1E0,9E0,1.1E1,1E0,1E0,3E0,1E0,1.7E1,3E0],"tree_param":{"num_deleted":"0","num_feature":"19","num_nodes":"61","size_leaf_vector":"1"}},{"base_weights":[7.501423E1,-1.487915E2,1.2657732E4,-9.38884E2,1.3401755E3,1.0873894E3,-1.3805945E2,-5.2258234E2,-2.8069272E3,1.7083125E3,-1.6386008E3,1.7110751E3,-7.266609E2,-3.3421167E3,-1.00113214E3,1.0888394E3,4.6158657E3,1.6922357E3,-1.6546913E2,-2.7264038E2,2.9558325E3,-9.530999E2,1.066942E3,8.47959E0,-3.605067E3,-1.5030273E0,-5.9466717E1,2.1131448E2,3.2326455E3,4.0087344E2,1.5788193E3,1.0018623E2,2.6731445E1,-3.3496826E0,-1.59429035E1,1.8717513E2,-4.8711915E0,-1.0826886E2,-3.222172E1,-3.1760035E1,9.4358734E1,-8.9122696E1,-2.0779333E2,-3.9760204E1,8.1705215E1,2.19627E2,-2.3762573E1,2.0210689E2,1.3886406E1],"categories":[],"categories_nodes":[],"categories_segments":[],"categories_sizes":[],"default_left":[0,0,0,0,0,0,0,0,0,0,0,0,0,0,0,0,0,0,0,0,0,0,0,0,0,0,0,0,0,0,0,0,0,0,0,0,0,0,0,0,0,0,0,0,0,0,0,0,0],"id":26,"left_children":[1,3,5,7,9,-1,-1,11,13,15,17,19,21,23,25,27,29,31,-1,33,35,37,39,-1,41,-1,-1,43,45,-1,47,-1,-1,-1,-1,-1,-1,-1,-1,-1,-1,-1,-1,-1,-1,-1,-1,-1,-1],"loss_changes":[4.834338E8,2.0007352E8,4.8052624E8,8.4854456E7,6.7498504E7,0E0,0E0,4.3180788E7,1.598296E7,9.043509E7,4.455596E7,2.0559836E7,3.5538956E7,1.4462448E7,1.0607955E6,8.397283E7,8.031928E7,1.0496E4,0E0,1.6656625E4,1.23895E7,2.7042856E7,1.5160266E7,0E0,6.646896E6,0E0,0E0,4.8557572E7,5.799755E7,0E0,1.8107396E7,0E0,0E0,0E0,0E0,0E0,0E0,0E0,0E0,0E0,0E0,0E0,0E0,0E0,0E0,0E0,0E0,0E0,0E0],"parents":[2147483647,0,0,1,1,2,2,3,3,4,4,7,7,8,8,9,9,10,10,11,11,12,12,13,13,14,14,15,15,16,16,17,17,19,19,20,20,21,21,22,22,24,24,27,27,28,28,30,30],"right_children":[2,4,6,8,10,-1,-1,12,14,16,18,20,22,24,26,28,30,32,-1,34,36,38,40,-1,42,-1,-1,44,46,-1,48,-1,-1,-1,-1,-1,-1,-1,-1,-1,-1,-1,-1,-1,-1,-1,-1,-1,-1],"split_conditions":[2.7012908E4,1.6729143E4,1.9E1,1E0,1E0,1.0873894E3,-1.3805945E2,4.946808E7,1.6261E4,1.8145E4,1.3091E4,5.938896E3,2.1589E4,7.813E3,6E0,1.8337572E4,1.3E1,1.2E1,-1.6546913E2,1.2E1,8E0,1.2381429E4,4.615998E3,8.47959E0,1.3959233E4,-1.5030273E0,-5.9466717E1,1.6156E4,2.9458E4,4.0087344E2,5E0,1.0018623E2,2.6731445E1,-3.3496826E0,-1.59429035E1,1.8717513E2,-4.8711915E0,-1.0826886E2,-3.222172E1,-3.1760035E1,9.4358734E1,-8.9122696E1,-2.0779333E2,-3.9760204E1,8.1705215E1,2.19627E2,-2.3762573E1,2.0210689E2,1.3886406E1],"split_indices":[14,13,2,5,5,0,0,18,8,10,11,14,10,6,1,15,2,2,0,2,1,13,14,0,16,0,0,9,8,0,1,0,0,0,0,0,0,0,0,0,0,0,0,0,0,0,0,0,0],"split_type":[0,0,0,0,0,0,0,0,0,0,0,0,0,0,0,0,0,0,0,0,0,0,0,0,0,0,0,0,0,0,0,0,0,0,0,0,0,0,0,0,0,0,0,0,0,0,0,0,0],"sum_hessian":[1.7E2,1.68E2,2E0,1.1E2,5.8E1,1E0,1E0,9.1E1,1.9E1,5.2E1,6E0,7E0,8.4E1,1.4E1,5E0,4.4E1,8E0,2E0,4E0,3E0,4E0,7.5E1,9E0,1E0,1.3E1,1E0,4E0,3.2E1,1.2E1,3E0,5E0,1E0,1E0,1E0,2E0,3E0,1E0,1.4E1,6.1E1,3E0,6E0,4E0,9E0,1.9E1,1.3E1,9E0,3E0,1E0,4E0],"tree_param":{"num_deleted":"0","num_feature":"19","num_nodes":"49","size_leaf_vector":"1"}},{"base_weights":[3.056304E2,-1.1371959E2,8.332511E3,-1.01836334E3,9.7558264E2,1.4805453E4,1.9306563E2,-5.6561664E2,-2.6878826E3,2.2764712E3,-2.2464E2,1.0602046E3,3.9523853E2,-6.3258984E1,4.3696095E1,5.192925E2,-1.0763303E3,-1.9310124E2,-2.9543528E3,9.2367456E2,3.8932393E3,-6.8076465E2,2.1532356E3,1.0660322E3,-7.757833E2,-2.3155413E3,-6.873825E2,8.267603E0,-2.2750196E1,-3.6505261E3,-1.338862E3,-5.535151E2,3.1188945E3,-3.610098E1,4.2268193E3,1.6067465E2,-1.00435315E3,4.6027115E1,2.4622043E3,8.249131E0,9.743752E1,7.0965333E0,-6.773989E1,-1.4083012E2,6.325505E0,2.075633E1,-5.7895397E1,-3.1657398E1,-1.9336372E2,1.3959656E1,-1.3111009E2,-1.012894E2,2.4475092E1,2.7718063E2,3.519883E0,2.633248E2,8.081379E1,-1.312938E2,-3.1711643E1,1.3892793E2,2.9919678E1],"categories":[],"categories_nodes":[],"categories_segments":[],"categories_sizes":[],"default_left":[0,0,0,0,0,0,0,0,0,0,0,0,0,0,0,0,0,0,0,0,0,0,0,0,0,0,0,0,0,0,0,0,0,0,0,0,0,0,0,0,0,0,0,0,0,0,0,0,0,0,0,0,0,0,0,0,0,0,0,0,0],"id":27,"left_children":[1,3,5,7,9,11,13,15,17,19,21,-1,-1,-1,-1,23,25,27,29,31,33,35,37,39,41,43,45,-1,-1,47,49,51,53,-1,55,-1,57,-1,59,-1,-1,-1,-1,-1,-1,-1,-1,-1,-1,-1,-1,-1,-1,-1,-1,-1,-1,-1,-1,-1,-1],"loss_changes":[6.102066E8,1.7147296E8,4.71317E8,7.028727E7,1.23858504E8,5.316147E7,6.0699455E6,4.2668856E7,1.2725216E7,7.951595E7,4.7019372E7,0E0,0E0,0E0,0E0,1.8528742E7,2.3471732E7,3.5687547E5,1.5356352E7,7.306699E7,2.922432E7,4.859241E7,3.99482E5,1.3995198E7,4.443245E6,1.503974E7,2.1749776E7,0E0,0E0,5.399584E6,1.5267701E7,2.2490104E7,6.6135464E7,0E0,3.4913824E7,0E0,1.8739972E7,0E0,1.285452E6,0E0,0E0,0E0,0E0,0E0,0E0,0E0,0E0,0E0,0E0,0E0,0E0,0E0,0E0,0E0,0E0,0E0,0E0,0E0,0E0,0E0,0E0],"parents":[2147483647,0,0,1,1,2,2,3,3,4,4,5,5,6,6,7,7,8,8,9,9,10,10,15,15,16,16,17,17,18,18,19,19,20,20,21,21,22,22,23,23,24,24,25,25,26,26,29,29,30,30,31,31,32,32,34,34,36,36,38,38],"right_children":[2,4,6,8,10,12,14,16,18,20,22,-1,-1,-1,-1,24,26,28,30,32,34,36,38,40,42,44,46,-1,-1,48,50,52,54,-1,56,-1,58,-1,60,-1,-1,-1,-1,-1,-1,-1,-1,-1,-1,-1,-1,-1,-1,-1,-1,-1,-1,-1,-1,-1,-1],"split_conditions":[2.4854857E4,1.5697429E4,2.3E1,6E0,1.4423E4,2E0,1E0,1.0976E4,7.813E3,1.087E4,2.0878E4,1.0602046E3,3.9523853E2,-6.3258984E1,4.3696095E1,1.5991E4,1.2789714E4,7E0,1.3981E4,7E0,3.213E3,3.819E3,9.985E3,1.26125E4,1.3007E4,1.6916E4,1.3935214E4,8.267603E0,-2.2750196E1,9.143E3,2.1E1,1.6009E4,2.5542717E8,-3.610098E1,1.9803E4,1.6067465E2,2E0,4.6027115E1,2.5715E4,8.249131E0,9.743752E1,7.0965333E0,-6.773989E1,-1.4083012E2,6.325505E0,2.075633E1,-5.7895397E1,-3.1657398E1,-1.9336372E2,1.3959656E1,-1.3111009E2,-1.012894E2,2.4475092E1,2.7718063E2,3.519883E0,2.633248E2,8.081379E1,-1.312938E2,-3.1711643E1,1.3892793E2,2.9919678E1],"split_indices":[13,13,2,3,12,1,3,12,6,12,10,0,0,0,0,7,15,1,6,1,11,10,11,15,9,6,15,0,0,12,2,6,17,0,7,0,1,0,6,0,0,0,0,0,0,0,0,0,0,0,0,0,0,0,0,0,0,0,0,0,0],"split_type":[0,0,0,0,0,0,0,0,0,0,0,0,0,0,0,0,0,0,0,0,0,0,0,0,0,0,0,0,0,0,0,0,0,0,0,0,0,0,0,0,0,0,0,0,0,0,0,0,0,0,0,0,0,0,0,0,0,0,0,0,0],"sum_hessian":[1.8E2,1.72E2,8E0,9.4E1,7.8E1,4E0,4E0,7.5E1,1.9E1,3.7E1,4.1E1,1E0,3E0,1E0,3E0,2.4E1,5.1E1,2E0,1.7E1,2.1E1,1.6E1,3.5E1,6E0,1.7E1,7E0,1.1E1,4E1,1E0,1E0,1.1E1,6E0,1.3E1,8E0,1E0,1.5E1,2E0,3.3E1,2E0,4E0,9E0,8E0,3E0,4E0,9E0,2E0,1.2E1,2.8E1,1E0,1E1,3E0,3E0,5E0,8E0,4E0,4E0,1E1,5E0,5E0,2.8E1,3E0,1E0],"tree_param":{"num_deleted":"0","num_feature":"19","num_nodes":"61","size_leaf_vector":"1"}},{"base_weights":[5.8655228E1,-2.9156644E2,1.01469375E4,2.5160582E2,-2.692782E3,1.0336996E3,3.9067285E3,-1.820588E2,2.7590095E3,-1.8820564E2,-1.3861938E3,2.983885E2,2.7172232E1,2.657793E3,-3.2613617E2,-2.531902E3,4.5706636E3,5.2336176E2,-2.301752E3,1.7473657E2,6.5594403E2,-2.5000933E3,-1.2182408E2,-3.3566357E1,-1.647179E2,6.398453E3,1.9430671E3,-1.0988666E3,1.2559395E2,-1.2238053E2,-2.772459E3,9.863672E0,3.933213E1,-1.3752551E2,-6.1584964E0,1.7831732E2,-1.1252849E1,3.972271E2,1.7863367E2,-3.01528E1,1.4461421E2,8.060913E0,-7.8631714E1,-3.1571583E1,2.2393042E1,-1.5471326E2,-5.4871223E1],"categories":[],"categories_nodes":[],"categories_segments":[],"categories_sizes":[],"default_left":[0,0,0,0,0,0,0,0,0,0,0,0,0,0,0,0,0,0,0,0,0,0,0,0,0,0,0,0,0,0,0,0,0,0,0,0,0,0,0,0,0,0,0,0,0,0,0],"id":28,"left_children":[1,3,5,7,9,-1,11,13,15,-1,17,-1,-1,19,21,23,25,27,29,-1,31,33,35,-1,-1,37,39,41,-1,43,45,-1,-1,-1,-1,-1,-1,-1,-1,-1,-1,-1,-1,-1,-1,-1,-1],"loss_changes":[6.3185645E8,2.2631685E8,3.1337843E8,1.5490918E8,3.9575456E7,0E0,3.1416176E7,5.0784124E7,2.1286378E8,0E0,2.9177596E7,0E0,0E0,7.7602E6,5.1662816E7,6.300044E6,6.4410496E7,2.2115192E7,1.0944996E7,0E0,2.4659125E4,5.613444E6,4.192261E7,0E0,0E0,1.0936896E7,2.1078792E7,2.6414875E6,0E0,1.1536395E6,1.455608E6,0E0,0E0,0E0,0E0,0E0,0E0,0E0,0E0,0E0,0E0,0E0,0E0,0E0,0E0,0E0,0E0],"parents":[2147483647,0,0,1,1,2,2,3,3,4,4,6,6,7,7,8,8,10,10,13,13,14,14,15,15,16,16,17,17,18,18,20,20,21,21,22,22,25,25,26,26,27,27,29,29,30,30],"right_children":[2,4,6,8,10,-1,12,14,16,-1,18,-1,-1,20,22,24,26,28,30,-1,32,34,36,-1,-1,38,40,42,-1,44,46,-1,-1,-1,-1,-1,-1,-1,-1,-1,-1,-1,-1,-1,-1,-1,-1],"split_conditions":[2.4854857E4,6E0,2E0,1.9550715E4,6E0,1.0336996E3,2.3E1,3.799E3,2E0,-1.8820564E2,6.394827E3,2.983885E2,2.7172232E1,1.4064E4,1.1804429E4,2.6987305E4,1.8956E4,9.997E3,7E0,1.7473657E2,3E0,1.4739E4,3.1123244E7,-3.3566357E1,-1.647179E2,1.4E1,6E0,6E0,1.2559395E2,1.3E1,1.9E1,9.863672E0,3.933213E1,-1.3752551E2,-6.1584964E0,1.7831732E2,-1.1252849E1,3.972271E2,1.7863367E2,-3.01528E1,1.4461421E2,8.060913E0,-7.8631714E1,-3.1571583E1,2.2393042E1,-1.5471326E2,-5.4871223E1],"split_indices":[13,3,1,13,1,0,2,12,1,0,14,0,0,7,13,14,6,6,1,0,1,6,18,0,0,2,1,2,0,2,2,0,0,0,0,0,0,0,0,0,0,0,0,0,0,0,0],"split_type":[0,0,0,0,0,0,0,0,0,0,0,0,0,0,0,0,0,0,0,0,0,0,0,0,0,0,0,0,0,0,0,0,0,0,0,0,0,0,0,0,0,0,0,0,0,0,0],"sum_hessian":[1.77E2,1.72E2,5E0,1.41E2,3.1E1,1E0,4E0,1.21E2,2E1,1.6E1,1.5E1,2E0,2E0,5E0,1.16E2,5E0,1.5E1,5E0,1E1,3E0,2E0,9E0,1.07E2,2E0,3E0,8E0,7E0,3E0,2E0,2E0,8E0,1E0,1E0,8E0,1E0,2E0,1.05E2,4E0,4E0,2E0,5E0,1E0,2E0,1E0,1E0,6E0,2E0],"tree_param":{"num_deleted":"0","num_feature":"19","num_nodes":"47","size_leaf_vector":"1"}},{"base_weights":[6.3105232E1,-3.3314594E2,7.849033E3,4.1865625E2,-1.8828549E3,1.3970497E4,1.577629E2,-1.4120294E2,1.9626816E3,-2.705085E3,-9.052839E2,1.00785706E3,3.6922757E2,-6.235679E1,4.1038574E1,2.5390823E3,-3.6554987E2,-8.1302423E2,3.9046394E3,-7.16334E2,-2.892582E3,3.4449036E2,-2.8680703E3,-5.108353E1,4.167718E3,-6.80995E2,9.979389E2,1.1174951E2,-2.4999668E3,1.9248779E3,7.0235337E3,-3.898218E0,-4.5156788E1,7.8593993E0,-3.0113584E3,1.871217E3,-1.3901494E3,-1.5136105E3,-1.8722594E2,2.337333E2,5.3498096E1,-1.164054E1,-7.464828E1,-7.200737E1,1.1185412E2,-8.706438E1,3.9633484E1,-1.5604698E2,-5.2283577E1,-2.5881495E1,1.5339757E2,3.769597E2,9.823931E1,-9.315386E1,-1.7886125E2,1.0033769E2,1.6284668E1,-1.0485409E2,3.6137142E1,-2.1851538E1,-8.207601E1],"categories":[],"categories_nodes":[],"categories_segments":[],"categories_sizes":[],"default_left":[0,0,0,0,0,0,0,0,0,0,0,0,0,0,0,0,0,0,0,0,0,0,0,0,0,0,0,0,0,0,0,0,0,0,0,0,0,0,0,0,0,0,0,0,0,0,0,0,0,0,0,0,0,0,0,0,0,0,0,0,0],"id":29,"left_children":[1,3,5,7,9,11,13,15,17,19,21,-1,-1,-1,-1,