{"learner":{"attributes":{"scikit_learn":"{\"_estimator_type\": \"regressor\"}"},"feature_names":["year","month","day","dayofweek","quarter","weekend","lag_1","lag_2","lag_3","lag_7","lag_14","lag_21","lag_28","rolling_mean_7","rolling_std_7","rolling_mean_14","rolling_mean_30","lag_1_x_lag_7","lag_7_x_lag_14"],"feature_types":["int","int","int","int","int","int","float","float","float","float","float","float","float","float","float","float","float","float","float"],"gradient_booster":{"model":{"cats":{"enc":[],"feature_segments":[],"sorted_idx":[]},"gbtree_model_param":{"num_parallel_tree":"1","num_trees":"600"},"iteration_indptr":[0,1,2,3,4,5,6,7,8,9,10,11,12,13,14,15,16,17,18,19,20,21,22,23,24,25,26,27,28,29,30,31,32,33,34,35,36,37,38,39,40,41,42,43,44,45,46,47,48,49,50,51,52,53,54,55,56,57,58,59,60,61,62,63,64,65,66,67,68,69,70,71,72,73,74,75,76,77,78,79,80,81,82,83,84,85,86,87,88,89,90,91,92,93,94,95,96,97,98,99,100,101,102,103,104,105,106,107,108,109,110,111,112,113,114,115,116,117,118,119,120,121,122,123,124,125,126,127,128,129,130,131,132,133,134,135,136,137,138,139,140,141,142,143,144,145,146,147,148,149,150,151,152,153,154,155,156,157,158,159,160,161,162,163,164,165,166,167,168,169,170,171,172,173,174,175,176,177,178,179,180,181,182,183,184,185,186,187,188,189,190,191,192,193,194,195,196,197,198,199,200,201,202,203,204,205,206,207,208,209,210,211,212,213,214,215,216,217,218,219,220,221,222,223,224,225,226,227,228,229,230,231,232,233,234,235,236,237,238,239,240,241,242,243,244,245,246,247,248,249,250,251,252,253,254,255,256,257,258,259,260,261,262,263,264,265,266,267,268,269,270,271,272,273,274,275,276,277,278,279,280,281,282,283,284,285,286,287,288,289,290,291,292,293,294,295,296,297,298,299,300,301,302,303,304,305,306,307,308,309,310,311,312,313,314,315,316,317,318,319,320,321,322,323,324,325,326,327,328,329,330,331,332,333,334,335,336,337,338,339,340,341,342,343,344,345,346,347,348,349,350,351,352,353,354,355,356,357,358,359,360,361,362,363,364,365,366,367,368,369,370,371,372,373,374,375,376,377,378,379,380,381,382,383,384,385,386,387,388,389,390,391,392,393,394,395,396,397,398,399,400,401,402,403,404,405,406,407,408,409,410,411,412,413,414,415,416,417,418,419,420,421,422,423,424,425,426,427,428,429,430,431,432,433,434,435,436,437,438,439,440,441,442,443,444,445,446,447,448,449,450,451,452,453,454,455,456,457,458,459,460,461,462,463,464,465,466,467,468,469,470,471,472,473,474,475,476,477,478,479,480,481,482,483,484,485,486,487,488,489,490,491,492,493,494,495,496,497,498,499,500,501,502,503,504,505,506,507,508,509,510,511,512,513,514,515,516,517,518,519,520,521,522,523,524,525,526,527,528,529,530,531,532,533,534,535,536,537,538,539,540,541,542,543,544,545,546,547,548,549,550,551,552,553,554,555,556,557,558,559,560,561,562,563,564,565,566,567,568,569,570,571,572,573,574,575,576,577,578,579,580,581,582,583,584,585,586,587,588,589,590,591,592,593,594,595,596,597,598,599,600],"tree_info":[0,0,0,0,0,0,0,0,0,0,0,0,0,0,0,0,0,0,0,0,0,0,0,0,0,0,0,0,0,0,0,0,0,0,0,0,0,0,0,0,0,0,0,0,0,0,0,0,0,0,0,0,0,0,0,0,0,0,0,0,0,0,0,0,0,0,0,0,0,0,0,0,0,0,0,0,0,0,0,0,0,0,0,0,0,0,0,0,0,0,0,0,0,0,0,0,0,0,0,0,0,0,0,0,0,0,0,0,0,0,0,0,0,0,0,0,0,0,0,0,0,0,0,0,0,0,0,0,0,0,0,0,0,0,0,0,0,0,0,0,0,0,0,0,0,0,0,0,0,0,0,0,0,0,0,0,0,0,0,0,0,0,0,0,0,0,0,0,0,0,0,0,0,0,0,0,0,0,0,0,0,0,0,0,0,0,0,0,0,0,0,0,0,0,0,0,0,0,0,0,0,0,0,0,0,0,0,0,0,0,0,0,0,0,0,0,0,0,0,0,0,0,0,0,0,0,0,0,0,0,0,0,0,0,0,0,0,0,0,0,0,0,0,0,0,0,0,0,0,0,0,0,0,0,0,0,0,0,0,0,0,0,0,0,0,0,0,0,0,0,0,0,0,0,0,0,0,0,0,0,0,0,0,0,0,0,0,0,0,0,0,0,0,0,0,0,0,0,0,0,0,0,0,0,0,0,0,0,0,0,0,0,0,0,0,0,0,0,0,0,0,0,0,0,0,0,0,0,0,0,0,0,0,0,0,0,0,0,0,0,0,0,0,0,0,0,0,0,0,0,0,0,0,0,0,0,0,0,0,0,0,0,0,0,0,0,0,0,0,0,0,0,0,0,0,0,0,0,0,0,0,0,0,0,0,0,0,0,0,0,0,0,0,0,0,0,0,0,0,0,0,0,0,0,0,0,0,0,0,0,0,0,0,0,0,0,0,0,0,0,0,0,0,0,0,0,0,0,0,0,0,0,0,0,0,0,0,0,0,0,0,0,0,0,0,0,0,0,0,0,0,0,0,0,0,0,0,0,0,0,0,0,0,0,0,0,0,0,0,0,0,0,0,0,0,0,0,0,0,0,0,0,0,0,0,0,0,0,0,0,0,0,0,0,0,0,0,0,0,0,0,0,0,0,0,0,0,0,0,0,0,0,0,0,0,0,0,0,0,0,0,0,0,0,0,0,0,0,0,0,0,0,0,0,0,0,0,0,0,0,0,0,0,0,0,0,0,0,0,0,0,0,0,0,0,0,0,0,0,0,0,0,0,0,0,0,0,0,0,0,0,0,0,0,0,0,0,0,0,0,0,0,0,0,0,0,0,0,0,0,0,0,0,0,0,0,0,0,0,0],"trees":[{"base_weights":[-9.572925E1,-1.333182E3,6.919694E3,6.489589E3,-1.7089426E3,-1.3792008E3,8.634641E3,2.0961326E3,3.9339917E2,-1.3357745E3,-7.284837E3,1.6844692E3,-1.5013083E2,-6.0674945E2,1.1584908E4,4.7843847E0,2.4515671E3,-3.742001E3,-1.4295409E2,5.4089382E1,-8.494926E3,3.406393E2,8.573938E1,7.3371924E2,-1.7955308E3,1.3129274E4,2.5112192E3,1.2044385E1,8.5911575E1,1.3229648E3,-4.446729E3,2.74821E3,-1.9199327E3,-6.9285614E1,-2.6938232E2,1.8134384E1,-2.8056152E0,2.9393847E0,2.738918E1,-7.849561E1,-1.949082E1,9.014963E3,1.713125E4,-2.7930614E1,1.19069176E2,1.3217157E2,-6.2715923E1,-1.438812E2,6.126918E1,5.0675114E1,4.5739917E2,1.1344101E2,-7.067334E1,2.894689E2,4.9634384E1,5.94419E2,2.0848917E2],"categories":[],"categories_nodes":[],"categories_segments":[],"categories_sizes":[],"default_left":[0,0,0,0,0,0,0,0,0,0,0,0,0,0,0,0,0,0,0,0,0,0,0,0,0,0,0,0,0,0,0,0,0,0,0,0,0,0,0,0,0,0,0,0,0,0,0,0,0,0,0,0,0,0,0,0,0],"id":0,"left_children":[1,3,5,7,9,11,13,15,-1,17,19,21,-1,23,25,-1,27,29,31,-1,33,35,-1,37,39,41,43,-1,-1,45,47,49,51,-1,-1,-1,-1,-1,-1,-1,-1,53,55,-1,-1,-1,-1,-1,-1,-1,-1,-1,-1,-1,-1,-1,-1],"loss_changes":[1.7367949E9,5.108036E8,4.388736E8,2.053209E8,3.2943066E8,7.506746E7,6.8864346E8,3.739146E6,0E0,4.4147533E8,1.2528672E8,5.334453E6,0E0,1.2472085E7,2.3327846E8,0E0,3.075016E6,1.879234E8,5.395802E8,0E0,6.232512E6,4.001777E5,0E0,3.663815E5,2.062943E6,1.0900838E8,2.376694E7,0E0,0E0,8.287107E7,1.1179603E8,5.0369898E8,1.704256E8,0E0,0E0,0E0,0E0,0E0,0E0,0E0,0E0,3.0701504E7,5.350067E7,0E0,0E0,0E0,0E0,0E0,0E0,0E0,0E0,0E0,0E0,0E0,0E0,0E0,0E0],"parents":[2147483647,0,0,1,1,2,2,3,3,4,4,5,5,6,6,7,7,9,9,10,10,11,11,13,13,14,14,16,16,17,17,18,18,20,20,21,21,23,23,24,24,25,25,26,26,29,29,30,30,31,31,32,32,41,41,42,42],"right_children":[2,4,6,8,10,12,14,16,-1,18,20,22,-1,24,26,-1,28,30,32,-1,34,36,-1,38,40,42,44,-1,-1,46,48,50,52,-1,-1,-1,-1,-1,-1,-1,-1,54,56,-1,-1,-1,-1,-1,-1,-1,-1,-1,-1,-1,-1,-1,-1],"split_conditions":[9E0,3.799E3,1.0311E4,5E0,2.3178E4,2.2563E4,1.3501E4,8.994E3,3.9339917E2,4E0,1.087E4,1.7E1,-1.5013083E2,6.685437E3,2.9349E4,4.7843847E0,3E0,5.2511456E7,1.3415E4,5.4089382E1,2E0,1E1,8.573938E1,8E0,5E0,4.103284E8,1.5E1,1.2044385E1,8.5911575E1,1.4571E4,2.3653E4,1.3359E4,1.3325643E4,-6.9285614E1,-2.6938232E2,1.8134384E1,-2.8056152E0,2.9393847E0,2.738918E1,-7.849561E1,-1.949082E1,2.3E1,2.1E1,-2.7930614E1,1.19069176E2,1.3217157E2,-6.2715923E1,-1.438812E2,6.126918E1,5.0675114E1,4.5739917E2,1.1344101E2,-7.067334E1,2.894689E2,4.9634384E1,5.94419E2,2.0848917E2],"split_indices":[1,12,12,1,10,7,9,9,0,1,7,2,0,14,12,0,1,18,8,0,1,2,0,2,2,17,2,0,0,8,6,8,15,0,0,0,0,0,0,0,0,2,2,0,0,0,0,0,0,0,0,0,0,0,0,0,0],"split_type":[0,0,0,0,0,0,0,0,0,0,0,0,0,0,0,0,0,0,0,0,0,0,0,0,0,0,0,0,0,0,0,0,0,0,0,0,0,0,0,0,0,0,0,0,0,0,0,0,0,0,0,0,0,0,0,0,0],"sum_hessian":[1.98E2,1.69E2,2.9E1,7E0,1.62E2,5E0,2.4E1,5E0,2E0,1.53E2,9E0,3E0,2E0,6E0,1.8E1,1E0,4E0,5E1,1.03E2,1E0,8E0,2E0,1E0,3E0,3E0,1.5E1,3E0,1E0,3E0,6E0,4.4E1,3.9E1,6.4E1,1E0,7E0,1E0,1E0,1E0,2E0,1E0,2E0,9E0,6E0,1E0,2E0,3E0,3E0,4.2E1,2E0,3.7E1,2E0,4E0,6E1,8E0,1E0,4E0,2E0],"tree_param":{"num_deleted":"0","num_feature":"19","num_nodes":"57","size_leaf_vector":"1"}},{"base_weights":[-1.5105757E2,2.4388655E3,-5.1324087E3,1.1017623E3,9.981254E3,-2.6088945E3,-7.576865E3,1.3663453E4,3.664555E2,1.8237937E3,1.203499E4,1.1302344E3,-3.450502E3,-3.0731256E2,-5.072646E3,2.781082E4,-3.6293506E2,7.6368555E3,-7.787636E1,-5.038037E1,1.3980736E2,1.866854E1,1.2805734E4,-5.1795273E1,2.6182336E3,-5.1293647E3,-2.0624517E3,-3.0557126E3,-2.6800143E2,1.00267004E3,2.488168E2,8.3606804E1,-7.025527E1,1.8170027E3,3.855312E2,-9.7174255E2,3.736915E3,5.441963E2,-2.7511654E1,1.4405185E4,1.5617438E2,1.7862364E1,8.925258E1,-5.3715275E1,-5.618085E3,6.693952E2,-3.2565042E3,7.098335E1,-4.749493E3,1.1863726E1,6.477096E1,-3.494416E1,2.1709926E2,5.9480366E1,3.7295844E2,2.159354E1,2.895293E0,1.0751235E2,4.5386862E2,-3.0002401E1,-1.806023E2,4.0386738E1,-1.3685273E1,-1.06074036E2,-2.7635303E0,-6.8438095E1,-2.1765321E2],"categories":[],"categories_nodes":[],"categories_segments":[],"categories_sizes":[],"default_left":[0,0,0,0,0,0,0,0,0,0,0,0,0,0,0,0,0,0,0,0,0,0,0,0,0,0,0,0,0,0,0,0,0,0,0,0,0,0,0,0,0,0,0,0,0,0,0,0,0,0,0,0,0,0,0,0,0,0,0,0,0,0,0,0,0,0,0],"id":1,"left_children":[1,3,5,7,9,11,13,15,17,19,21,23,25,-1,27,29,31,33,35,37,-1,-1,39,-1,41,43,45,47,-1,-1,-1,-1,-1,49,-1,51,53,55,-1,57,-1,-1,-1,-1,59,61,63,-1,65,-1,-1,-1,-1,-1,-1,-1,-1,-1,-1,-1,-1,-1,-1,-1,-1,-1,-1],"loss_changes":[2.4895698E9,1.2697917E9,3.873618E8,1.0017928E9,2.96363E8,1.1089378E8,1.684265E8,1.2007123E9,3.3656365E8,2.6814802E7,1.2397517E8,3.4276228E7,5.4670624E7,0E0,1.2065222E8,5.1357184E7,3.1459342E7,1.5872435E8,3.412127E8,2.5602765E6,0E0,0E0,9.518899E7,0E0,1.83784E6,9.521952E6,5.7633344E7,1.3980515E8,0E0,0E0,0E0,0E0,0E0,1.091034E6,0E0,1.3679272E8,2.6516114E8,1.6635944E5,0E0,3.1936256E7,0E0,0E0,0E0,0E0,1.2543456E7,5.1850325E6,1.0279936E7,0E0,5.147771E7,0E0,0E0,0E0,0E0,0E0,0E0,0E0,0E0,0E0,0E0,0E0,0E0,0E0,0E0,0E0,0E0,0E0,0E0],"parents":[2147483647,0,0,1,1,2,2,3,3,4,4,5,5,6,6,7,7,8,8,9,9,10,10,11,11,12,12,14,14,15,15,16,16,17,17,18,18,19,19,22,22,24,24,25,25,26,26,27,27,33,33,35,35,36,36,37,37,39,39,44,44,45,45,46,46,48,48],"right_children":[2,4,6,8,10,12,14,16,18,20,22,24,26,-1,28,30,32,34,36,38,-1,-1,40,-1,42,44,46,48,-1,-1,-1,-1,-1,50,-1,52,54,56,-1,58,-1,-1,-1,-1,60,62,64,-1,66,-1,-1,-1,-1,-1,-1,-1,-1,-1,-1,-1,-1,-1,-1,-1,-1,-1,-1],"split_conditions":[4E0,9E0,6E0,3.431E3,1.4957336E8,1.0311E4,1.7022E4,1.3219E4,3.799E3,1E1,1.3091E4,1.5072643E4,1.5571286E4,-3.0731256E2,3.0584E4,2E0,3E0,5E0,1.8768E4,2.1284E4,1.3980736E2,1.866854E1,2.5559E4,-5.1795273E1,5.241E3,1.1621E4,1.839E4,1.3091E4,-2.6800143E2,1.00267004E3,2.488168E2,8.3606804E1,-7.025527E1,3E0,3.855312E2,3.2916E4,1.6916E4,1E0,-2.7511654E1,1.5207143E4,1.5617438E2,1.7862364E1,8.925258E1,-5.3715275E1,9.143E3,1.5736E4,9E0,7.098335E1,6.757695E3,1.1863726E1,6.477096E1,-3.494416E1,2.1709926E2,5.9480366E1,3.7295844E2,2.159354E1,2.895293E0,1.0751235E2,4.5386862E2,-3.0002401E1,-1.806023E2,4.0386738E1,-1.3685273E1,-1.06074036E2,-2.7635303E0,-6.8438095E1,-2.1765321E2],"split_indices":[3,1,3,10,18,11,10,9,12,1,9,15,13,0,10,1,1,1,6,6,0,0,9,0,12,9,6,11,0,0,0,0,0,1,0,12,10,3,0,13,0,0,0,0,8,11,1,0,14,0,0,0,0,0,0,0,0,0,0,0,0,0,0,0,0,0,0],"split_type":[0,0,0,0,0,0,0,0,0,0,0,0,0,0,0,0,0,0,0,0,0,0,0,0,0,0,0,0,0,0,0,0,0,0,0,0,0,0,0,0,0,0,0,0,0,0,0,0,0,0,0,0,0,0,0,0,0,0,0,0,0,0,0,0,0,0,0],"sum_hessian":[1.91E2,1.26E2,6.5E1,1.08E2,1.8E1,3.3E1,3.2E1,5E0,1.03E2,4E0,1.4E1,6E0,2.7E1,1.4E1,1.8E1,2E0,3E0,5E0,9.8E1,3E0,1E0,1E0,1.3E1,2E0,4E0,1.1E1,1.6E1,1.3E1,5E0,1E0,1E0,1E0,2E0,3E0,2E0,8E1,1.8E1,2E0,1E0,1E1,3E0,1E0,3E0,2E0,9E0,5E0,1.1E1,3E0,1E1,1E0,2E0,7.9E1,1E0,1.6E1,2E0,1E0,1E0,1E0,9E0,1E0,8E0,3E0,2E0,1E1,1E0,6E0,4E0],"tree_param":{"num_deleted":"0","num_feature":"19","num_nodes":"67","size_leaf_vector":"1"}},{"base_weights":[4.0657745E2,2.619456E3,-4.636639E3,1.5212714E3,1.108388E4,-2.260716E3,-7.1015312E3,1.3422667E4,7.638513E2,1.3166659E4,4.2849873E3,-3.6447976E3,1.0103346E3,-9.271896E3,-3.435053E3,9.8763E2,4.686112E3,7.9672646E3,2.077451E2,1.4567548E4,-1.2633281E1,1.6053135E1,1.5266045E2,-4.6201997E3,-1.3603184E3,2.6761497E3,-1.1907103E3,-4.015916E1,-9.684061E3,-5.633744E3,7.112296E1,-6.8850174E1,2.6251266E2,3.8733074E3,4.049827E2,-2.252912E3,1.2690057E3,1.8244305E2,4.7786688E2,-4.1428104E1,-5.0123223E3,6.486278E1,-2.894804E3,-2.7220752E0,3.2476738E3,-1.2122754E2,-8.2029625E1,-3.0589795E2,-1.2192586E2,-2.6830824E1,-1.8343115E2,5.7784885E1,2.0413544E2,-1.06091835E2,-2.737214E1,7.9756336E0,1.5591031E2,-2.9552372E1,-1.5797507E2,-9.9579185E1,-1.1584394E1,4.1775486E1,1.206082E2,-1.3411563E1,1.2843691E1],"categories":[],"categories_nodes":[],"categories_segments":[],"categories_sizes":[],"default_left":[0,0,0,0,0,0,0,0,0,0,0,0,0,0,0,0,0,0,0,0,0,0,0,0,0,0,0,0,0,0,0,0,0,0,0,0,0,0,0,0,0,0,0,0,0,0,0,0,0,0,0,0,0,0,0,0,0,0,0,0,0,0,0,0,0],"id":2,"left_children":[1,3,5,7,9,11,13,15,17,19,21,23,25,27,29,-1,31,33,35,37,-1,-1,-1,39,41,43,45,-1,47,49,-1,-1,-1,51,-1,53,55,-1,-1,-1,57,-1,59,-1,61,63,-1,-1,-1,-1,-1,-1,-1,-1,-1,-1,-1,-1,-1,-1,-1,-1,-1,-1,-1],"loss_changes":[2.1213907E9,1.2101445E9,3.2361626E8,1.05344096E9,1.5599002E8,1.4403186E8,1.9096333E8,1.0381664E9,4.470015E8,2.1551872E8,1.2345816E7,4.2737376E7,3.9851856E7,4.2623104E7,1.665387E8,0E0,1.9032282E8,1.288999E8,2.7705584E8,1.8655104E7,0E0,0E0,0E0,1.2131104E7,4.9499548E7,9.782732E6,7.922848E6,0E0,4.645248E6,1.503248E7,0E0,0E0,0E0,2.1138296E7,0E0,5.1829936E7,2.9020666E8,0E0,0E0,0E0,8.085248E6,0E0,5.107848E6,0E0,1.568172E6,9.0736094E5,0E0,0E0,0E0,0E0,0E0,0E0,0E0,0E0,0E0,0E0,0E0,0E0,0E0,0E0,0E0,0E0,0E0,0E0,0E0],"parents":[2147483647,0,0,1,1,2,2,3,3,4,4,5,5,6,6,7,7,8,8,9,9,10,10,11,11,12,12,13,13,14,14,16,16,17,17,18,18,19,19,23,23,24,24,25,25,26,26,28,28,29,29,33,33,35,35,36,36,40,40,42,42,44,44,45,45],"right_children":[2,4,6,8,10,12,14,16,18,20,22,24,26,28,30,-1,32,34,36,38,-1,-1,-1,40,42,44,46,-1,48,50,-1,-1,-1,52,-1,54,56,-1,-1,-1,58,-1,60,-1,62,64,-1,-1,-1,-1,-1,-1,-1,-1,-1,-1,-1,-1,-1,-1,-1,-1,-1,-1,-1],"split_conditions":[4E0,1.8655357E4,6E0,3.431E3,2.5715E4,1.6436934E4,1.8913E4,2E0,3.593914E3,2.9522E4,2E0,1.6664E4,1.6515E4,7.813E3,2.2E1,9.8763E2,1.0311E4,1.4657E4,4E0,5E0,-1.2633281E1,1.6053135E1,1.5266045E2,1.1909E4,7E0,1.7483E4,6E0,-4.015916E1,1.8878E4,4E0,7.112296E1,-6.8850174E1,2.6251266E2,6E0,4.049827E2,1.2111E4,3E0,1.8244305E2,4.7786688E2,-4.1428104E1,9.143E3,6.486278E1,2.0424E4,-2.7220752E0,1.5182E4,2.2E1,-8.2029625E1,-3.0589795E2,-1.2192586E2,-2.6830824E1,-1.8343115E2,5.7784885E1,2.0413544E2,-1.06091835E2,-2.737214E1,7.9756336E0,1.5591031E2,-2.9552372E1,-1.5797507E2,-9.9579185E1,-1.1584394E1,4.1775486E1,1.206082E2,-1.3411563E1,1.2843691E1],"split_indices":[3,15,3,10,9,16,7,1,14,8,1,7,10,6,2,0,6,6,1,2,0,0,0,9,2,9,1,0,8,1,0,0,0,1,0,8,3,0,0,0,8,0,6,0,8,2,0,0,0,0,0,0,0,0,0,0,0,0,0,0,0,0,0,0,0],"split_type":[0,0,0,0,0,0,0,0,0,0,0,0,0,0,0,0,0,0,0,0,0,0,0,0,0,0,0,0,0,0,0,0,0,0,0,0,0,0,0,0,0,0,0,0,0,0,0,0,0,0,0,0,0,0,0,0,0,0,0,0,0,0,0,0,0],"sum_hessian":[1.88E2,1.31E2,5.7E1,1.17E2,1.4E1,3E1,2.7E1,6E0,1.11E2,1E1,4E0,2.1E1,9E0,1.6E1,1.1E1,1E0,5E0,7E0,1.04E2,9E0,1E0,1E0,3E0,1.4E1,7E0,5E0,4E0,1E0,1.5E1,8E0,3E0,2E0,3E0,5E0,2E0,3.1E1,7.3E1,2E0,7E0,2E0,1.2E1,2E0,5E0,1E0,4E0,3E0,1E0,1.3E1,2E0,1E0,7E0,4E0,1E0,1.5E1,1.6E1,5.9E1,1.4E1,1E0,1.1E1,4E0,1E0,2E0,2E0,2E0,1E0],"tree_param":{"num_deleted":"0","num_feature":"19","num_nodes":"65","size_leaf_vector":"1"}},{"base_weights":[-2.3819275E2,1.3066682E3,-7.690859E3,3.3005908E2,7.1932627E3,-8.056765E3,7.124922E1,1.1801957E4,-2.4589339E2,1.2758984E2,9.045936E3,2.1037895E1,-8.34341E3,9.728156E2,2.9598875E3,6.1652153E3,-6.296752E2,-1.8965996E1,6.6553467E2,1.1212443E4,2.4830947E3,-9.014297E3,-2.7835845E3,-6.747316E1,1.837998E2,1.9832848E3,3.7422012E2,2.1426716E3,-1.4233359E3,2.7322266E0,2.4799902E1,1.3430697E4,2.3091338E3,7.6974097E2,1.18196045E2,-9.316464E3,-8.304345E0,7.343109E1,-1.4109996E2,4.151645E0,6.9737595E1,-6.18306E1,1.5178902E2,-2.2967495E1,-1.01014465E2,1.0578003E2,4.2205698E2,-2.7218613E1,1.1051109E2,3.257714E1,-2.6812499E0,-7.466616E1,-2.923781E2],"categories":[],"categories_nodes":[],"categories_segments":[],"categories_sizes":[],"default_left":[0,0,0,0,0,0,0,0,0,0,0,0,0,0,0,0,0,0,0,0,0,0,0,0,0,0,0,0,0,0,0,0,0,0,0,0,0,0,0,0,0,0,0,0,0,0,0,0,0,0,0,0,0],"id":3,"left_children":[1,3,5,7,9,11,-1,13,15,17,19,-1,21,-1,23,25,27,-1,29,31,33,35,37,-1,-1,39,-1,41,43,-1,-1,45,47,49,-1,51,-1,-1,-1,-1,-1,-1,-1,-1,-1,-1,-1,-1,-1,-1,-1,-1,-1],"loss_changes":[2.3472558E9,9.691903E8,1.4804493E8,9.6756314E8,3.130149E8,9.120614E7,0E0,1.1806072E9,3.4834742E8,2.8731005E6,2.4230886E8,0E0,9.799834E7,0E0,1.127537E8,1.8632387E8,2.9569005E8,0E0,2.949605E5,2.4548403E8,1.1943132E7,7.39863E7,6.1726124E7,0E0,0E0,3.456302E6,0E0,3.7828826E8,1.3039118E8,0E0,0E0,1.9891072E7,2.1026948E7,1.183538E6,0E0,5.784755E7,0E0,0E0,0E0,0E0,0E0,0E0,0E0,0E0,0E0,0E0,0E0,0E0,0E0,0E0,0E0,0E0,0E0],"parents":[2147483647,0,0,1,1,2,2,3,3,4,4,5,5,7,7,8,8,9,9,10,10,12,12,14,14,15,15,16,16,18,18,19,19,20,20,21,21,22,22,25,25,27,27,28,28,31,31,32,32,33,33,35,35],"right_children":[2,4,6,8,10,12,-1,14,16,18,20,-1,22,-1,24,26,28,-1,30,32,34,36,38,-1,-1,40,-1,42,44,-1,-1,46,48,50,-1,52,-1,-1,-1,-1,-1,-1,-1,-1,-1,-1,-1,-1,-1,-1,-1,-1,-1],"split_conditions":[6E0,9E0,3.1E1,3.786E3,1.3091E4,7.691E3,7.124922E1,2E0,3.799E3,9.08E3,4E0,2.1037895E1,9E0,9.728156E2,1.0311E4,5E0,1.0254E4,-1.8965996E1,8E0,2.9349E4,1.7E1,2.6003E4,1.7483E4,-6.747316E1,1.837998E2,8.994E3,3.7422012E2,4E0,1.8768E4,2.7322266E0,2.4799902E1,1.5207143E4,1.5E1,1E1,1.18196045E2,7.813E3,-8.304345E0,7.343109E1,-1.4109996E2,4.151645E0,6.9737595E1,-6.18306E1,1.5178902E2,-2.2967495E1,-1.01014465E2,1.0578003E2,4.2205698E2,-2.7218613E1,1.1051109E2,3.257714E1,-2.6812499E0,-7.466616E1,-2.923781E2],"split_indices":[3,1,2,10,9,9,0,1,12,9,3,0,1,0,6,1,8,0,2,12,2,8,7,0,0,9,0,1,11,0,0,13,2,2,0,6,0,0,0,0,0,0,0,0,0,0,0,0,0,0,0,0,0],"split_type":[0,0,0,0,0,0,0,0,0,0,0,0,0,0,0,0,0,0,0,0,0,0,0,0,0,0,0,0,0,0,0,0,0,0,0,0,0,0,0,0,0,0,0,0,0,0,0,0,0,0,0,0,0],"sum_hessian":[2.02E2,1.68E2,3.4E1,1.45E2,2.3E1,3.3E1,1E0,6E0,1.39E2,5E0,1.8E1,1E0,3.2E1,1E0,5E0,7E0,1.32E2,2E0,3E0,1.3E1,5E0,2.8E1,4E0,2E0,3E0,5E0,2E0,2.9E1,1.03E2,1E0,2E0,1E1,3E0,3E0,2E0,2.7E1,1E0,1E0,3E0,1E0,4E0,1.2E1,1.7E1,7.8E1,2.5E1,1E0,9E0,1E0,2E0,2E0,1E0,2E0,2.5E1],"tree_param":{"num_deleted":"0","num_feature":"19","num_nodes":"53","size_leaf_vector":"1"}},{"base_weights":[1.805382E2,2.4040654E3,-4.53877E3,-9.613282E2,4.4036313E3,-1.9146156E3,-7.2671025E3,5.268327E3,-1.440474E3,2.0412912E4,3.5984458E3,-3.9336853E3,-3.812509E2,-9.245017E3,-3.66515E3,-1.5067485E1,2.2077806E2,-2.133133E3,1.9519877E3,9.582233E2,1.7770094E2,1.6880731E3,8.992328E3,-4.8125572E1,-4.382378E3,-1.0310254E3,1.1583213E2,-3.8436783E1,-2.8790192E2,2.3654456E3,-5.710873E3,-2.9206768E3,-6.708324E2,2.285168E2,2.9167932E2,8.718423E3,1.0740762E3,-1.6421091E3,1.0757876E4,-2.6685043E1,-4.6190483E3,5.719923E2,-2.5309404E3,2.0722324E1,8.080294E1,-6.284823E3,-8.179775E0,1.1339877E1,-1.053238E2,8.639195E1,-3.298556E1,7.2905594E1,-2.4785624E1,6.918541E1,3.6673572E2,-1.0222589E2,4.9054043E1,-7.684424E1,1.6739809E1,3.952784E2,9.9681946E1,-2.8181616E1,-1.4679227E2,5.6960423E1,-3.403297E1,-9.099947E1,2.9856577E1,-2.0126169E2,-4.3404373E1],"categories":[],"categories_nodes":[],"categories_segments":[],"categories_sizes":[],"default_left":[0,0,0,0,0,0,0,0,0,0,0,0,0,0,0,0,0,0,0,0,0,0,0,0,0,0,0,0,0,0,0,0,0,0,0,0,0,0,0,0,0,0,0,0,0,0,0,0,0,0,0,0,0,0,0,0,0,0,0,0,0,0,0,0,0,0,0,0,0],"id":4,"left_children":[1,3,5,7,9,11,13,15,17,19,21,23,25,27,29,-1,-1,31,33,-1,-1,35,37,-1,39,41,-1,-1,-1,43,45,47,49,-1,51,53,55,57,59,-1,61,63,65,-1,-1,67,-1,-1,-1,-1,-1,-1,-1,-1,-1,-1,-1,-1,-1,-1,-1,-1,-1,-1,-1,-1,-1,-1,-1],"loss_changes":[2.162081E9,9.46339E8,4.586176E8,1.657893E8,1.0609037E9,1.0685924E8,1.9409498E8,5.195995E7,1.2165482E8,4.7893734E8,8.60688E8,8.648288E6,6.1868464E7,4.3723904E7,1.7388885E8,0E0,0E0,4.640899E7,8.243261E7,0E0,0E0,2.66899E8,4.3072896E8,0E0,5.81128E6,4.7131092E7,0E0,0E0,0E0,3.36642E5,2.9499008E7,5.388531E7,2.7519578E7,0E0,2.113232E7,8.421789E7,1.5643837E8,9.52008E6,2.978153E8,0E0,6.49512E6,2.4792866E7,2.0733372E7,0E0,0E0,8.751232E6,0E0,0E0,0E0,0E0,0E0,0E0,0E0,0E0,0E0,0E0,0E0,0E0,0E0,0E0,0E0,0E0,0E0,0E0,0E0,0E0,0E0,0E0,0E0],"parents":[2147483647,0,0,1,1,2,2,3,3,4,4,5,5,6,6,7,7,8,8,9,9,10,10,11,11,12,12,13,13,14,14,17,17,18,18,21,21,22,22,24,24,25,25,29,29,30,30,31,31,32,32,34,34,35,35,36,36,37,37,38,38,40,40,41,41,42,42,45,45],"right_children":[2,4,6,8,10,12,14,16,18,20,22,24,26,28,30,-1,-1,32,34,-1,-1,36,38,-1,40,42,-1,-1,-1,44,46,48,50,-1,52,54,56,58,60,-1,62,64,66,-1,-1,68,-1,-1,-1,-1,-1,-1,-1,-1,-1,-1,-1,-1,-1,-1,-1,-1,-1,-1,-1,-1,-1,-1,-1],"split_conditions":[4E0,1.6354942E8,6E0,3.3244316E7,4.946808E7,1.5480857E4,1.6261E4,1.2E1,1.8175E4,1.9E1,1.68976E4,1.2606E4,2.3130428E4,7.813E3,1.3091E4,-1.5067485E1,2.2077806E2,1.087E4,1.8569E4,9.582233E2,1.7770094E2,3.799E3,8.994E3,-4.8125572E1,6.774E3,3.4783056E8,1.1583213E2,-3.8436783E1,-2.8790192E2,1.0304E4,3.0584E4,4.502802E7,3.18E3,2.285168E2,9.246E3,3E0,3.786E3,3.7833E4,2.5E1,-2.6685043E1,9.143E3,1.4624E4,2.5E1,2.0722324E1,8.080294E1,1.7920572E4,-8.179775E0,1.1339877E1,-1.053238E2,8.639195E1,-3.298556E1,7.2905594E1,-2.4785624E1,6.918541E1,3.6673572E2,-1.0222589E2,4.9054043E1,-7.684424E1,1.6739809E1,3.952784E2,9.9681946E1,-2.8181616E1,-1.4679227E2,5.6960423E1,-3.403297E1,-9.099947E1,2.9856577E1,-2.0126169E2,-4.3404373E1],"split_indices":[3,17,3,18,18,15,8,2,10,2,16,11,13,6,11,0,0,6,10,0,0,12,10,0,12,18,0,0,0,6,8,18,7,0,11,4,11,6,2,0,8,11,2,0,0,15,0,0,0,0,0,0,0,0,0,0,0,0,0,0,0,0,0,0,0,0,0,0,0],"split_type":[0,0,0,0,0,0,0,0,0,0,0,0,0,0,0,0,0,0,0,0,0,0,0,0,0,0,0,0,0,0,0,0,0,0,0,0,0,0,0,0,0,0,0,0,0,0,0,0,0,0,0,0,0,0,0,0,0,0,0,0,0,0,0,0,0,0,0,0,0],"sum_hessian":[2.04E2,1.39E2,6.5E1,5.2E1,8.7E1,3.4E1,3.1E1,3E0,4.9E1,3E0,8.4E1,1.4E1,2E1,1.9E1,1.2E1,1E0,2E0,4.1E1,8E0,1E0,2E0,6.3E1,2.1E1,3E0,1.1E1,1.8E1,2E0,1E0,1.8E1,3E0,9E0,2.6E1,1.5E1,1E0,7E0,4E0,5.9E1,3E0,1.8E1,1E0,1E1,9E0,9E0,1E0,2E0,8E0,1E0,4E0,2.2E1,1E0,1.4E1,2E0,5E0,2E0,2E0,6E0,5.3E1,2E0,1E0,1.3E1,5E0,1E0,9E0,5E0,4E0,8E0,1E0,7E0,1E0],"tree_param":{"num_deleted":"0","num_feature":"19","num_nodes":"69","size_leaf_vector":"1"}},{"base_weights":[1.1727838E2,1.5182622E3,-7.018557E3,4.9869418E2,7.9242915E3,-2.8467874E2,-4.134966E3,1.2779116E4,-1.1888902E2,9.758926E1,9.566882E3,2.3198633E3,-5.683848E3,9.4385004E2,4.421746E3,4.962852E3,-5.906875E2,5.496145E2,-2.5657675E1,1.2377799E4,4.1546465E3,2.0411484E1,7.9186874E1,-6.5031133E3,7.449902E1,-6.556098E1,8.271644E3,1.28463545E1,4.4578952E2,1.6162028E3,-1.2757673E3,3.1860204E0,1.9860565E1,1.3515966E4,-2.1305273E0,3.2265984E1,1.5005286E2,-2.1777844E3,-7.5829336E3,7.2992485E1,2.8220407E2,5.7274494E1,-8.504462E1,-6.435633E1,1.7314174E2,7.7631096E1,-5.2168217E1,2.439259E2,4.9945218E2,-8.173998E1,-8.05708E0,-1.132489E2,-2.6026923E2],"categories":[],"categories_nodes":[],"categories_segments":[],"categories_sizes":[],"default_left":[0,0,0,0,0,0,0,0,0,0,0,0,0,0,0,0,0,0,0,0,0,0,0,0,0,0,0,0,0,0,0,0,0,0,0,0,0,0,0,0,0,0,0,0,0,0,0,0,0,0,0,0,0],"id":5,"left_children":[1,3,5,7,9,-1,11,13,15,17,19,21,23,-1,25,27,29,31,-1,33,35,-1,-1,37,-1,-1,39,41,-1,43,45,-1,-1,47,-1,-1,-1,49,51,-1,-1,-1,-1,-1,-1,-1,-1,-1,-1,-1,-1,-1,-1],"loss_changes":[2.010094E9,1.0933206E9,1.9587354E8,1.1088099E9,2.9475597E8,0E0,1.8314784E8,9.5384346E8,3.3858954E8,2.6236112E6,2.3762816E8,3.0065E5,1.098241E8,0E0,1.7069683E8,5.876796E8,1.970965E8,1.2905975E5,0E0,1.7098586E8,1.5487376E7,0E0,0E0,4.420352E7,0E0,0E0,3.623232E6,5.4012468E7,0E0,4.968918E8,1.8165603E8,0E0,0E0,5.0187776E7,0E0,0E0,0E0,3.444698E6,8.859712E6,0E0,0E0,0E0,0E0,0E0,0E0,0E0,0E0,0E0,0E0,0E0,0E0,0E0,0E0],"parents":[2147483647,0,0,1,1,2,2,3,3,4,4,6,6,7,7,8,8,9,9,10,10,11,11,12,12,14,14,15,15,16,16,17,17,19,19,20,20,23,23,26,26,27,27,29,29,30,30,33,33,37,37,38,38],"right_children":[2,4,6,8,10,-1,12,14,16,18,20,22,24,-1,26,28,30,32,-1,34,36,-1,-1,38,-1,-1,40,42,-1,44,46,-1,-1,48,-1,-1,-1,50,52,-1,-1,-1,-1,-1,-1,-1,-1,-1,-1,-1,-1,-1,-1],"split_conditions":[1E0,9E0,6E0,3.431E3,1.5177E4,-2.8467874E2,1.3091E4,2E0,4.53E3,1.3E1,2.5715E4,8E0,2.9E1,9.4385004E2,1.0311E4,1.3513429E4,1.0254E4,8E0,-2.5657675E1,2.9349E4,1E1,2.0411484E1,7.9186874E1,7E0,7.449902E1,-6.556098E1,3E0,3.786E3,4.4578952E2,5E0,3.6648723E3,3.1860204E0,1.9860565E1,4.103284E8,-2.1305273E0,3.2265984E1,1.5005286E2,1.3E1,1.63E4,7.2992485E1,2.8220407E2,5.7274494E1,-8.504462E1,-6.435633E1,1.7314174E2,7.7631096E1,-5.2168217E1,2.439259E2,4.9945218E2,-8.173998E1,-8.05708E0,-1.132489E2,-2.6026923E2],"split_indices":[5,1,1,10,9,0,11,1,12,2,9,1,2,0,6,13,8,2,0,8,2,0,0,1,0,0,1,12,0,1,14,0,0,17,0,0,0,2,11,0,0,0,0,0,0,0,0,0,0,0,0,0,0],"split_type":[0,0,0,0,0,0,0,0,0,0,0,0,0,0,0,0,0,0,0,0,0,0,0,0,0,0,0,0,0,0,0,0,0,0,0,0,0,0,0,0,0,0,0,0,0,0,0,0,0,0,0,0,0],"sum_hessian":[1.99E2,1.67E2,3.2E1,1.45E2,2.2E1,1.6E1,1.6E1,6E0,1.39E2,4E0,1.8E1,3E0,1.3E1,1E0,5E0,1.1E1,1.28E2,3E0,1E0,1.1E1,7E0,1E0,2E0,1.2E1,1E0,2E0,3E0,8E0,3E0,3E1,9.8E1,1E0,2E0,1E1,1E0,2E0,5E0,3E0,9E0,1E0,2E0,5E0,3E0,1.6E1,1.4E1,1E1,8.8E1,5E0,5E0,2E0,1E0,3E0,6E0],"tree_param":{"num_deleted":"0","num_feature":"19","num_nodes":"53","size_leaf_vector":"1"}},{"base_weights":[-2.050464E2,2.1883843E3,-4.6566387E3,-1.1031399E3,4.1607573E3,-2.2298057E3,-6.769337E3,-1.7164874E3,1.949869E3,1.9759746E4,3.3390698E3,-4.0231367E3,-6.836506E2,-7.506396E3,-1.58729E3,5.253764E2,-2.5035461E3,2.2587158E2,3.1133948E2,9.2969226E2,1.7059496E2,9.741358E2,8.304348E3,-4.684245E1,-4.4711177E3,2.4259302E3,-1.6126665E3,2.0105316E1,-7.782857E3,7.760312E1,-1.2963039E2,3.2737793E3,-1.2580475E3,-2.7630742E3,3.9187012E0,7.13964E1,-7.748208E2,-1.0374009E3,2.7520476E3,1.1722942E4,3.9839888E3,-4.7212955E1,-4.8548394E3,1.7360142E1,8.229231E1,-3.616638E1,-2.8348147E3,-8.0168496E3,-7.93623E0,-6.070063E0,1.2580174E2,-8.2182396E1,-9.230698E0,-3.4522948E0,-8.8648796E1,-1.4058955E1,9.529385E0,-7.143105E1,1.8706354E1,-1.2484604E2,-9.394111E0,4.136843E1,2.4043867E2,2.715583E1,4.7878564E2,-3.3719444E1,1.9137253E2,-2.6793545E1,-1.5485098E2,3.8160477E1,-3.2264366E1,3.019125E1,-1.0322281E2,-6.8825966E1,-2.4997212E2],"categories":[],"categories_nodes":[],"categories_segments":[],"categories_sizes":[],"default_left":[0,0,0,0,0,0,0,0,0,0,0,0,0,0,0,0,0,0,0,0,0,0,0,0,0,0,0,0,0,0,0,0,0,0,0,0,0,0,0,0,0,0,0,0,0,0,0,0,0,0,0,0,0,0,0,0,0,0,0,0,0,0,0,0,0,0,0,0,0,0,0,0,0,0,0],"id":6,"left_children":[1,3,5,7,9,11,13,15,17,19,21,23,25,27,29,31,33,-1,35,-1,-1,37,39,-1,41,43,45,-1,47,-1,-1,49,51,53,55,-1,57,59,61,63,65,-1,67,-1,-1,69,71,73,-1,-1,-1,-1,-1,-1,-1,-1,-1,-1,-1,-1,-1,-1,-1,-1,-1,-1,-1,-1,-1,-1,-1,-1,-1,-1,-1],"loss_changes":[2.194379E9,8.7453325E8,3.5406157E8,9.884725E7,1.01069056E9,9.429646E7,1.3322522E8,7.7187864E7,7.9930824E7,4.5594688E8,9.4305734E8,1.06636E7,6.1689216E7,7.981248E7,7.964183E7,6.2937376E7,2.0835072E7,0E0,1.9818116E7,0E0,0E0,2.0312974E8,3.3730432E8,0E0,6.81272E6,1.34192E6,3.0724944E7,0E0,5.417459E7,0E0,0E0,1.6831872E7,1.0419728E7,1.4395232E7,7.4186744E5,0E0,1.4961136E7,5.97897E7,2.0572947E8,6.271768E8,1.66213E8,0E0,8.76264E6,0E0,0E0,1.2244908E7,2.4410664E7,3.6864E7,0E0,0E0,0E0,0E0,0E0,0E0,0E0,0E0,0E0,0E0,0E0,0E0,0E0,0E0,0E0,0E0,0E0,0E0,0E0,0E0,0E0,0E0,0E0,0E0,0E0,0E0,0E0],"parents":[2147483647,0,0,1,1,2,2,3,3,4,4,5,5,6,6,7,7,8,8,9,9,10,10,11,11,12,12,13,13,14,14,15,15,16,16,18,18,21,21,22,22,24,24,25,25,26,26,28,28,31,31,32,32,33,33,34,34,36,36,37,37,38,38,39,39,40,40,42,42,45,45,46,46,47,47],"right_children":[2,4,6,8,10,12,14,16,18,20,22,24,26,28,30,32,34,-1,36,-1,-1,38,40,-1,42,44,46,-1,48,-1,-1,50,52,54,56,-1,58,60,62,64,66,-1,68,-1,-1,70,72,74,-1,-1,-1,-1,-1,-1,-1,-1,-1,-1,-1,-1,-1,-1,-1,-1,-1,-1,-1,-1,-1,-1,-1,-1,-1,-1,-1],"split_conditions":[4E0,1.6253616E8,6E0,1.8175E4,4.946808E7,1.57085E4,9E0,9.462E3,1.8569E4,2E0,8E0,1.2606E4,1.0311E4,7.691E3,1.3091E4,1.4441267E4,2.0091E4,2.2587158E2,9.246E3,9.2969226E2,1.7059496E2,5E0,1.7468E4,-4.684245E1,1.1621E4,5.241E3,3.4783056E8,2.0105316E1,3.0584E4,7.760312E1,-1.2963039E2,3.18E3,1.0311E4,7.405E3,4.53E3,7.13964E1,1.2029E4,1.2606E4,1.8347E4,1.2749E4,1.588224E8,-4.7212955E1,9.143E3,1.7360142E1,8.229231E1,1.4624E4,1.3501E4,7.813E3,-7.93623E0,-6.070063E0,1.2580174E2,-8.2182396E1,-9.230698E0,-3.4522948E0,-8.8648796E1,-1.4058955E1,9.529385E0,-7.143105E1,1.8706354E1,-1.2484604E2,-9.394111E0,4.136843E1,2.4043867E2,2.715583E1,4.7878564E2,-3.3719444E1,1.9137253E2,-2.6793545E1,-1.5485098E2,3.8160477E1,-3.2264366E1,3.019125E1,-1.0322281E2,-6.8825966E1,-2.4997212E2],"split_indices":[3,17,3,10,18,15,1,7,10,1,1,11,11,9,11,16,12,0,11,0,0,1,8,0,9,12,18,0,8,0,0,6,6,12,6,0,8,6,7,11,18,0,8,0,0,11,6,6,0,0,0,0,0,0,0,0,0,0,0,0,0,0,0,0,0,0,0,0,0,0,0,0,0,0,0],"split_type":[0,0,0,0,0,0,0,0,0,0,0,0,0,0,0,0,0,0,0,0,0,0,0,0,0,0,0,0,0,0,0,0,0,0,0,0,0,0,0,0,0,0,0,0,0,0,0,0,0,0,0,0,0,0,0,0,0,0,0,0,0,0,0,0,0,0,0,0,0,0,0,0,0,0,0],"sum_hessian":[2.04E2,1.33E2,7.1E1,5E1,8.3E1,3.4E1,3.7E1,4.2E1,8E0,3E0,8E1,1.5E1,1.9E1,3.2E1,5E0,1.1E1,3.1E1,1E0,7E0,1E0,2E0,5.5E1,2.5E1,3E0,1.2E1,4E0,1.5E1,1E0,3.1E1,2E0,3E0,4E0,7E0,2.8E1,3E0,2E0,5E0,2.6E1,2.9E1,1.3E1,1.2E1,2E0,1E1,1E0,3E0,7E0,8E0,3E1,1E0,1E0,3E0,2E0,5E0,2E0,2.6E1,1E0,2E0,2E0,3E0,4E0,2.2E1,2.4E1,5E0,4E0,9E0,4E0,8E0,1E0,9E0,3E0,4E0,1E0,7E0,2E0,2.8E1],"tree_param":{"num_deleted":"0","num_feature":"19","num_nodes":"75","size_leaf_vector":"1"}},{"base_weights":[-2.5911395E2,1.9331521E3,-4.607596E3,8.0134247E2,8.0391025E3,-2.0566743E3,-6.6892695E3,-1.4715504E3,2.179203E3,3.4640625E1,1.0538332E4,-2.9586985E3,2.3452134E3,-2.8316177E2,-4.8067007E3,-2.7708794E3,7.5508246E2,7.838843E3,1.4491055E3,-1.7805243E1,4.9709204E2,1.2376892E4,1.9284316E3,-3.9966802E3,6.0932617E0,7.497268E2,1.10723724E2,-6.5698003E3,-1.1382236E3,5.9044704E1,-3.211119E3,-1.8385399E3,3.2648066E3,1.1216888E3,4.282672E2,6.458177E3,7.332146E2,2.9952977E0,1.7886816E1,2.0901028E2,1.4007171E4,-2.4767021E1,9.3648605E1,1.0404287E1,-4.243538E3,5.815502E1,-1.5410514E3,3.1065468E1,-1.6145947E0,6.876571E1,-7.313412E3,-4.222586E3,1.107722E3,-1.010095E2,1.0282368E1,4.94919E1,-9.212592E1,1.7287796E2,-3.8942482E1,-1.0759639E1,6.684408E1,-3.3810497E1,2.3108334E2,-5.2478794E1,8.000733E1,4.6815558E2,1.682823E2,-3.6627705E1,-1.3581963E2,-8.661416E0,-6.839115E1,-6.0958958E1,-2.2636554E2,-9.704399E0,-1.6243384E2,-2.8367159E1,7.1122856E1],"categories":[],"categories_nodes":[],"categories_segments":[],"categories_sizes":[],"default_left":[0,0,0,0,0,0,0,0,0,0,0,0,0,0,0,0,0,0,0,0,0,0,0,0,0,0,0,0,0,0,0,0,0,0,0,0,0,0,0,0,0,0,0,0,0,0,0,0,0,0,0,0,0,0,0,0,0,0,0,0,0,0,0,0,0,0,0,0,0,0,0,0,0,0,0,0,0],"id":7,"left_children":[1,3,5,7,9,11,13,15,17,19,21,23,25,-1,27,29,31,33,35,-1,37,39,41,43,45,47,-1,49,51,-1,53,55,57,59,-1,61,63,-1,-1,-1,65,-1,-1,-1,67,-1,69,-1,-1,-1,71,73,75,-1,-1,-1,-1,-1,-1,-1,-1,-1,-1,-1,-1,-1,-1,-1,-1,-1,-1,-1,-1,-1,-1,-1,-1],"loss_changes":[1.9345793E9,9.265123E8,3.4733504E8,3.6335562E8,4.1973965E8,1.3399827E8,1.4614426E8,1.29389896E8,2.86151E8,2.0379579E6,2.294089E8,8.311414E7,1.0114022E7,0E0,1.4775149E8,6.473672E7,1.16660184E8,3.2987942E8,2.2835147E8,0E0,9.7996E4,1.7067008E7,1.572127E7,2.2916192E7,2.6905038E7,9.7430975E5,0E0,1.2220186E8,6.702325E7,0E0,1.5555936E7,4.3754216E7,1.10054664E8,8.98874E6,0E0,8.420547E7,2.8308938E8,0E0,0E0,0E0,3.3241856E7,0E0,0E0,0E0,1.0770048E7,0E0,3.967035E6,0E0,0E0,0E0,3.055616E6,1.6837528E7,1.780208E7,0E0,0E0,0E0,0E0,0E0,0E0,0E0,0E0,0E0,0E0,0E0,0E0,0E0,0E0,0E0,0E0,0E0,0E0,0E0,0E0,0E0,0E0,0E0,0E0],"parents":[2147483647,0,0,1,1,2,2,3,3,4,4,5,5,6,6,7,7,8,8,9,9,10,10,11,11,12,12,14,14,15,15,16,16,17,17,18,18,20,20,21,21,22,22,23,23,24,24,25,25,27,27,28,28,30,30,31,31,32,32,33,33,35,35,36,36,40,40,44,44,46,46,50,50,51,51,52,52],"right_children":[2,4,6,8,10,12,14,16,18,20,22,24,26,-1,28,30,32,34,36,-1,38,40,42,44,46,48,-1,50,52,-1,54,56,58,60,-1,62,64,-1,-1,-1,66,-1,-1,-1,68,-1,70,-1,-1,-1,72,74,76,-1,-1,-1,-1,-1,-1,-1,-1,-1,-1,-1,-1,-1,-1,-1,-1,-1,-1,-1,-1,-1,-1,-1,-1],"split_conditions":[4E0,9E0,6E0,1.2606E4,1.3091E4,9E0,1.7022E4,1.7E1,4.53E3,9.08E3,2.9349E4,1.5341E4,1.7E1,-2.8316177E2,1.9E1,3.6528054E3,8.183E3,5E0,4.204E3,-1.7805243E1,8E0,1.3219E4,1.5E1,2.2979214E3,1.7663E4,1E1,1.10723724E2,1.7483E4,1.5344E4,5.9044704E1,2.0881E4,3.431E3,1.716E4,8.994E3,4.282672E2,1.3E1,1.3412E4,2.9952977E0,1.7886816E1,2.0901028E2,2.3E1,-2.4767021E1,9.3648605E1,1.0404287E1,1.1909E4,5.815502E1,2.1E1,3.1065468E1,-1.6145947E0,6.876571E1,1.7663E4,2.1E1,7E0,-1.010095E2,1.0282368E1,4.94919E1,-9.212592E1,1.7287796E2,-3.8942482E1,-1.0759639E1,6.684408E1,-3.3810497E1,2.3108334E2,-5.2478794E1,8.000733E1,4.6815558E2,1.682823E2,-3.6627705E1,-1.3581963E2,-8.661416E0,-6.839115E1,-6.0958958E1,-2.2636554E2,-9.704399E0,-1.6243384E2,-2.8367159E1,7.1122856E1],"split_indices":[3,1,3,6,9,1,7,2,12,9,12,12,2,0,2,14,6,1,10,0,2,6,2,14,6,2,0,7,13,0,10,9,12,9,0,2,10,0,0,0,2,0,0,0,9,0,2,0,0,0,7,2,1,0,0,0,0,0,0,0,0,0,0,0,0,0,0,0,0,0,0,0,0,0,0,0,0],"split_type":[0,0,0,0,0,0,0,0,0,0,0,0,0,0,0,0,0,0,0,0,0,0,0,0,0,0,0,0,0,0,0,0,0,0,0,0,0,0,0,0,0,0,0,0,0,0,0,0,0,0,0,0,0,0,0,0,0,0,0,0,0,0,0,0,0,0,0,0,0,0,0,0,0,0,0,0,0],"sum_hessian":[2.01E2,1.34E2,6.7E1,1.14E2,2E1,3.1E1,3.6E1,4.3E1,7.1E1,5E0,1.5E1,2.6E1,5E0,1.3E1,2.3E1,2.7E1,1.6E1,7E0,6.4E1,2E0,3E0,1.2E1,3E0,1.9E1,7E0,3E0,2E0,1.5E1,8E0,2E0,2.5E1,8E0,8E0,4E0,3E0,7E0,5.7E1,1E0,2E0,4E0,8E0,1E0,2E0,1E0,1.8E1,3E0,4E0,2E0,1E0,1E0,1.4E1,3E0,5E0,2.4E1,1E0,2E0,6E0,5E0,3E0,2E0,2E0,1E0,6E0,2.5E1,3.2E1,6E0,2E0,2E0,1.6E1,2E0,2E0,1E0,1.3E1,1E0,2E0,2E0,3E0],"tree_param":{"num_deleted":"0","num_feature":"19","num_nodes":"77","size_leaf_vector":"1"}},{"base_weights":[2.1680737E2,2.2711348E3,-4.2804214E3,1.2025126E3,7.948177E3,-1.8970153E3,-6.327633E3,1.2360834E4,6.046841E2,3.411442E1,1.0273835E4,-2.792184E3,2.298219E3,-6.6730444E3,7.606426E1,2.5283836E4,-4.2162573E2,-5.278967E2,3.5234192E3,-1.7449131E1,4.873999E2,1.1936E4,1.8877991E3,-3.8725276E3,-3.2125446E2,7.345974E2,1.0850924E2,-6.973752E3,4.4244022E1,9.1228064E2,2.2549191E2,6.587241E1,-6.077997E1,-7.002097E2,2.0402654E2,-6.511303E2,7.245147E3,2.950371E0,1.7529081E1,9.3792885E1,1.2373165E4,-2.4395521E1,9.177564E1,-4.244395E3,3.673828E1,5.8253E1,-1.2452272E3,3.0444149E1,-1.5903808E0,1.8736904E1,-7.2390063E3,1.15564165E1,-5.5486046E1,5.4431248E1,-5.810273E1,3.4427606E2,3.153305E1,1.8550186E2,4.083527E2,-2.4244642E1,-1.322595E2,-5.4232388E1,-1.1142034E1,-2.2391641E2,-7.3916745E0],"categories":[],"categories_nodes":[],"categories_segments":[],"categories_sizes":[],"default_left":[0,0,0,0,0,0,0,0,0,0,0,0,0,0,0,0,0,0,0,0,0,0,0,0,0,0,0,0,0,0,0,0,0,0,0,0,0,0,0,0,0,0,0,0,0,0,0,0,0,0,0,0,0,0,0,0,0,0,0,0,0,0,0,0,0],"id":8,"left_children":[1,3,5,7,9,11,13,15,17,19,21,23,25,27,-1,29,31,33,35,-1,37,39,41,43,45,47,-1,49,-1,-1,-1,-1,-1,51,-1,53,55,-1,-1,-1,57,-1,-1,59,-1,-1,61,-1,-1,-1,63,-1,-1,-1,-1,-1,-1,-1,-1,-1,-1,-1,-1,-1,-1],"loss_changes":[1.885194E9,8.397682E8,3.002738E8,7.8634624E8,4.0456845E8,1.2283579E8,1.2100762E8,1.0017867E9,3.7871018E8,1.9581592E6,2.1442982E8,6.816168E7,9.715186E6,9.113882E7,0E0,4.4633344E7,2.1245552E7,1.0957812E8,5.0188675E8,0E0,9.3338125E4,1.5233408E7,1.5143291E7,3.931597E7,2.1236666E7,9.36575E5,0E0,6.90167E7,0E0,0E0,0E0,0E0,0E0,1.0300786E8,0E0,5.4229544E7,4.3342752E8,0E0,0E0,0E0,1.5499008E7,0E0,0E0,6.03232E6,0E0,0E0,2.769408E6,0E0,0E0,0E0,4.6907264E7,0E0,0E0,0E0,0E0,0E0,0E0,0E0,0E0,0E0,0E0,0E0,0E0,0E0,0E0],"parents":[2147483647,0,0,1,1,2,2,3,3,4,4,5,5,6,6,7,7,8,8,9,9,10,10,11,11,12,12,13,13,15,15,16,16,17,17,18,18,20,20,21,21,22,22,23,23,24,24,25,25,27,27,33,33,35,35,36,36,40,40,43,43,46,46,50,50],"right_children":[2,4,6,8,10,12,14,16,18,20,22,24,26,28,-1,30,32,34,36,-1,38,40,42,44,46,48,-1,50,-1,-1,-1,-1,-1,52,-1,54,56,-1,-1,-1,58,-1,-1,60,-1,-1,62,-1,-1,-1,64,-1,-1,-1,-1,-1,-1,-1,-1,-1,-1,-1,-1,-1,-1],"split_conditions":[4E0,9E0,6E0,3.431E3,1.3091E4,9E0,3.1E1,4.87E3,3E0,9.08E3,2.9349E4,1.5341E4,1.7E1,2.4854857E4,7.606426E1,2E0,3E0,3.2916E4,2.2981402E8,-1.7449131E1,8E0,1.5207143E4,1.5E1,2.3149E4,1.5182E4,1E1,1.0850924E2,7.691E3,4.4244022E1,9.1228064E2,2.2549191E2,6.587241E1,-6.077997E1,1.3412E4,2.0402654E2,3.786E3,1.8145E4,2.950371E0,1.7529081E1,9.3792885E1,5E0,-2.4395521E1,9.177564E1,1.1621E4,3.673828E1,5.8253E1,1.6734E4,3.0444149E1,-1.5903808E0,1.8736904E1,3.0584E4,1.15564165E1,-5.5486046E1,5.4431248E1,-5.810273E1,3.4427606E2,3.153305E1,1.8550186E2,4.083527E2,-2.4244642E1,-1.322595E2,-5.4232388E1,-1.1142034E1,-2.2391641E2,-7.3916745E0],"split_indices":[3,1,3,10,9,1,2,7,3,9,12,12,2,13,0,1,1,12,17,0,2,13,2,8,8,2,0,9,0,0,0,0,0,9,0,12,9,0,0,0,2,0,0,9,0,0,8,0,0,0,8,0,0,0,0,0,0,0,0,0,0,0,0,0,0],"split_type":[0,0,0,0,0,0,0,0,0,0,0,0,0,0,0,0,0,0,0,0,0,0,0,0,0,0,0,0,0,0,0,0,0,0,0,0,0,0,0,0,0,0,0,0,0,0,0,0,0,0,0,0,0,0,0,0,0,0,0,0,0,0,0,0,0],"sum_hessian":[2.02E2,1.39E2,6.3E1,1.18E2,2.1E1,3E1,3.3E1,5E0,1.13E2,5E0,1.6E1,2.5E1,5E0,3.2E1,1E0,2E0,3E0,8.2E1,3.1E1,2E0,3E0,1.3E1,3E0,1.7E1,8E0,3E0,2E0,3.1E1,1E0,1E0,1E0,1E0,2E0,8.1E1,1E0,1.5E1,1.6E1,1E0,2E0,1E0,1.2E1,1E0,2E0,1.6E1,1E0,2E0,6E0,2E0,1E0,1E0,3E1,4.2E1,3.9E1,5E0,1E1,9E0,7E0,3E0,9E0,1E0,1.5E1,3E0,3E0,2.9E1,1E0],"tree_param":{"num_deleted":"0","num_feature":"19","num_nodes":"65","size_leaf_vector":"1"}},{"base_weights":[1.0014454E2,2.3187795E3,-4.177806E3,1.2144049E4,1.7589711E3,-1.6603092E3,-6.3102275E3,8.9859644E2,4.1836514E3,2.1086533E2,5.5189346E3,-3.6605972E3,6.250257E0,-7.0493433E3,-1.3165713E3,-5.9564365E1,7.7645864E3,-1.7307722E3,1.4552954E3,1.1736418E4,2.4370605E3,-4.1591557E1,-4.113618E3,7.8516925E2,-9.332964E1,-7.4378667E3,7.49233E1,7.644888E1,-1.1658237E2,6.4884315E1,2.6732724E2,3.7690918E2,-2.9384578E3,-4.1407202E2,2.6770647E3,5.0218506E0,3.8318787E2,3.4256332E2,2.8084872E2,-4.6843677E3,-5.4030796E1,2.1777888E3,-8.796738E2,1.8455858E1,-7.726809E3,-5.1058353E1,5.1627995E1,2.8497694E1,-1.0062042E2,-4.705908E1,1.2168256E2,1.4753773E2,1.9473791E1,-3.7394913E1,1.3568892E2,-1.485842E2,-3.8052845E1,9.74038E0,7.982597E1,1.6029688E1,-1.0243327E2,-2.392954E2,-7.280801E0],"categories":[],"categories_nodes":[],"categories_segments":[],"categories_sizes":[],"default_left":[0,0,0,0,0,0,0,0,0,0,0,0,0,0,0,0,0,0,0,0,0,0,0,0,0,0,0,0,0,0,0,0,0,0,0,0,0,0,0,0,0,0,0,0,0,0,0,0,0,0,0,0,0,0,0,0,0,0,0,0,0,0,0],"id":9,"left_children":[1,3,5,7,9,11,13,-1,15,17,19,21,23,25,27,-1,29,31,33,35,37,-1,39,41,-1,43,-1,-1,-1,-1,-1,45,47,49,51,-1,-1,53,-1,55,-1,57,59,-1,61,-1,-1,-1,-1,-1,-1,-1,-1,-1,-1,-1,-1,-1,-1,-1,-1,-1,-1],"loss_changes":[1.9174207E9,7.101746E8,3.5994022E8,8.6706234E8,7.380806E8,1.1003164E8,1.2728205E8,0E0,1.4796397E8,2.223959E8,6.803731E8,9.750896E6,4.85761E7,1.3726848E8,6.948773E7,0E0,6.413152E6,9.274251E7,1.2900889E8,1.417591E8,3.7388352E8,0E0,7.402272E6,3.901163E7,0E0,7.68864E7,0E0,0E0,0E0,0E0,0E0,4.204536E7,4.0350416E7,1.2506743E8,1.5131474E8,0E0,0E0,1.4513898E8,0E0,1.970464E6,0E0,7.192824E6,3.0497652E7,0E0,5.412864E7,0E0,0E0,0E0,0E0,0E0,0E0,0E0,0E0,0E0,0E0,0E0,0E0,0E0,0E0,0E0,0E0,0E0,0E0],"parents":[2147483647,0,0,1,1,2,2,3,3,4,4,5,5,6,6,8,8,9,9,10,10,11,11,12,12,13,13,14,14,16,16,17,17,18,18,19,19,20,20,22,22,23,23,25,25,31,31,32,32,33,33,34,34,37,37,39,39,41,41,42,42,44,44],"right_children":[2,4,6,8,10,12,14,-1,16,18,20,22,24,26,28,-1,30,32,34,36,38,-1,40,42,-1,44,-1,-1,-1,-1,-1,46,48,50,52,-1,-1,54,-1,56,-1,58,60,-1,62,-1,-1,-1,-1,-1,-1,-1,-1,-1,-1,-1,-1,-1,-1,-1,-1,-1,-1],"split_conditions":[4E0,3.431E3,6E0,2E0,8E0,1.57085E4,9E0,8.9859644E2,1.0311E4,4E0,1.2029E4,1.2606E4,1.8878E4,3.1E1,1.3091E4,-5.9564365E1,3E0,1.0603E4,1.4064E4,4.53E3,2.0202066E4,-4.1591557E1,1.8769E4,1.6515E4,-9.332964E1,7.691E3,7.49233E1,7.644888E1,-1.1658237E2,6.4884315E1,2.6732724E2,3E0,1.1021071E4,1.839E4,1.8E1,5.0218506E0,3.8318787E2,1.7737E4,2.8084872E2,2.0091E4,-5.4030796E1,5.241E3,6E0,1.8455858E1,3.0584E4,-5.1058353E1,5.1627995E1,2.8497694E1,-1.0062042E2,-4.705908E1,1.2168256E2,1.4753773E2,1.9473791E1,-3.7394913E1,1.3568892E2,-1.485842E2,-3.8052845E1,9.74038E0,7.982597E1,1.6029688E1,-1.0243327E2,-2.392954E2,-7.280801E0],"split_indices":[3,10,3,1,1,15,1,0,6,1,12,11,11,2,11,0,1,12,6,11,16,0,11,10,0,9,0,0,0,0,0,1,15,10,2,0,0,10,0,9,0,12,1,0,8,0,0,0,0,0,0,0,0,0,0,0,0,0,0,0,0,0,0],"split_type":[0,0,0,0,0,0,0,0,0,0,0,0,0,0,0,0,0,0,0,0,0,0,0,0,0,0,0,0,0,0,0,0,0,0,0,0,0,0,0,0,0,0,0,0,0,0,0,0,0,0,0,0,0,0,0,0,0,0,0,0,0,0,0],"sum_hessian":[2E2,1.32E2,6.8E1,6E0,1.26E2,3.2E1,3.6E1,1E0,5E0,9E1,3.6E1,1.4E1,1.8E1,3.1E1,5E0,2E0,3E0,3.5E1,5.5E1,1.1E1,2.5E1,3E0,1.1E1,1.5E1,3E0,3E1,1E0,2E0,3E0,1E0,2E0,1.3E1,2.2E1,2.2E1,3.3E1,1E0,1E1,2E1,5E0,8E0,3E0,8E0,7E0,1E0,2.9E1,5E0,8E0,2E0,2E1,1.8E1,4E0,1.5E1,1.8E1,1.5E1,5E0,7E0,1E0,2E0,6E0,5E0,2E0,2.8E1,1E0],"tree_param":{"num_deleted":"0","num_feature":"19","num_nodes":"63","size_leaf_vector":"1"}},{"base_weights":[-5.830624E1,2.0156315E3,-4.2981743E3,-8.8798914E2,3.7478716E3,-2.092777E3,-6.254744E3,4.830659E3,-1.3366953E3,4.9935278E2,7.3011396E3,-2.565674E3,1.04742516E2,-6.5834116E3,7.379945E1,-1.18004E1,2.0109329E2,-2.0640999E3,1.7065925E3,-2.450145E3,1.6124152E3,8.8511743E2,6.008472E3,-3.2642354E3,8.890373E2,1.8179033E1,-6.8196343E3,-1.6283909E3,-3.8855298E3,2.1789175E2,2.8220096E2,-1.3402191E2,-6.30938E2,-5.408541E2,3.1467463E3,8.377903E2,9.07737E3,-3.9054534E3,-1.3333126E3,5.5353645E1,-2.0462627E1,-7.017807E3,-7.1715817E0,3.7422626E1,-5.8408035E1,-1.2526677E2,-3.2180286E1,2.7395237E1,-7.148382E1,3.4239155E1,-1.1895335E2,-9.2069595E1,1.0407836E1,-1.5421294E1,1.22822136E2,2.7651373E2,-3.0528708E1,1.0422294E2,3.319024E2,-4.5748814E1,-1.2769457E2,5.757773E-1,-8.0718475E1,-2.4406141E1,-2.1575104E2],"categories":[],"categories_nodes":[],"categories_segments":[],"categories_sizes":[],"default_left":[0,0,0,0,0,0,0,0,0,0,0,0,0,0,0,0,0,0,0,0,0,0,0,0,0,0,0,0,0,0,0,0,0,0,0,0,0,0,0,0,0,0,0,0,0,0,0,0,0,0,0,0,0,0,0,0,0,0,0,0,0,0,0,0,0],"id":10,"left_children":[1,3,5,7,9,11,13,15,17,19,21,23,-1,25,-1,-1,-1,27,29,31,33,-1,35,37,39,-1,41,43,45,-1,47,-1,49,51,53,55,57,59,61,-1,-1,63,-1,-1,-1,-1,-1,-1,-1,-1,-1,-1,-1,-1,-1,-1,-1,-1,-1,-1,-1,-1,-1,-1,-1],"loss_changes":[1.7936877E9,6.924063E8,2.76016E8,1.3988875E8,9.890399E8,9.610253E7,1.164439E8,4.1763424E7,1.11993944E8,1.5496752E8,9.994596E8,7.77152E7,0E0,6.1874304E7,0E0,0E0,0E0,2.5417392E7,7.709619E7,4.4888736E7,1.1403207E8,0E0,6.271269E8,2.6984512E7,1.0271302E7,0E0,4.135757E7,3.357508E7,1.231648E6,0E0,1.730978E7,0E0,5.1797136E7,3.4731176E7,7.14637E7,2.5813371E8,2.3977306E8,9.386016E6,1.473772E7,0E0,0E0,2.8673664E7,0E0,0E0,0E0,0E0,0E0,0E0,0E0,0E0,0E0,0E0,0E0,0E0,0E0,0E0,0E0,0E0,0E0,0E0,0E0,0E0,0E0,0E0,0E0],"parents":[2147483647,0,0,1,1,2,2,3,3,4,4,5,5,6,6,7,7,8,8,9,9,10,10,11,11,13,13,17,17,18,18,19,19,20,20,22,22,23,23,24,24,26,26,27,27,28,28,30,30,32,32,33,33,34,34,35,35,36,36,37,37,38,38,41,41],"right_children":[2,4,6,8,10,12,14,16,18,20,22,24,-1,26,-1,-1,-1,28,30,32,34,-1,36,38,40,-1,42,44,46,-1,48,-1,50,52,54,56,58,60,62,-1,-1,64,-1,-1,-1,-1,-1,-1,-1,-1,-1,-1,-1,-1,-1,-1,-1,-1,-1,-1,-1,-1,-1,-1,-1],"split_conditions":[4E0,1.6354942E8,6E0,3.3244316E7,1.5785467E4,2.3130428E4,3.1E1,1.2E1,1.8175E4,8E0,3.431E3,1.6916E4,1.04742516E2,7.691E3,7.379945E1,-1.18004E1,2.0109329E2,1.6133605E8,1.8569E4,1.364E4,1.1577E4,8.8511743E2,3E0,1.8625715E4,1.5721E4,1.8179033E1,3.0584E4,8.169E3,3E0,2.1789175E2,3E0,-1.3402191E2,1.61E4,1.2464066E4,4.204E3,1.3935214E4,1.2749E4,1.1909E4,1.0388602E4,5.5353645E1,-2.0462627E1,4.124E3,-7.1715817E0,3.7422626E1,-5.8408035E1,-1.2526677E2,-3.2180286E1,2.7395237E1,-7.148382E1,3.4239155E1,-1.1895335E2,-9.2069595E1,1.0407836E1,-1.5421294E1,1.22822136E2,2.7651373E2,-3.0528708E1,1.0422294E2,3.319024E2,-4.5748814E1,-1.2769457E2,5.757773E-1,-8.0718475E1,-2.4406141E1,-2.1575104E2],"split_indices":[3,17,3,18,16,13,2,2,10,2,10,12,0,9,0,0,0,18,10,10,10,0,4,13,8,0,8,8,4,0,4,0,11,16,11,15,11,9,14,0,0,12,0,0,0,0,0,0,0,0,0,0,0,0,0,0,0,0,0,0,0,0,0,0,0],"split_type":[0,0,0,0,0,0,0,0,0,0,0,0,0,0,0,0,0,0,0,0,0,0,0,0,0,0,0,0,0,0,0,0,0,0,0,0,0,0,0,0,0,0,0,0,0,0,0,0,0,0,0,0,0,0,0,0,0,0,0,0,0,0,0,0,0],"sum_hessian":[2.02E2,1.36E2,6.6E1,5.1E1,8.5E1,3.2E1,3.4E1,3E0,4.8E1,4.5E1,4E1,3E1,2E0,3.3E1,1E0,1E0,2E0,3.9E1,9E0,1.2E1,3.3E1,1E0,3.9E1,2.5E1,5E0,1E0,3.2E1,3.3E1,6E0,1E0,8E0,5E0,7E0,1.4E1,1.9E1,1.5E1,2.4E1,1.8E1,7E0,3E0,2E0,3.1E1,1E0,3E0,3E1,5E0,1E0,7E0,1E0,5E0,2E0,3E0,1.1E1,4E0,1.5E1,2E0,1.3E1,7E0,1.7E1,3E0,1.5E1,4E0,3E0,1E0,3E1],"tree_param":{"num_deleted":"0","num_feature":"19","num_nodes":"65","size_leaf_vector":"1"}},{"base_weights":[-3.47621E1,1.3210175E3,-6.1165093E3,1.4319764E4,8.283871E2,-6.4210283E3,7.269246E1,8.718407E2,5.559174E3,-2.0382039E2,6.4517485E3,-6.6914766E3,4.5669903E1,7.5592236E3,-3.661538E1,4.4349663E3,-6.43992E2,-4.377702E1,8.077819E3,1.7906338E1,-6.923395E3,6.375492E1,2.5986566E2,8.2248265E-1,3.9909146E2,2.432932E3,-9.892202E2,-1.9087198E1,1.2345432E1,1.0028196E4,3.0230898E3,-7.1189243E3,-7.064004E0,5.0174488E1,-7.5206215E1,3.0663239E1,2.9044226E2,-3.46918E1,1.6744951E2,-2.5032011E1,3.2783896E2,2.8380312E1,1.0994158E2,-5.0688377E1,-2.2244096E2],"categories":[],"categories_nodes":[],"categories_segments":[],"categories_sizes":[],"default_left":[0,0,0,0,0,0,0,0,0,0,0,0,0,0,0,0,0,0,0,0,0,0,0,0,0,0,0,0,0,0,0,0,0,0,0,0,0,0,0,0,0,0,0,0,0],"id":11,"left_children":[1,3,5,7,9,11,-1,-1,13,15,17,19,-1,21,-1,23,25,27,29,-1,31,-1,-1,33,-1,35,37,-1,-1,39,41,43,-1,-1,-1,-1,-1,-1,-1,-1,-1,-1,-1,-1,-1],"loss_changes":[1.6736728E9,1.05113165E9,1.1177587E8,6.133133E8,9.358356E8,8.752422E7,0E0,0E0,7.702466E7,2.825912E8,2.6440826E8,6.3293184E7,0E0,5.565744E6,0E0,4.718572E8,1.3624907E8,1.8802814E6,1.6685632E8,0E0,4.2785024E7,0E0,0E0,4.192085E7,0E0,1.23046776E8,1.3168051E8,0E0,0E0,1.45952E8,5.862152E6,4.0465024E7,0E0,0E0,0E0,0E0,0E0,0E0,0E0,0E0,0E0,0E0,0E0,0E0,0E0],"parents":[2147483647,0,0,1,1,2,2,3,3,4,4,5,5,8,8,9,9,10,10,11,11,13,13,15,15,16,16,17,17,18,18,20,20,23,23,25,25,26,26,29,29,30,30,31,31],"right_children":[2,4,6,8,10,12,-1,-1,14,16,18,20,-1,22,-1,24,26,28,30,-1,32,-1,-1,34,-1,36,38,-1,-1,40,42,44,-1,-1,-1,-1,-1,-1,-1,-1,-1,-1,-1,-1,-1],"split_conditions":[1E0,3.431E3,3.1E1,2E0,9E0,2.4854857E4,7.269246E1,8.718407E2,8E0,4.53E3,1.3091E4,7.691E3,4.5669903E1,3E0,-3.661538E1,1.3513429E4,3.8473318E3,9.08E3,2.5715E4,1.7906338E1,3.0584E4,6.375492E1,2.5986566E2,3.786E3,3.9909146E2,1.6734E4,3.2916E4,-1.9087198E1,1.2345432E1,7.165E3,1E1,7.813E3,-7.064004E0,5.0174488E1,-7.5206215E1,3.0663239E1,2.9044226E2,-3.46918E1,1.6744951E2,-2.5032011E1,3.2783896E2,2.8380312E1,1.0994158E2,-5.0688377E1,-2.2244096E2],"split_indices":[5,10,2,1,1,13,0,0,1,12,9,9,0,1,0,13,14,9,9,0,8,0,0,12,0,7,12,0,0,10,2,6,0,0,0,0,0,0,0,0,0,0,0,0,0],"split_type":[0,0,0,0,0,0,0,0,0,0,0,0,0,0,0,0,0,0,0,0,0,0,0,0,0,0,0,0,0,0,0,0,0,0,0,0,0,0,0,0,0,0,0,0,0],"sum_hessian":[2.01E2,1.65E2,3.6E1,5E0,1.6E2,3.5E1,1E0,1E0,4E0,1.36E2,2.4E1,3.4E1,1E0,3E0,1E0,1.1E1,1.25E2,5E0,1.9E1,1E0,3.3E1,1E0,2E0,8E0,3E0,1.2E1,1.13E2,2E0,3E0,1.3E1,6E0,3.2E1,1E0,5E0,3E0,1.1E1,1E0,1.11E2,2E0,1E0,1.2E1,2E0,4E0,2E0,3E1],"tree_param":{"num_deleted":"0","num_feature":"19","num_nodes":"45","size_leaf_vector":"1"}},{"base_weights":[5.6842113E1,1.8778103E3,-3.7883262E3,1.1576594E4,1.3284458E3,-1.818642E3,-5.762883E3,8.587631E2,3.9642134E3,6.051424E2,8.209674E3,-3.072136E3,3.461286E2,-2.5357951E2,-3.619206E3,7.413352E3,-5.868128E1,-3.8490915E2,3.4561204E3,2.499838E2,1.2158271E4,-3.3504949E3,3.74256E1,-1.2541283E3,2.4221165E3,-5.637454E3,-7.503245E2,6.2798584E1,2.5466835E2,3.9203691E3,-8.106256E2,7.520361E3,7.0733075E2,2.60775E3,-2.1911104E3,4.2955582E2,1.1355008E2,-3.857473E3,-1.5246342E3,2.7812704E1,-2.135716E3,3.36586E1,1.00448845E2,7.651911E1,-6.711327E3,-3.4628909E3,1.183107E3,6.66162E1,2.3728757E2,-6.2136486E1,1.9114935E1,4.73121E1,3.960242E2,4.365475E1,-7.382438E1,9.5646706E1,2.170204E1,-8.223362E1,-1.6366346E1,-3.1765059E1,-1.261975E2,-5.1866787E1,-7.5500975E0,-8.955565E1,-8.73543E0,-6.492003E1,-2.2732974E2,3.9622118E0,-1.411571E2,-1.8496689E1,6.7112335E1],"categories":[],"categories_nodes":[],"categories_segments":[],"categories_sizes":[],"default_left":[0,0,0,0,0,0,0,0,0,0,0,0,0,0,0,0,0,0,0,0,0,0,0,0,0,0,0,0,0,0,0,0,0,0,0,0,0,0,0,0,0,0,0,0,0,0,0,0,0,0,0,0,0,0,0,0,0,0,0,0,0,0,0,0,0,0,0,0,0,0,0],"id":12,"left_children":[1,3,5,7,9,11,13,-1,15,17,19,21,23,-1,25,27,-1,29,31,33,35,37,-1,39,41,43,45,-1,-1,47,49,51,53,55,57,-1,-1,59,61,-1,63,-1,-1,-1,65,67,69,-1,-1,-1,-1,-1,-1,-1,-1,-1,-1,-1,-1,-1,-1,-1,-1,-1,-1,-1,-1,-1,-1,-1,-1],"loss_changes":[1.37249E9,6.932674E8,2.3454227E8,7.9499866E8,6.271383E8,9.060975E7,1.4815386E8,0E0,1.3701952E8,3.287537E8,3.7411603E8,2.9430512E7,4.622512E7,0E0,1.0578226E8,5.11912E6,0E0,1.6263398E8,3.2983286E8,3.449151E7,9.051149E7,1.2632192E7,0E0,1.7363488E7,3.468468E6,1.138408E8,5.1298024E7,0E0,0E0,3.668433E7,1.4732534E8,3.843079E8,4.8596156E7,9.7508E5,1.219829E6,0E0,0E0,1.0201424E7,1.124975E6,0E0,8.532058E6,0E0,0E0,0E0,2.2996832E7,1.84862E7,1.2760041E7,0E0,0E0,0E0,0E0,0E0,0E0,0E0,0E0,0E0,0E0,0E0,0E0,0E0,0E0,0E0,0E0,0E0,0E0,0E0,0E0,0E0,0E0,0E0,0E0],"parents":[2147483647,0,0,1,1,2,2,3,3,4,4,5,5,6,6,8,8,9,9,10,10,11,11,12,12,14,14,15,15,17,17,18,18,19,19,20,20,21,21,23,23,24,24,25,25,26,26,29,29,30,30,31,31,32,32,33,33,34,34,37,37,38,38,40,40,44,44,45,45,46,46],"right_children":[2,4,6,8,10,12,14,-1,16,18,20,22,24,-1,26,28,-1,30,32,34,36,38,-1,40,42,44,46,-1,-1,48,50,52,54,56,58,-1,-1,60,62,-1,64,-1,-1,-1,66,68,70,-1,-1,-1,-1,-1,-1,-1,-1,-1,-1,-1,-1,-1,-1,-1,-1,-1,-1,-1,-1,-1,-1,-1,-1],"split_conditions":[4E0,3.431E3,6E0,4.255E3,1.8880928E4,1.6436934E4,1.7022E4,8.587631E2,1.5181E4,3E0,1.7144605E8,2.3149E4,2.2E1,-2.5357951E2,1.8E1,2.749E3,-5.868128E1,3.8473318E3,1.3415E4,2E1,2.3E1,1.3981E4,3.74256E1,1E1,1.6009E4,1.7483E4,1.5344E4,6.2798584E1,2.5466835E2,3E0,6.7423843E3,1.4638E4,1.9505E4,5E0,2.1E1,4.2955582E2,1.1355008E2,1.1909E4,1.8878E4,2.7812704E1,2E1,3.36586E1,1.00448845E2,7.651911E1,1.63E4,2.1E1,2.3E1,6.66162E1,2.3728757E2,-6.2136486E1,1.9114935E1,4.73121E1,3.960242E2,4.365475E1,-7.382438E1,9.5646706E1,2.170204E1,-8.223362E1,-1.6366346E1,-3.1765059E1,-1.261975E2,-5.1866787E1,-7.5500975E0,-8.955565E1,-8.73543E0,-6.492003E1,-2.2732974E2,3.9622118E0,-1.411571E2,-1.8496689E1,6.7112335E1],"split_indices":[3,10,3,7,15,16,7,0,9,3,18,8,2,0,2,10,0,14,8,2,2,12,0,2,8,7,13,0,0,4,14,7,9,2,2,0,0,9,7,0,2,0,0,0,11,2,2,0,0,0,0,0,0,0,0,0,0,0,0,0,0,0,0,0,0,0,0,0,0,0,0],"split_type":[0,0,0,0,0,0,0,0,0,0,0,0,0,0,0,0,0,0,0,0,0,0,0,0,0,0,0,0,0,0,0,0,0,0,0,0,0,0,0,0,0,0,0,0,0,0,0,0,0,0,0,0,0,0,0,0,0,0,0,0,0,0,0,0,0,0,0,0,0,0,0],"sum_hessian":[1.94E2,1.32E2,6.2E1,6E0,1.26E2,3.2E1,3E1,1E0,5E0,1.15E2,1.1E1,2E1,1.2E1,1.2E1,1.8E1,3E0,2E0,8.6E1,2.9E1,4E0,7E0,1.9E1,1E0,7E0,5E0,1E1,8E0,1E0,2E0,7E0,7.9E1,1.1E1,1.8E1,2E0,2E0,5E0,2E0,1.4E1,5E0,2E0,5E0,3E0,2E0,1E0,9E0,3E0,5E0,6E0,1E0,4.2E1,3.7E1,6E0,5E0,1.5E1,3E0,1E0,1E0,1E0,1E0,2E0,1.2E1,4E0,1E0,3E0,2E0,2E0,7E0,1E0,2E0,2E0,3E0],"tree_param":{"num_deleted":"0","num_feature":"19","num_nodes":"71","size_leaf_vector":"1"}},{"base_weights":[-3.5090228E2,8.112236E2,-5.9119497E3,-5.8614807E0,5.7850396E3,-6.233717E3,7.059539E1,5.3553656E2,-2.4211042E3,-3.834895E2,6.7294937E3,-6.798902E3,-1.7088982E3,-1.3789994E3,1.7683975E3,9.335486E2,-2.8992566E3,-1.873293E1,5.0900245E0,8.1582183E3,2.0360995E3,-7.139245E3,-1.469515E3,7.537132E1,-1.0176934E2,-2.350418E3,-1.1062425E2,-8.35862E2,2.8789036E3,-1.404873E0,3.8278522E1,-3.9428032E3,-1.4024058E3,9.728359E3,1.408239E3,5.931526E2,9.8439865E1,-4.6489616E1,-2.2573279E2,-5.944759E1,-6.680581E0,1.702741E1,-7.8517006E1,1.0505667E2,-5.367267E1,2.5450815E1,-1.008867E2,1.8605737E2,4.9989723E1,-5.3294178E1,-1.3245164E2,1.149439E1,-8.86267E1,1.5751587E2,3.3932877E2,-2.4943256E1,7.29584E1,2.7256445E1,-5.2955127E0],"categories":[],"categories_nodes":[],"categories_segments":[],"categories_sizes":[],"default_left":[0,0,0,0,0,0,0,0,0,0,0,0,0,0,0,0,0,0,0,0,0,0,0,0,0,0,0,0,0,0,0,0,0,0,0,0,0,0,0,0,0,0,0,0,0,0,0,0,0,0,0,0,0,0,0,0,0,0,0],"id":13,"left_children":[1,3,5,7,9,11,-1,13,15,17,19,21,23,25,27,29,31,-1,-1,33,35,37,39,-1,-1,41,43,45,47,-1,-1,49,51,53,55,57,-1,-1,-1,-1,-1,-1,-1,-1,-1,-1,-1,-1,-1,-1,-1,-1,-1,-1,-1,-1,-1,-1,-1],"loss_changes":[1.2714728E9,6.62471E8,1.0509018E8,1.8566928E8,1.365762E8,7.27744E7,0E0,2.7623997E8,4.441152E7,6.3905944E5,1.1750042E8,4.2109696E7,4.405352E7,5.641764E7,2.0774163E8,1.4024858E6,3.039736E7,0E0,0E0,1.4527654E8,8.834466E6,4.6470784E7,1.474125E6,0E0,0E0,2.1728256E7,1.3359819E8,9.648666E7,1.9113626E8,0E0,0E0,5.45648E6,3.1611268E7,2.5650688E7,1.1193138E7,1.1313758E6,0E0,0E0,0E0,0E0,0E0,0E0,0E0,0E0,0E0,0E0,0E0,0E0,0E0,0E0,0E0,0E0,0E0,0E0,0E0,0E0,0E0,0E0,0E0],"parents":[2147483647,0,0,1,1,2,2,3,3,4,4,5,5,7,7,8,8,9,9,10,10,11,11,12,12,13,13,14,14,15,15,16,16,19,19,20,20,21,21,22,22,25,25,26,26,27,27,28,28,31,31,32,32,33,33,34,34,35,35],"right_children":[2,4,6,8,10,12,-1,14,16,18,20,22,24,26,28,30,32,-1,-1,34,36,38,40,-1,-1,42,44,46,48,-1,-1,50,52,54,56,58,-1,-1,-1,-1,-1,-1,-1,-1,-1,-1,-1,-1,-1,-1,-1,-1,-1,-1,-1,-1,-1,-1,-1],"split_conditions":[6E0,9E0,3.1E1,1.9803E4,1.0311E4,9E0,7.059539E1,1.2111E4,4.53E3,2E0,4E0,2.1146E4,1.7483E4,1.7E1,1.3177286E4,1.4015E4,1.7900715E4,-1.873293E1,5.0900245E0,2.9349E4,1.7E1,7.813E3,1.3E1,7.537132E1,-1.0176934E2,7.405E3,2.2E1,1.2698143E4,1.0254E4,-1.404873E0,3.8278522E1,1.0304E4,7.591582E8,6E0,1.5E1,1E1,9.8439865E1,-4.6489616E1,-2.2573279E2,-5.944759E1,-6.680581E0,1.702741E1,-7.8517006E1,1.0505667E2,-5.367267E1,2.5450815E1,-1.008867E2,1.8605737E2,4.9989723E1,-5.3294178E1,-1.3245164E2,1.149439E1,-8.86267E1,1.5751587E2,3.3932877E2,-2.4943256E1,7.29584E1,2.7256445E1,-5.2955127E0],"split_indices":[3,1,2,9,9,1,0,6,8,3,3,8,7,2,13,6,13,0,0,12,2,6,2,0,0,12,2,13,8,0,0,10,17,2,2,2,0,0,0,0,0,0,0,0,0,0,0,0,0,0,0,0,0,0,0,0,0,0,0],"split_type":[0,0,0,0,0,0,0,0,0,0,0,0,0,0,0,0,0,0,0,0,0,0,0,0,0,0,0,0,0,0,0,0,0,0,0,0,0,0,0,0,0,0,0,0,0,0,0,0,0,0,0,0,0,0,0,0,0,0,0],"sum_hessian":[1.95E2,1.62E2,3.3E1,1.4E2,2.2E1,3.2E1,1E0,1.15E2,2.5E1,3E0,1.9E1,2.8E1,4E0,4.5E1,7E1,3E0,2.2E1,2E0,1E0,1.4E1,5E0,2.6E1,2E0,1E0,3E0,2.5E1,2E1,2.1E1,4.9E1,1E0,2E0,1.2E1,1E1,1.1E1,3E0,3E0,2E0,2E0,2.4E1,1E0,1E0,2E0,2.3E1,6E0,1.4E1,1.3E1,8E0,1.2E1,3.7E1,3E0,9E0,5E0,5E0,4E0,7E0,1E0,2E0,2E0,1E0],"tree_param":{"num_deleted":"0","num_feature":"19","num_nodes":"59","size_leaf_vector":"1"}},{"base_weights":[2.3561986E2,1.4436858E3,-5.5984517E3,1.1336785E4,9.962467E2,-6.265876E3,-4.7421466E2,8.451318E2,3.8358953E3,7.297199E1,5.9051494E3,-6.641795E3,6.953645E1,7.98303E1,-1.0354104E2,-5.6437977E1,7.1647925E3,4.6806504E3,-2.9622607E2,-3.5255344E2,7.8998213E3,2.001703E1,-6.926661E3,5.906575E1,2.4721452E2,8.1830786E2,4.0260043E2,-1.8398643E3,4.2518967E2,2.5147339E2,-2.6053257E1,9.320835E3,2.0568152E3,-4.9561054E1,-7.0608315E3,-2.1943285E1,5.6833405E1,6.180739E1,-6.635315E1,1.1126697E2,-1.4957103E1,1.0647901E1,-8.8344723E-1,3.2544275E2,1.2290109E2,6.3696876E0,9.647107E1,-5.855588E1,-2.1546774E2],"categories":[],"categories_nodes":[],"categories_segments":[],"categories_sizes":[],"default_left":[0,0,0,0,0,0,0,0,0,0,0,0,0,0,0,0,0,0,0,0,0,0,0,0,0,0,0,0,0,0,0,0,0,0,0,0,0,0,0,0,0,0,0,0,0,0,0,0,0],"id":14,"left_children":[1,3,5,7,9,11,13,-1,15,17,19,21,-1,-1,-1,-1,23,25,27,29,31,-1,33,-1,-1,35,-1,37,39,41,-1,43,45,-1,47,-1,-1,-1,-1,-1,-1,-1,-1,-1,-1,-1,-1,-1,-1],"loss_changes":[1.3965272E9,7.146615E8,1.1330982E8,7.75843E8,7.156671E8,1.1219891E8,5.5854348E7,0E0,1.2766994E8,2.293401E8,3.148366E8,6.5002496E7,0E0,0E0,0E0,0E0,6.132544E6,3.2656246E8,1.399829E8,2.3996632E6,1.385856E8,0E0,8.150656E6,0E0,0E0,1.4727656E7,0E0,6.2576016E7,2.6271798E8,1.2670492E5,0E0,7.52375E7,1.0005026E7,0E0,2.731264E6,0E0,0E0,0E0,0E0,0E0,0E0,0E0,0E0,0E0,0E0,0E0,0E0,0E0,0E0],"parents":[2147483647,0,0,1,1,2,2,3,3,4,4,5,5,6,6,8,8,9,9,10,10,11,11,16,16,17,17,18,18,19,19,20,20,22,22,25,25,27,27,28,28,29,29,31,31,32,32,34,34],"right_children":[2,4,6,8,10,12,14,-1,16,18,20,22,-1,-1,-1,-1,24,26,28,30,32,-1,34,-1,-1,36,-1,38,40,42,-1,44,46,-1,48,-1,-1,-1,-1,-1,-1,-1,-1,-1,-1,-1,-1,-1,-1],"split_conditions":[6E0,3.431E3,9E0,2E0,9E0,3.1E1,1.3091E4,8.451318E2,1.0311E4,4.53E3,1.5177E4,7.691E3,6.953645E1,7.98303E1,-1.0354104E2,-5.6437977E1,3E0,5E0,4E0,6.685437E3,4E0,2.001703E1,7.691E3,5.906575E1,2.4721452E2,8.994E3,4.0260043E2,1.1021071E4,1.0254E4,3E0,-2.6053257E1,2.1E1,1.7E1,-4.9561054E1,7.813E3,-2.1943285E1,5.6833405E1,6.180739E1,-6.635315E1,1.1126697E2,-1.4957103E1,1.0647901E1,-8.8344723E-1,3.2544275E2,1.2290109E2,6.3696876E0,9.647107E1,-5.855588E1,-2.1546774E2],"split_indices":[3,10,1,1,1,2,11,0,6,12,9,9,0,0,0,0,1,1,1,14,3,0,6,0,0,9,0,15,8,3,0,2,2,0,9,0,0,0,0,0,0,0,0,0,0,0,0,0,0],"split_type":[0,0,0,0,0,0,0,0,0,0,0,0,0,0,0,0,0,0,0,0,0,0,0,0,0,0,0,0,0,0,0,0,0,0,0,0,0,0,0,0,0,0,0,0,0,0,0,0,0],"sum_hessian":[1.96E2,1.63E2,3.3E1,6E0,1.57E2,2.9E1,4E0,1E0,5E0,1.33E2,2.4E1,2.8E1,1E0,2E0,2E0,2E0,3E0,9E0,1.24E2,6E0,1.8E1,1E0,2.7E1,1E0,2E0,7E0,2E0,3.9E1,8.5E1,3E0,3E0,1.4E1,4E0,1E0,2.6E1,3E0,4E0,3E0,3.6E1,1.8E1,6.7E1,2E0,1E0,1E1,4E0,2E0,2E0,1E0,2.5E1],"tree_param":{"num_deleted":"0","num_feature":"19","num_nodes":"49","size_leaf_vector":"1"}},{"base_weights":[-4.7637677E2,5.949368E2,-5.171982E3,-2.6546527E2,5.7325605E3,-5.8001626E3,-8.549907E2,-2.3507622E3,2.5814746E2,-1.4804512E2,6.916084E3,-6.1241123E3,6.849341E1,7.8233696E1,-9.714986E1,7.767158E2,-2.7414988E3,9.7262024E2,-2.3814382E3,-1.7837196E1,1.0434941E1,8.437548E3,1.9597421E3,1.9716782E1,-6.364066E3,-6.5726953E2,7.618008E1,-3.1025476E3,3.1821697E1,2.4227022E2,7.2504486E2,-4.2750825E3,-1.4075165E3,1.0497559E4,2.2180151E3,2.0807649E2,2.7835557E3,-4.290954E1,-6.6550034E3,3.5253515E0,-3.3102478E1,-1.1360423E2,-4.624072E1,-1.9838135E1,6.0223385E1,-1.4158519E2,-1.7461773E1,2.2315523E1,-6.2259747E1,3.4619614E2,1.161431E2,-2.41783E1,9.526472E1,1.4675068E1,-5.311626E0,2.520085E1,9.454166E1,-5.7677547E1,-2.0266063E2],"categories":[],"categories_nodes":[],"categories_segments":[],"categories_sizes":[],"default_left":[0,0,0,0,0,0,0,0,0,0,0,0,0,0,0,0,0,0,0,0,0,0,0,0,0,0,0,0,0,0,0,0,0,0,0,0,0,0,0,0,0,0,0,0,0,0,0,0,0,0,0,0,0,0,0,0,0,0,0],"id":15,"left_children":[1,3,5,7,9,11,13,15,17,19,21,23,-1,-1,-1,25,27,29,31,-1,-1,33,35,-1,37,39,-1,41,-1,-1,43,45,47,49,51,53,55,-1,57,-1,-1,-1,-1,-1,-1,-1,-1,-1,-1,-1,-1,-1,-1,-1,-1,-1,-1,-1,-1],"loss_changes":[1.02929197E9,7.3973235E8,9.809126E7,1.5783874E8,1.680599E8,1.0039501E8,5.7962736E7,3.756795E7,2.2108203E8,1.3139252E6,1.342825E8,5.625331E7,0E0,0E0,0E0,1.1779314E7,3.898341E7,1.5593056E8,4.0089296E7,0E0,0E0,1.689008E8,8.079082E6,0E0,3.4978944E7,1.166662E6,0E0,1.9801424E7,0E0,0E0,1.6133067E8,1.0383088E7,2.7404352E7,3.1295616E7,1.7036094E7,4.1138138E5,2.1232E5,0E0,7.84512E5,0E0,0E0,0E0,0E0,0E0,0E0,0E0,0E0,0E0,0E0,0E0,0E0,0E0,0E0,0E0,0E0,0E0,0E0,0E0,0E0],"parents":[2147483647,0,0,1,1,2,2,3,3,4,4,5,5,6,6,7,7,8,8,9,9,10,10,11,11,15,15,16,16,17,17,18,18,21,21,22,22,24,24,25,25,27,27,30,30,31,31,32,32,33,33,34,34,35,35,36,36,38,38],"right_children":[2,4,6,8,10,12,14,16,18,20,22,24,-1,-1,-1,26,28,30,32,-1,-1,34,36,-1,38,40,-1,42,-1,-1,44,46,48,50,52,54,56,-1,58,-1,-1,-1,-1,-1,-1,-1,-1,-1,-1,-1,-1,-1,-1,-1,-1,-1,-1,-1,-1],"split_conditions":[6E0,9E0,9E0,3E0,1.0976E4,3.1E1,1.3091E4,5.2511456E7,1.9505E4,9.08E3,4E0,7.691E3,6.849341E1,7.8233696E1,-9.714986E1,1.5E1,2.5365E4,3.18E3,1.4684533E4,-1.7837196E1,1.0434941E1,2.7143E4,2.9324E4,1.9716782E1,7.813E3,2E0,7.618008E1,1.5658E4,3.1821697E1,2.4227022E2,2E0,2.3E1,1.5556857E4,2.9458E4,1.5177E4,1E1,3E0,-4.290954E1,7.813E3,3.5253515E0,-3.3102478E1,-1.1360423E2,-4.624072E1,-1.9838135E1,6.0223385E1,-1.4158519E2,-1.7461773E1,2.2315523E1,-6.2259747E1,3.4619614E2,1.161431E2,-2.41783E1,9.526472E1,1.4675068E1,-5.311626E0,2.520085E1,9.454166E1,-5.7677547E1,-2.0266063E2],"split_indices":[3,1,1,1,9,2,11,18,9,9,3,9,0,0,0,2,12,10,16,0,0,12,9,0,6,2,0,10,0,0,3,2,15,10,9,2,2,0,9,0,0,0,0,0,0,0,0,0,0,0,0,0,0,0,0,0,0,0,0],"split_type":[0,0,0,0,0,0,0,0,0,0,0,0,0,0,0,0,0,0,0,0,0,0,0,0,0,0,0,0,0,0,0,0,0,0,0,0,0,0,0,0,0,0,0,0,0,0,0,0,0,0,0,0,0,0,0,0,0,0,0],"sum_hessian":[2.03E2,1.66E2,3.7E1,1.43E2,2.3E1,3.2E1,5E0,2.8E1,1.15E2,4E0,1.9E1,3.1E1,1E0,2E0,3E0,3E0,2.5E1,9.1E1,2.4E1,2E0,2E0,1.4E1,5E0,1E0,3E1,2E0,1E0,2.3E1,2E0,2E0,8.9E1,7E0,1.7E1,1E1,4E0,2E0,3E0,2E0,2.8E1,1E0,1E0,1.5E1,8E0,4.3E1,4.6E1,6E0,1E0,4E0,1.3E1,8E0,2E0,1E0,3E0,1E0,1E0,1E0,2E0,1E0,2.7E1],"tree_param":{"num_deleted":"0","num_feature":"19","num_nodes":"59","size_leaf_vector":"1"}},{"base_weights":[-4.6808853E1,1.5192605E3,-3.5831584E3,1.1073744E4,9.7205536E2,-4.2191514E3,9.1919104E2,8.313122E2,3.6825657E3,1.6476718E2,6.0910176E3,-2.5529673E3,-5.7230605E3,3.142252E3,-2.0894329E3,-5.4495613E1,6.886239E3,-7.999162E2,2.9840269E3,-1.882718E2,8.723077E3,-3.866838E3,-9.4164746E2,-6.7206616E3,-3.4548328E3,2.4822832E1,1.0542303E2,-5.231953E0,-8.008934E1,5.703706E1,2.3742485E2,1.3779259E3,-1.3487556E3,-7.583036E2,6.2779336E3,1.022624E1,-1.614191E1,1.077114E4,1.9341677E3,-2.9188173E1,-4.268076E3,5.0808957E2,-2.2568635E3,-4.2051357E1,-7.336407E3,-4.7903276E3,1.2580973E3,9.842157E0,1.850366E2,-5.1010983E1,7.35223E1,2.752662E1,-7.6957214E1,3.751567E2,5.7412983E1,3.6667813E2,1.1382025E2,9.324378E1,-2.381562E1,-1.3399577E2,-3.1276918E1,4.731569E1,-2.0640987E1,-3.347329E1,-8.501204E1,-5.681238E1,-2.2769704E2,1.3560688E1,-1.6811429E2,-1.0851636E1,6.746601E1],"categories":[],"categories_nodes":[],"categories_segments":[],"categories_sizes":[],"default_left":[0,0,0,0,0,0,0,0,0,0,0,0,0,0,0,0,0,0,0,0,0,0,0,0,0,0,0,0,0,0,0,0,0,0,0,0,0,0,0,0,0,0,0,0,0,0,0,0,0,0,0,0,0,0,0,0,0,0,0,0,0,0,0,0,0,0,0,0,0,0,0],"id":16,"left_children":[1,3,5,7,9,11,13,-1,15,17,19,21,23,25,27,-1,29,31,33,35,37,39,41,43,45,-1,-1,-1,-1,-1,-1,47,49,51,53,-1,-1,55,57,-1,59,61,63,-1,65,67,69,-1,-1,-1,-1,-1,-1,-1,-1,-1,-1,-1,-1,-1,-1,-1,-1,-1,-1,-1,-1,-1,-1,-1,-1],"loss_changes":[1.0466195E9,6.741381E8,1.6995898E8,7.587063E8,5.1555613E8,1.1318451E8,6.007236E7,0E0,1.1821265E8,2.9883347E8,2.826092E8,5.140253E7,3.561363E7,1.39616E6,3.978922E6,0E0,5.450096E6,9.98719E7,3.4991347E8,1.2939592E6,1.460162E8,1.2103408E7,2.5934012E7,4.53936E7,6.896764E7,0E0,0E0,0E0,0E0,0E0,0E0,8.3465416E7,9.233945E7,4.474811E7,3.83722E8,0E0,0E0,4.477088E7,1.5277735E7,0E0,3.024576E6,1.0036581E7,1.446008E6,0E0,6.32192E6,3.6649504E7,5.6280645E6,0E0,0E0,0E0,0E0,0E0,0E0,0E0,0E0,0E0,0E0,0E0,0E0,0E0,0E0,0E0,0E0,0E0,0E0,0E0,0E0,0E0,0E0,0E0,0E0],"parents":[2147483647,0,0,1,1,2,2,3,3,4,4,5,5,6,6,8,8,9,9,10,10,11,11,12,12,13,13,14,14,16,16,17,17,18,18,19,19,20,20,21,21,22,22,23,23,24,24,31,31,32,32,33,33,34,34,37,37,38,38,40,40,41,41,42,42,44,44,45,45,46,46],"right_children":[2,4,6,8,10,12,14,-1,16,18,20,22,24,26,28,-1,30,32,34,36,38,40,42,44,46,-1,-1,-1,-1,-1,-1,48,50,52,54,-1,-1,56,58,-1,60,62,64,-1,66,68,70,-1,-1,-1,-1,-1,-1,-1,-1,-1,-1,-1,-1,-1,-1,-1,-1,-1,-1,-1,-1,-1,-1,-1,-1],"split_conditions":[4E0,3.431E3,9E0,2E0,9E0,6E0,1.5177E4,8.313122E2,1.0311E4,3E0,1.3091E4,1.3981E4,1.8769E4,1.3219E4,6E0,-5.4495613E1,3E0,1.0603E4,2.0244109E8,1.7483E4,2.7143E4,1.1909E4,1.839E4,7.813E3,1.7405E4,2.4822832E1,1.0542303E2,-5.231953E0,-8.008934E1,5.703706E1,2.3742485E2,1.58502E4,1.839E4,1.5159643E4,1.3415E4,1.022624E1,-1.614191E1,2.9458E4,2E0,-2.9188173E1,2.0424E4,1.6009E4,6E0,-4.2051357E1,7.813E3,1.2897434E4,6E0,9.842157E0,1.850366E2,-5.1010983E1,7.35223E1,2.752662E1,-7.6957214E1,3.751567E2,5.7412983E1,3.6667813E2,1.1382025E2,9.324378E1,-2.381562E1,-1.3399577E2,-3.1276918E1,4.731569E1,-2.0640987E1,-3.347329E1,-8.501204E1,-5.681238E1,-2.2769704E2,1.3560688E1,-1.6811429E2,-1.0851636E1,6.746601E1],"split_indices":[3,10,1,1,1,3,11,0,6,3,9,12,12,7,3,0,1,12,17,8,12,9,6,6,11,0,0,0,0,0,0,16,10,15,8,0,0,10,3,0,9,8,1,0,9,16,1,0,0,0,0,0,0,0,0,0,0,0,0,0,0,0,0,0,0,0,0,0,0,0,0],"split_type":[0,0,0,0,0,0,0,0,0,0,0,0,0,0,0,0,0,0,0,0,0,0,0,0,0,0,0,0,0,0,0,0,0,0,0,0,0,0,0,0,0,0,0,0,0,0,0,0,0,0,0,0,0,0,0,0,0,0,0,0,0,0,0,0,0,0,0,0,0,0,0],"sum_hessian":[1.87E2,1.3E2,5.7E1,6E0,1.24E2,5E1,7E0,1E0,5E0,1.08E2,1.6E1,2.5E1,2.5E1,4E0,3E0,2E0,3E0,8.1E1,2.7E1,5E0,1.1E1,1.3E1,1.2E1,1.6E1,9E0,1E0,3E0,1E0,2E0,1E0,2E0,1.6E1,6.5E1,1.3E1,1.4E1,2E0,3E0,8E0,3E0,2E0,1.1E1,6E0,6E0,2E0,1.4E1,7E0,2E0,1.4E1,2E0,6E1,5E0,7E0,6E0,5E0,9E0,6E0,2E0,2E0,1E0,1E1,1E0,3E0,3E0,3E0,3E0,1E0,1.3E1,1E0,6E0,1E0,1E0],"tree_param":{"num_deleted":"0","num_feature":"19","num_nodes":"71","size_leaf_vector":"1"}},{"base_weights":[2.8349582E2,1.8874996E3,-3.0793167E3,1.2086094E4,1.3985146E3,-4.2982246E3,-1.00589166E3,8.1884247E2,3.5854126E3,-1.2567677E2,3.9732058E3,-4.5955913E3,9.011628E2,-1.6880304E2,-1.6075218E2,-5.3405693E1,2.3267632E2,-7.540542E2,2.9803032E3,-1.0098316E3,5.852901E3,-2.8820244E3,-5.710821E3,3.7445316E1,3.1070068E0,-8.177927E2,8.868296E1,1.7578294E2,-1.0389259E3,7.5342715E3,4.0528876E2,-2.1995742E3,4.941359E2,9.7830316E2,8.688876E3,-3.2817202E3,5.269658E1,2.0273218E1,-6.047124E3,2.4936006E3,-1.594529E3,-6.3158142E1,3.7058752E0,6.4347946E1,3.1236563E2,-4.2143196E1,5.5383766E1,-5.5565624E0,-1.01134315E2,7.3300606E1,-7.138779E0,-1.8032606E1,1.18242676E2,8.960195E1,3.0570865E2,-6.4777405E1,-1.3249307E2,-4.121032E1,-1.9400299E2,1.2873574E1,9.1161644E1,-2.0052942E1,-1.2617141E2],"categories":[],"categories_nodes":[],"categories_segments":[],"categories_sizes":[],"default_left":[0,0,0,0,0,0,0,0,0,0,0,0,0,0,0,0,0,0,0,0,0,0,0,0,0,0,0,0,0,0,0,0,0,0,0,0,0,0,0,0,0,0,0,0,0,0,0,0,0,0,0,0,0,0,0,0,0,0,0,0,0,0,0],"id":17,"left_children":[1,3,5,7,9,11,13,-1,15,17,19,21,23,25,-1,-1,-1,27,29,31,33,35,37,-1,-1,39,-1,-1,41,43,45,47,49,51,53,55,-1,-1,57,59,61,-1,-1,-1,-1,-1,-1,-1,-1,-1,-1,-1,-1,-1,-1,-1,-1,-1,-1,-1,-1,-1,-1],"loss_changes":[1.0684231E9,6.5135014E8,1.5742451E8,6.778407E8,5.0673686E8,6.598637E7,9.01815E7,0E0,1.2569222E8,1.6228898E8,4.5550675E8,5.6160064E7,7.0106225E5,4.703411E7,0E0,0E0,0E0,1.3608317E8,1.6111792E8,2.6137564E7,4.753481E8,3.728285E7,5.1338816E7,0E0,0E0,5.2845624E7,0E0,0E0,8.331183E7,5.5216896E7,2.867343E7,1.8255264E7,1.0570509E7,6.788804E7,1.5791206E8,1.0842832E7,0E0,0E0,3.2301504E7,3.197592E6,3.5880164E7,0E0,0E0,0E0,0E0,0E0,0E0,0E0,0E0,0E0,0E0,0E0,0E0,0E0,0E0,0E0,0E0,0E0,0E0,0E0,0E0,0E0,0E0],"parents":[2147483647,0,0,1,1,2,2,3,3,4,4,5,5,6,6,8,8,9,9,10,10,11,11,12,12,13,13,17,17,18,18,19,19,20,20,21,21,22,22,25,25,28,28,29,29,30,30,31,31,32,32,33,33,34,34,35,35,38,38,39,39,40,40],"right_children":[2,4,6,8,10,12,14,-1,16,18,20,22,24,26,-1,-1,-1,28,30,32,34,36,38,-1,-1,40,-1,-1,42,44,46,48,50,52,54,56,-1,-1,58,60,62,-1,-1,-1,-1,-1,-1,-1,-1,-1,-1,-1,-1,-1,-1,-1,-1,-1,-1,-1,-1,-1,-1],"split_conditions":[4E0,3.431E3,1.6877428E4,4.255E3,3E0,2.9394E4,3.0584E4,8.1884247E2,1.0311E4,1.8564E4,1.6028902E8,6E0,2E0,2.3130428E4,-1.6075218E2,-5.3405693E1,2.3267632E2,4.204E3,1.3E1,1.0254E4,1.5785467E4,2.1902E4,7.691E3,3.7445316E1,3.1070068E0,1.7097285E4,8.868296E1,1.7578294E2,1.7E1,3E0,1.5130429E4,3.819E3,6E0,3E0,1.2749E4,1.4179143E4,5.269658E1,2.0273218E1,7.813E3,1E1,2.0091E4,-6.3158142E1,3.7058752E0,6.4347946E1,3.1236563E2,-4.2143196E1,5.5383766E1,-5.5565624E0,-1.01134315E2,7.3300606E1,-7.138779E0,-1.8032606E1,1.18242676E2,8.960195E1,3.0570865E2,-6.4777405E1,-1.3249307E2,-4.121032E1,-1.9400299E2,1.2873574E1,9.1161644E1,-2.0052942E1,-1.2617141E2],"split_indices":[3,10,15,7,4,8,10,0,6,6,17,3,2,13,0,0,0,10,2,6,16,12,9,0,0,15,0,0,2,3,15,9,2,3,11,15,0,0,6,2,10,0,0,0,0,0,0,0,0,0,0,0,0,0,0,0,0,0,0,0,0,0,0],"split_type":[0,0,0,0,0,0,0,0,0,0,0,0,0,0,0,0,0,0,0,0,0,0,0,0,0,0,0,0,0,0,0,0,0,0,0,0,0,0,0,0,0,0,0,0,0,0,0,0,0,0,0,0,0,0,0,0,0,0,0,0,0,0,0],"sum_hessian":[1.96E2,1.33E2,6.3E1,5E0,1.28E2,3.9E1,2.4E1,1E0,4E0,8.1E1,4.7E1,3.7E1,2E0,2.1E1,3E0,2E0,2E0,6.8E1,1.3E1,1.3E1,3.4E1,1.6E1,2.1E1,1E0,1E0,1.8E1,3E0,2E0,6.6E1,4E0,9E0,7E0,6E0,1.3E1,2.1E1,1.5E1,1E0,1E0,2E1,3E0,1.5E1,3.4E1,3.2E1,2E0,2E0,4E0,5E0,3E0,4E0,1E0,5E0,9E0,4E0,5E0,1.6E1,9E0,6E0,2E0,1.8E1,1E0,2E0,1.2E1,3E0],"tree_param":{"num_deleted":"0","num_feature":"19","num_nodes":"63","size_leaf_vector":"1"}},{"base_weights":[-2.3525873E2,7.9448883E2,-4.891192E3,1.0981018E2,4.5695225E3,-5.5263237E3,-7.944792E2,6.3213586E2,-2.4193394E3,-2.9806656E2,5.8013228E3,1.9969116E1,-5.75491E3,7.276209E1,-9.032313E1,-2.748548E2,2.576112E3,3.656061E1,-2.8054639E3,7.0360055E0,-1.869E1,1.7395117E2,6.4169224E3,-5.9603906E3,3.0603955E0,2.3976572E3,-7.817342E2,7.6670103E3,1.1326687E3,-3.7094653E3,-1.5642384E3,1.2680478E1,-4.8526754E0,7.408357E3,1.0948125E3,-1.7804058E3,-6.3742197E3,9.541172E0,1.4312614E2,1.286044E2,-3.2448544E1,4.9323707E0,3.640706E2,-6.953056E1,7.478076E1,-4.3226707E1,-1.2057274E2,-5.74804E1,2.9302675E1,9.385164E1,2.604093E2,-2.4802412E1,6.032744E1,-1.0943755E2,1.7421386E0,-2.2485756E2,-1.4029886E2],"categories":[],"categories_nodes":[],"categories_segments":[],"categories_sizes":[],"default_left":[0,0,0,0,0,0,0,0,0,0,0,0,0,0,0,0,0,0,0,0,0,0,0,0,0,0,0,0,0,0,0,0,0,0,0,0,0,0,0,0,0,0,0,0,0,0,0,0,0,0,0,0,0,0,0,0,0],"id":18,"left_children":[1,3,5,7,9,11,13,15,17,19,21,-1,23,-1,-1,25,27,-1,29,-1,-1,31,33,35,-1,37,39,41,43,45,47,-1,-1,49,51,53,55,-1,-1,-1,-1,-1,-1,-1,-1,-1,-1,-1,-1,-1,-1,-1,-1,-1,-1,-1,-1],"loss_changes":[9.5318426E8,4.2080186E8,8.927968E7,1.8515389E8,1.5162662E8,4.7708096E7,5.011952E7,2.0523555E8,3.713253E7,1.1844718E6,6.816794E7,0E0,3.671251E7,0E0,0E0,1.1024563E8,2.632075E8,0E0,1.8883056E7,0E0,0E0,3.1887406E5,8.686662E7,3.881549E7,0E0,6.2642616E7,1.07995064E8,2.6621818E8,1.4655418E8,2.63784E6,1.1703918E7,0E0,0E0,5.4503424E7,8.703896E6,1.3945355E7,1.442688E7,0E0,0E0,0E0,0E0,0E0,0E0,0E0,0E0,0E0,0E0,0E0,0E0,0E0,0E0,0E0,0E0,0E0,0E0,0E0,0E0],"parents":[2147483647,0,0,1,1,2,2,3,3,4,4,5,5,6,6,7,7,8,8,9,9,10,10,12,12,15,15,16,16,18,18,21,21,22,22,23,23,25,25,26,26,27,27,28,28,29,29,30,30,33,33,34,34,35,35,36,36],"right_children":[2,4,6,8,10,12,14,16,18,20,22,-1,24,-1,-1,26,28,-1,30,-1,-1,32,34,36,-1,38,40,42,44,46,48,-1,-1,50,52,54,56,-1,-1,-1,-1,-1,-1,-1,-1,-1,-1,-1,-1,-1,-1,-1,-1,-1,-1,-1,-1],"split_conditions":[1E0,9E0,9E0,1.9803E4,1.3091E4,7.691E3,1.3091E4,2.318236E8,4.255E3,1.7483E4,5.241E3,1.9969116E1,3.0584E4,7.276209E1,-9.032313E1,1.0175E4,2.3985904E8,3.656061E1,1.4638E4,7.0360055E0,-1.869E1,1E1,2.9349E4,1.2500857E4,3.0603955E0,1.7E1,3.3244316E7,1.3811643E4,1.1E1,9.246E3,1.9505E4,1.2680478E1,-4.8526754E0,6E0,1.5E1,8.994E3,1.6261E4,9.541172E0,1.4312614E2,1.286044E2,-3.2448544E1,4.9323707E0,3.640706E2,-6.953056E1,7.478076E1,-4.3226707E1,-1.2057274E2,-5.74804E1,2.9302675E1,9.385164E1,2.604093E2,-2.4802412E1,6.032744E1,-1.0943755E2,1.7421386E0,-2.2485756E2,-1.4029886E2],"split_indices":[5,1,1,9,9,9,11,17,8,8,12,0,8,0,0,8,17,0,8,0,0,2,12,13,0,2,18,15,2,10,7,0,0,2,2,8,8,0,0,0,0,0,0,0,0,0,0,0,0,0,0,0,0,0,0,0,0],"split_type":[0,0,0,0,0,0,0,0,0,0,0,0,0,0,0,0,0,0,0,0,0,0,0,0,0,0,0,0,0,0,0,0,0,0,0,0,0,0,0,0,0,0,0,0,0,0,0,0,0,0,0,0,0,0,0,0,0],"sum_hessian":[1.97E2,1.62E2,3.5E1,1.38E2,2.4E1,3E1,5E0,1.15E2,2.3E1,5E0,1.9E1,1E0,2.9E1,2E0,3E0,7.9E1,3.6E1,2E0,2.1E1,2E0,3E0,2E0,1.7E1,2.8E1,1E0,1.2E1,6.7E1,7E0,2.9E1,1.1E1,1E1,1E0,1E0,1.4E1,3E0,3E0,2.5E1,7E0,5E0,3E0,6.4E1,3E0,4E0,8E0,2.1E1,2E0,9E0,9E0,1E0,4E0,1E1,1E0,2E0,1E0,2E0,1.3E1,1.2E1],"tree_param":{"num_deleted":"0","num_feature":"19","num_nodes":"57","size_leaf_vector":"1"}},{"base_weights":[1.658648E2,1.7165508E3,-2.93802E3,1.0627515E4,1.2078738E3,-3.565968E3,5.2589825E2,8.070466E2,3.4315833E3,3.7171545E2,5.620927E3,-2.210654E3,-4.84233E3,2.5536648E3,-2.4181548E3,-5.1580837E1,6.436896E3,-8.907665E2,1.8287603E3,-2.910669E2,7.6109956E3,-3.1544512E3,-3.794906E2,-5.1907114E3,6.845944E1,2.3889198E1,9.29204E1,-4.7798877E0,-8.8290855E1,5.156965E1,2.2309607E2,-1.3212847E3,1.3078494E3,-2.062798E2,3.4350874E3,6.8952928E0,-1.826948E1,8.586923E3,8.341394E1,-3.4701672E3,3.792659E1,1.0908348E3,-1.7865675E3,1.9669584E1,-5.440789E3,5.9205484E0,-5.8031334E1,1.556397E2,-3.288628E1,1.8345041E2,-2.3146994E1,5.468871E1,2.7127216E2,1.1393275E2,2.9284012E2,-2.6289072E1,-1.12188934E2,5.3673794E1,-6.11497E0,-6.0642624E1,-9.184511E0,-1.6999376E2,3.0144873E0],"categories":[],"categories_nodes":[],"categories_segments":[],"categories_sizes":[],"default_left":[0,0,0,0,0,0,0,0,0,0,0,0,0,0,0,0,0,0,0,0,0,0,0,0,0,0,0,0,0,0,0,0,0,0,0,0,0,0,0,0,0,0,0,0,0,0,0,0,0,0,0,0,0,0,0,0,0,0,0,0,0,0,0],"id":19,"left_children":[1,3,5,7,9,11,13,-1,15,17,19,21,23,25,27,-1,29,31,33,35,37,39,41,43,-1,-1,-1,-1,-1,-1,-1,45,47,49,51,-1,-1,53,-1,55,-1,57,59,-1,61,-1,-1,-1,-1,-1,-1,-1,-1,-1,-1,-1,-1,-1,-1,-1,-1,-1,-1],"loss_changes":[9.532339E8,5.854932E8,1.4543584E8,7.274332E8,4.6285203E8,8.616813E7,7.184354E7,0E0,1.0394855E8,1.984547E8,2.3752077E8,4.8922064E7,8.134042E7,4.221672E6,5.45908E6,0E0,6.081504E6,5.6627604E7,1.641556E8,1.1336034E6,4.683808E7,3.0892912E7,2.4706322E7,4.3042496E7,0E0,0E0,0E0,0E0,0E0,0E0,0E0,4.600396E7,9.896798E7,8.690503E7,2.3662845E8,0E0,0E0,3.0422464E7,0E0,9.304112E6,0E0,5.7890135E6,1.467226E6,0E0,3.3082368E7,0E0,0E0,0E0,0E0,0E0,0E0,0E0,0E0,0E0,0E0,0E0,0E0,0E0,0E0,0E0,0E0,0E0,0E0],"parents":[2147483647,0,0,1,1,2,2,3,3,4,4,5,5,6,6,8,8,9,9,10,10,11,11,12,12,13,13,14,14,16,16,17,17,18,18,19,19,20,20,21,21,22,22,23,23,31,31,32,32,33,33,34,34,37,37,39,39,41,41,42,42,44,44],"right_children":[2,4,6,8,10,12,14,-1,16,18,20,22,24,26,28,-1,30,32,34,36,38,40,42,44,-1,-1,-1,-1,-1,-1,-1,46,48,50,52,-1,-1,54,-1,56,-1,58,60,-1,62,-1,-1,-1,-1,-1,-1,-1,-1,-1,-1,-1,-1,-1,-1,-1,-1,-1,-1],"split_conditions":[4E0,3.431E3,9E0,2E0,9E0,6E0,1.5177E4,8.070466E2,1.0311E4,1.4334E4,1.3091E4,1.5341E4,3.1E1,1E1,6E0,-5.1580837E1,3E0,1.839E4,1.3487E4,1.7483E4,1.9073E4,2.3149E4,1.839E4,7.691E3,6.845944E1,2.3889198E1,9.29204E1,-4.7798877E0,-8.8290855E1,5.156965E1,2.2309607E2,9.143E3,1.4888967E4,1.4638E4,1.4275E4,6.8952928E0,-1.826948E1,1E0,8.341394E1,1.1909E4,3.792659E1,1.5721E4,1.8878E4,1.9669584E1,3.0584E4,5.9205484E0,-5.8031334E1,1.556397E2,-3.288628E1,1.8345041E2,-2.3146994E1,5.468871E1,2.7127216E2,1.1393275E2,2.9284012E2,-2.6289072E1,-1.12188934E2,5.3673794E1,-6.11497E0,-6.0642624E1,-9.184511E0,-1.6999376E2,3.0144873E0],"split_indices":[3,10,1,1,1,3,11,0,6,6,9,12,2,2,3,0,1,10,10,8,12,8,6,9,0,0,0,0,0,0,0,7,16,6,11,0,0,3,0,9,0,8,7,0,8,0,0,0,0,0,0,0,0,0,0,0,0,0,0,0,0,0,0],"split_type":[0,0,0,0,0,0,0,0,0,0,0,0,0,0,0,0,0,0,0,0,0,0,0,0,0,0,0,0,0,0,0,0,0,0,0,0,0,0,0,0,0,0,0,0,0,0,0,0,0,0,0,0,0,0,0,0,0,0,0,0,0,0,0],"sum_hessian":[1.96E2,1.31E2,6.5E1,6E0,1.25E2,5.5E1,1E1,1E0,5E0,1.06E2,1.9E1,2.8E1,2.7E1,6E0,4E0,2E0,3E0,5.7E1,4.9E1,5E0,1.4E1,1.8E1,1E1,2.6E1,1E0,2E0,4E0,1E0,3E0,1E0,2E0,4.8E1,9E0,2.2E1,2.7E1,2E0,3E0,1.1E1,3E0,1.7E1,1E0,5E0,5E0,1E0,2.5E1,1.4E1,3.4E1,3E0,6E0,1E0,2.1E1,2.2E1,5E0,3E0,8E0,2E0,1.5E1,3E0,2E0,4E0,1E0,2.4E1,1E0],"tree_param":{"num_deleted":"0","num_feature":"19","num_nodes":"63","size_leaf_vector":"1"}},{"base_weights":[2.0847014E2,1.1987705E3,-4.4660454E3,1.0455852E4,7.836867E2,-6.2652715E3,-2.803362E3,7.9494086E2,3.3658167E3,1.9217236E2,4.4584727E3,-1.940359E2,-4.8395756E1,-5.0361016E3,-1.4867522E3,-5.0549217E1,6.3124556E3,4.825136E3,-2.074743E2,-4.9612988E2,5.9448926E3,-1.1130337E1,-1.7255345E2,1.8978444E3,-3.0303752E3,5.0796093E1,2.1863416E2,7.8256726E2,3.511197E2,-1.589036E3,4.6187125E2,6.7573924E0,-2.7393888E1,8.529358E3,3.7597878E3,2.5443758E1,6.9448456E1,-1.290638E2,1.3710863E3,-2.1119839E1,5.44591E1,5.968946E1,-5.746008E1,1.07437965E2,-1.2113586E1,3.7382388E2,7.3967445E1,-7.545879E0,1.4037418E2,-5.7336764E0,6.7432556E1],"categories":[],"categories_nodes":[],"categories_segments":[],"categories_sizes":[],"default_left":[0,0,0,0,0,0,0,0,0,0,0,0,0,0,0,0,0,0,0,0,0,0,0,0,0,0,0,0,0,0,0,0,0,0,0,0,0,0,0,0,0,0,0,0,0,0,0,0,0,0,0],"id":20,"left_children":[1,3,5,7,9,11,13,-1,15,17,19,-1,-1,21,23,-1,25,27,29,31,33,-1,-1,35,37,-1,-1,39,-1,41,43,-1,-1,45,47,-1,-1,-1,49,-1,-1,-1,-1,-1,-1,-1,-1,-1,-1,-1,-1],"loss_changes":[9.265595E8,6.2581254E8,8.714016E7,7.069897E8,3.4475968E8,4.64576E6,5.1305504E7,0E0,9.993346E7,2.565148E8,1.649711E8,0E0,0E0,2.1236992E7,7.889475E7,0E0,5.681808E6,2.9673152E8,1.19100936E8,2.0105616E6,6.3936E7,0E0,0E0,2.25844E5,6.187423E7,0E0,0E0,1.3559772E7,0E0,5.2855296E7,2.3637451E8,0E0,0E0,1.3615242E8,4.1742864E7,0E0,0E0,0E0,4.5382015E6,0E0,0E0,0E0,0E0,0E0,0E0,0E0,0E0,0E0,0E0,0E0,0E0],"parents":[2147483647,0,0,1,1,2,2,3,3,4,4,5,5,6,6,8,8,9,9,10,10,13,13,14,14,16,16,17,17,18,18,19,19,20,20,23,23,24,24,27,27,29,29,30,30,33,33,34,34,38,38],"right_children":[2,4,6,8,10,12,14,-1,16,18,20,-1,-1,22,24,-1,26,28,30,32,34,-1,-1,36,38,-1,-1,40,-1,42,44,-1,-1,46,48,-1,-1,-1,50,-1,-1,-1,-1,-1,-1,-1,-1,-1,-1,-1,-1],"split_conditions":[1E0,3.431E3,1.7022E4,2E0,9E0,1.9505E4,1.6392E4,7.9494086E2,1.0311E4,4.53E3,1.588224E8,-1.940359E2,-4.8395756E1,6E0,1.3779E4,-5.0549217E1,3E0,5E0,4E0,1.7483E4,1.767E4,-1.1130337E1,-1.7255345E2,8E0,2.2E1,5.0796093E1,2.1863416E2,8.994E3,3.511197E2,1.1021071E4,1.0254E4,6.7573924E0,-2.7393888E1,2.2131E4,1.5177E4,2.5443758E1,6.9448456E1,-1.290638E2,6E0,-2.1119839E1,5.44591E1,5.968946E1,-5.746008E1,1.07437965E2,-1.2113586E1,3.7382388E2,7.3967445E1,-7.545879E0,1.4037418E2,-5.7336764E0,6.7432556E1],"split_indices":[5,10,10,1,1,8,7,0,6,12,18,0,0,2,11,0,1,1,1,8,8,0,0,1,2,0,0,9,0,15,8,0,0,9,7,0,0,0,1,0,0,0,0,0,0,0,0,0,0,0,0],"split_type":[0,0,0,0,0,0,0,0,0,0,0,0,0,0,0,0,0,0,0,0,0,0,0,0,0,0,0,0,0,0,0,0,0,0,0,0,0,0,0,0,0,0,0,0,0,0,0,0,0,0,0],"sum_hessian":[1.98E2,1.64E2,3.4E1,6E0,1.58E2,1.5E1,1.9E1,1E0,5E0,1.37E2,2.1E1,1.4E1,1E0,6E0,1.3E1,2E0,3E0,1E1,1.27E2,5E0,1.6E1,1E0,5E0,4E0,9E0,1E0,2E0,7E0,3E0,4.1E1,8.6E1,2E0,3E0,6E0,1E1,2E0,2E0,7E0,2E0,3E0,4E0,3E0,3.8E1,1.8E1,6.8E1,3E0,3E0,2E0,8E0,1E0,1E0],"tree_param":{"num_deleted":"0","num_feature":"19","num_nodes":"51","size_leaf_vector":"1"}},{"base_weights":[3.1124905E2,1.0287007E4,-5.5984226E1,7.830167E2,3.301322E3,-7.9537964E2,4.1018584E3,-4.9538242E1,6.190439E3,4.587617E3,-1.177194E3,3.073004E3,3.5982785E2,5.0034138E1,2.1426146E2,5.8764844E2,3.432195E2,-2.8336523E3,-3.6950055E2,2.4093094E2,2.1186243E3,1.6573445E3,-2.6891514E1,1.9448816E3,-3.1800454E3,2.6350608E3,-1.1162421E3,-5.7856683E2,3.5033801E3,1.5303515E0,6.1385242E1,-3.0431557E1,9.808297E1,-1.0362029E2,5.9683018E1,1.4199762E2,-6.712515E1,2.121973E2,-3.900391E1,7.6026683E0,-6.981058E1,-2.9220243E1,1.2637737E2],"categories":[],"categories_nodes":[],"categories_segments":[],"categories_sizes":[],"default_left":[0,0,0,0,0,0,0,0,0,0,0,0,0,0,0,0,0,0,0,0,0,0,0,0,0,0,0,0,0,0,0,0,0,0,0,0,0,0,0,0,0,0,0],"id":21,"left_children":[1,3,5,-1,7,9,11,-1,13,15,17,19,-1,-1,-1,21,-1,23,25,-1,27,29,-1,31,33,35,37,39,41,-1,-1,-1,-1,-1,-1,-1,-1,-1,-1,-1,-1,-1,-1],"loss_changes":[7.222717E8,6.8711315E8,5.9045184E8,0E0,9.607392E7,3.404153E8,1.986255E8,0E0,5.303584E6,2.9480806E8,2.0365328E8,1.1074494E8,0E0,0E0,0E0,1.4185324E7,0E0,8.894739E7,2.3627896E8,0E0,9.1665784E7,3.018574E6,0E0,1.8995258E7,7.343546E7,2.2528594E8,1.3569597E8,1.3681959E7,5.4908816E7,0E0,0E0,0E0,0E0,0E0,0E0,0E0,0E0,0E0,0E0,0E0,0E0,0E0,0E0],"parents":[2147483647,0,0,1,1,2,2,4,4,5,5,6,6,8,8,9,9,10,10,11,11,15,15,17,17,18,18,20,20,21,21,23,23,24,24,25,25,26,26,27,27,28,28],"right_children":[2,4,6,-1,8,10,12,-1,14,16,18,20,-1,-1,-1,22,-1,24,26,-1,28,30,-1,32,34,36,38,40,42,-1,-1,-1,-1,-1,-1,-1,-1,-1,-1,-1,-1,-1,-1],"split_conditions":[3.431E3,2E0,9E0,7.830167E2,1.0311E4,4.53E3,2.4529928E4,-4.9538242E1,3E0,7E0,4E0,1.0311E4,3.5982785E2,5.0034138E1,2.1426146E2,3.786E3,3.432195E2,1.1021071E4,1.0254E4,2.4093094E2,1.3E1,8.994E3,-2.6891514E1,1.5E1,2.3653E4,2.3206878E8,1.2915714E4,2.5559E4,1.588224E8,1.5303515E0,6.1385242E1,-3.0431557E1,9.808297E1,-1.0362029E2,5.9683018E1,1.4199762E2,-6.712515E1,2.121973E2,-3.900391E1,7.6026683E0,-6.981058E1,-2.9220243E1,1.2637737E2],"split_indices":[10,1,1,0,6,12,15,0,1,1,1,7,0,0,0,12,0,15,8,0,2,9,0,2,6,18,15,7,18,0,0,0,0,0,0,0,0,0,0,0,0,0,0],"split_type":[0,0,0,0,0,0,0,0,0,0,0,0,0,0,0,0,0,0,0,0,0,0,0,0,0,0,0,0,0,0,0,0,0,0,0,0,0,0,0,0,0,0,0],"sum_hessian":[1.96E2,6E0,1.9E2,1E0,5E0,1.62E2,2.8E1,2E0,3E0,1E1,1.52E2,2.6E1,2E0,1E0,2E0,7E0,3E0,4.9E1,1.03E2,3E0,2.3E1,4E0,3E0,3E0,4.6E1,2E1,8.3E1,8E0,1.5E1,1E0,3E0,1E0,2E0,4.4E1,2E0,1.4E1,6E0,1E0,8.2E1,6E0,2E0,2E0,1.3E1],"tree_param":{"num_deleted":"0","num_feature":"19","num_nodes":"43","size_leaf_vector":"1"}},{"base_weights":[3.3747543E2,1.8360481E3,-2.801017E3,1.1260163E4,1.3970952E3,-1.3207212E3,-4.241291E3,7.712715E2,3.228575E3,5.741322E2,5.7588916E3,-2.9295535E3,-4.8060936E1,-4.5134277E3,6.700614E1,2.0997623E2,-4.854748E1,-2.998775E2,2.8957024E3,-2.7629282E2,7.662155E3,-1.8536941E3,-4.2343936E3,5.1583575E2,-7.29782E1,-5.184994E3,-7.3913995E2,3.3776526E2,-1.8814895E3,-6.561304E2,5.4973667E3,6.4701757E0,-1.7285809E1,8.674115E3,3.8562143E2,-2.1404082E3,-1.4136738E1,-1.4182845E2,-2.6524305E1,1.7394492E3,-7.650928E2,-5.395392E3,4.2802587E0,6.6719666E1,-8.330105E1,9.203129E1,-1.0130572E1,1.9895267E1,-1.03575005E2,-7.2399376E1,1.7646833E1,2.8087442E2,1.7759304E1,1.6203232E2,3.3526712E2,-2.4832367E1,4.218533E1,-2.9059504E1,-7.949199E1,2.945156E0,6.583083E1,1.7085697E1,-7.727231E1,-1.0560015E1,-1.6749142E2],"categories":[],"categories_nodes":[],"categories_segments":[],"categories_sizes":[],"default_left":[0,0,0,0,0,0,0,0,0,0,0,0,0,0,0,0,0,0,0,0,0,0,0,0,0,0,0,0,0,0,0,0,0,0,0,0,0,0,0,0,0,0,0,0,0,0,0,0,0,0,0,0,0,0,0,0,0,0,0,0,0,0,0,0,0],"id":22,"left_children":[1,3,5,7,9,11,13,-1,15,17,19,21,23,25,-1,-1,-1,27,29,31,33,35,37,39,-1,41,43,45,47,49,51,-1,-1,53,55,57,-1,-1,-1,59,61,63,-1,-1,-1,-1,-1,-1,-1,-1,-1,-1,-1,-1,-1,-1,-1,-1,-1,-1,-1,-1,-1,-1,-1],"loss_changes":[9.599044E8,5.5513894E8,1.3511254E8,6.132815E8,4.7411E8,6.94741E7,6.822816E7,0E0,1.0270443E8,2.3015382E8,2.4333446E8,1.3208104E7,2.8147574E7,7.727744E7,0E0,0E0,0E0,8.434128E7,2.9006797E8,1.0095139E6,1.1447206E8,2.955124E6,5.734584E6,2.7975984E7,0E0,3.1035008E7,4.24007E7,1.1167255E8,9.823432E7,3.2031472E7,3.3573568E8,0E0,0E0,5.426291E7,4.878886E6,2.20778E6,0E0,0E0,0E0,6.504304E6,2.321566E7,2.2641664E7,0E0,0E0,0E0,0E0,0E0,0E0,0E0,0E0,0E0,0E0,0E0,0E0,0E0,0E0,0E0,0E0,0E0,0E0,0E0,0E0,0E0,0E0,0E0],"parents":[2147483647,0,0,1,1,2,2,3,3,4,4,5,5,6,6,8,8,9,9,10,10,11,11,12,12,13,13,17,17,18,18,19,19,20,20,21,21,22,22,23,23,25,25,26,26,27,27,28,28,29,29,30,30,33,33,34,34,35,35,39,39,40,40,41,41],"right_children":[2,4,6,8,10,12,14,-1,16,18,20,22,24,26,-1,-1,-1,28,30,32,34,36,38,40,-1,42,44,46,48,50,52,-1,-1,54,56,58,-1,-1,-1,60,62,64,-1,-1,-1,-1,-1,-1,-1,-1,-1,-1,-1,-1,-1,-1,-1,-1,-1,-1,-1,-1,-1,-1,-1],"split_conditions":[4E0,3.431E3,6E0,2E0,9E0,1.57085E4,3.1E1,7.712715E2,1.5181E4,3E0,1.3091E4,5E0,1.8878E4,9E0,6.700614E1,2.0997623E2,-4.854748E1,1.9067168E8,2.2981402E8,1.7483E4,2.9349E4,3.4516192E8,2.1959E4,1.6515E4,-7.29782E1,3.0584E4,1.3091E4,9.997E3,1.1044E4,1.6653949E8,1.8145E4,6.4701757E0,-1.7285809E1,4.103284E8,1.5E1,9E0,-1.4136738E1,-1.4182845E2,-2.6524305E1,5.241E3,6E0,4.124E3,4.2802587E0,6.6719666E1,-8.330105E1,9.203129E1,-1.0130572E1,1.9895267E1,-1.03575005E2,-7.2399376E1,1.7646833E1,2.8087442E2,1.7759304E1,1.6203232E2,3.3526712E2,-2.4832367E1,4.218533E1,-2.9059504E1,-7.949199E1,2.945156E0,6.583083E1,1.7085697E1,-7.727231E1,-1.0560015E1,-1.6749142E2],"split_indices":[3,10,3,1,1,15,2,0,9,3,9,1,11,1,0,0,0,18,17,8,12,17,8,10,0,8,11,8,12,18,9,0,0,17,2,2,0,0,0,12,1,12,0,0,0,0,0,0,0,0,0,0,0,0,0,0,0,0,0,0,0,0,0,0,0],"split_type":[0,0,0,0,0,0,0,0,0,0,0,0,0,0,0,0,0,0,0,0,0,0,0,0,0,0,0,0,0,0,0,0,0,0,0,0,0,0,0,0,0,0,0,0,0,0,0,0,0,0,0,0,0,0,0,0,0,0,0,0,0,0,0,0,0],"sum_hessian":[2.02E2,1.37E2,6.5E1,5E0,1.32E2,3.3E1,3.2E1,1E0,4E0,1.12E2,2E1,1.4E1,1.9E1,3.1E1,1E0,2E0,2E0,8.2E1,3E1,5E0,1.5E1,9E0,5E0,1.6E1,3E0,2.6E1,5E0,5.9E1,2.3E1,1.3E1,1.7E1,2E0,3E0,1.3E1,2E0,7E0,2E0,4E0,1E0,8E0,8E0,2.5E1,1E0,2E0,3E0,1.1E1,4.8E1,9E0,1.4E1,5E0,8E0,9E0,8E0,7E0,6E0,1E0,1E0,3E0,4E0,2E0,6E0,5E0,3E0,1E0,2.4E1],"tree_param":{"num_deleted":"0","num_feature":"19","num_nodes":"65","size_leaf_vector":"1"}},{"base_weights":[1.6537175E2,1.530407E3,-2.9314644E3,-7.73111E2,2.7555583E3,-3.4953818E3,6.5244305E2,4.9160016E2,-2.0583054E3,1.0576711E4,2.0627434E3,-1.8312382E3,-4.856389E3,2.1637463E3,-1.7776228E3,-1.9023301E3,3.243552E3,8.116717E2,-2.6728845E3,7.597024E2,3.8983586E3,1.6866063E3,3.4592593E2,-4.8997238E2,-3.4937607E3,-5.799445E3,-2.5789443E3,2.1092264E1,8.1549385E1,-6.5348434E0,-6.674835E1,-2.3279817E3,-2.562058E2,-4.7993164E1,1.6804536E2,7.488958E1,-2.3357007E2,-3.2654102E3,5.135708E2,-7.3543106E1,5.658605E3,3.0668842E2,4.0222437E3,-1.6942249E3,1.1283483E3,-2.612644E1,-3.6689604E3,-3.1759277E1,-6.294913E3,-3.0443408E2,-3.5102437E3,-7.296707E1,-1.9281576E1,-1.597686E1,4.030078E-1,3.553954E1,-5.0265644E1,-9.694658E0,5.277832E-1,-1.079612E2,3.100998E1,-1.7903868E1,5.7670048E1,1.8913069E2,4.613399E1,-2.7311827E1,4.9726604E1,-6.4653754E0,1.8455692E2,-5.941124E1,-1.3854004E1,5.797522E1,1.2630615E0,-1.1588556E2,-2.8859032E1,-2.0242653E2,-9.410855E1,1.7537569E1,-4.4572395E1,-1.3849106E2,-1.4898632E1],"categories":[],"categories_nodes":[],"categories_segments":[],"categories_sizes":[],"default_left":[0,0,0,0,0,0,0,0,0,0,0,0,0,0,0,0,0,0,0,0,0,0,0,0,0,0,0,0,0,0,0,0,0,0,0,0,0,0,0,0,0,0,0,0,0,0,0,0,0,0,0,0,0,0,0,0,0,0,0,0,0,0,0,0,0,0,0,0,0,0,0,0,0,0,0,0,0,0,0,0,0],"id":23,"left_children":[1,3,5,7,9,11,13,15,17,19,21,23,25,27,29,31,33,35,37,-1,39,41,-1,43,45,47,49,-1,-1,-1,-1,51,53,55,-1,-1,57,59,61,-1,63,65,67,69,71,-1,73,-1,75,77,79,-1,-1,-1,-1,-1,-1,-1,-1,-1,-1,-1,-1,-1,-1,-1,-1,-1,-1,-1,-1,-1,-1,-1,-1,-1,-1,-1,-1,-1,-1],"loss_changes":[8.28808E8,3.8594378E8,1.2354224E8,7.903105E7,4.604393E8,1.0888218E8,3.6899428E7,1.7086984E8,4.4501376E7,5.906661E8,2.7614086E8,5.4035264E7,4.5180736E7,2.949056E6,2.306267E6,9.213008E6,9.3404824E7,9.387386E6,3.943816E7,0E0,8.093494E7,2.5982845E8,0E0,3.1144674E7,1.859568E6,3.796544E7,2.0113864E7,0E0,0E0,0E0,0E0,3.69412E5,3.0522028E5,1.4021892E7,0E0,0E0,9.568709E4,2.8078576E7,7.404218E6,0E0,3.610256E6,8.700297E7,2.7207443E8,2.259386E6,6.03324E6,0E0,1.532704E6,0E0,3.133248E6,5.0693865E6,2.1041504E7,0E0,0E0,0E0,0E0,0E0,0E0,0E0,0E0,0E0,0E0,0E0,0E0,0E0,0E0,0E0,0E0,0E0,0E0,0E0,0E0,0E0,0E0,0E0,0E0,0E0,0E0,0E0,0E0,0E0,0E0],"parents":[2147483647,0,0,1,1,2,2,3,3,4,4,5,5,6,6,7,7,8,8,9,9,10,10,11,11,12,12,13,13,14,14,15,15,16,16,17,17,18,18,20,20,21,21,23,23,24,24,25,25,26,26,31,31,32,32,33,33,36,36,37,37,38,38,40,40,41,41,42,42,43,43,44,44,46,46,48,48,49,49,50,50],"right_children":[2,4,6,8,10,12,14,16,18,20,22,24,26,28,30,32,34,36,38,-1,40,42,-1,44,46,48,50,-1,-1,-1,-1,52,54,56,-1,-1,58,60,62,-1,64,66,68,70,72,-1,74,-1,76,78,80,-1,-1,-1,-1,-1,-1,-1,-1,-1,-1,-1,-1,-1,-1,-1,-1,-1,-1,-1,-1,-1,-1,-1,-1,-1,-1,-1,-1,-1,-1],"split_conditions":[4E0,1.2606E4,9E0,1.5736E4,4.946808E7,6E0,1.5177E4,7.405E3,4.2061384E7,2E0,2.4529928E4,6E0,1.6664E4,1.6515E4,6E0,1.8768E4,4E0,3E0,1.7385E4,7.597024E2,1E0,3E0,3.4592593E2,1.4156786E4,1.4179143E4,7.813E3,1.1896E4,2.1092264E1,8.1549385E1,-6.5348434E0,-6.674835E1,1.8231E4,4E0,4.758309E3,1.6804536E2,7.488958E1,8E0,2.3178E4,2E0,-7.3543106E1,1.5341E4,6.7423843E3,5E0,3.4516192E8,3.1182448E8,-2.612644E1,3.6936E4,-3.1759277E1,2.272E4,2.0424E4,1.8769E4,-7.296707E1,-1.9281576E1,-1.597686E1,4.030078E-1,3.553954E1,-5.0265644E1,-9.694658E0,5.277832E-1,-1.079612E2,3.100998E1,-1.7903868E1,5.7670048E1,1.8913069E2,4.613399E1,-2.7311827E1,4.9726604E1,-6.4653754E0,1.8455692E2,-5.941124E1,-1.3854004E1,5.797522E1,1.2630615E0,-1.1588556E2,-2.8859032E1,-2.0242653E2,-9.410855E1,1.7537569E1,-4.4572395E1,-1.3849106E2,-1.4898632E1],"split_indices":[3,6,1,12,18,3,11,6,18,1,15,1,8,7,3,8,1,1,7,0,3,3,0,15,15,6,6,0,0,0,0,7,1,14,0,0,1,11,3,0,6,14,1,17,18,0,6,0,12,7,12,0,0,0,0,0,0,0,0,0,0,0,0,0,0,0,0,0,0,0,0,0,0,0,0,0,0,0,0,0,0],"split_type":[0,0,0,0,0,0,0,0,0,0,0,0,0,0,0,0,0,0,0,0,0,0,0,0,0,0,0,0,0,0,0,0,0,0,0,0,0,0,0,0,0,0,0,0,0,0,0,0,0,0,0,0,0,0,0,0,0,0,0,0,0,0,0,0,0,0,0,0,0,0,0,0,0,0,0,0,0,0,0,0,0],"sum_hessian":[1.94E2,1.35E2,5.9E1,4.7E1,8.8E1,5.1E1,8E0,2.4E1,2.3E1,6E0,8.2E1,2.4E1,2.7E1,5E0,3E0,1.3E1,1.1E1,4E0,1.9E1,1E0,5E0,8E1,2E0,1.4E1,1E1,1.8E1,9E0,2E0,3E0,1E0,2E0,1E1,3E0,5E0,6E0,1E0,3E0,1.6E1,3E0,1E0,4E0,5.1E1,2.9E1,8E0,6E0,1E0,9E0,2E0,1.6E1,3E0,6E0,9E0,1E0,1E0,2E0,3E0,2E0,2E0,1E0,1.5E1,1E0,2E0,1E0,3E0,1E0,2.7E1,2.4E1,1E1,1.9E1,6E0,2E0,3E0,3E0,8E0,1E0,1.3E1,3E0,2E0,1E0,4E0,2E0],"tree_param":{"num_deleted":"0","num_feature":"19","num_nodes":"81","size_leaf_vector":"1"}},{"base_weights":[-5.5688435E1,1.2303918E3,-2.7244355E3,-9.28467E2,2.4817874E3,-1.3101945E3,-4.0989736E3,1.13565315E2,-1.9347891E3,1.917987E3,8.65122E3,-2.9098682E3,-4.4929493E1,-4.3708945E3,6.903745E1,-1.6221467E3,2.2737417E3,8.004662E2,-2.468493E3,6.7333486E3,1.4429802E3,3.8235593E2,2.3944365E3,-1.9128004E3,-1.3564331E2,6.06844E2,-1.666875E3,-5.0217554E3,-7.135381E2,2.4139013E1,-1.852962E3,-9.161805E2,4.68314E3,7.376625E1,-2.2885474E2,-2.9652246E3,5.0810547E2,2.0522607E3,2.9193298E2,6.0267417E3,1.0294723E3,1.9926239E1,8.249329E1,-8.127725E1,-1.0706566E3,1.6728176E3,-8.5038544E2,-2.1528548E2,-7.016545E1,-3.112408E1,-5.2989995E3,6.3754314E1,-7.992495E1,-6.0376194E1,3.3232324E0,4.072578E1,-7.177245E1,8.391152E0,1.6111285E2,-9.5007715E0,5.19873E-1,-9.729265E1,3.0544834E1,-1.754578E1,5.6805E1,8.945986E1,-1.1054151E1,2.3891093E2,4.305658E1,-4.660924E1,5.2866177E1,-3.6821434E1,-1.3576914E1,2.7406836E0,6.334838E1,2.893371E1,-7.357895E1,-8.555215E0,-1.1326318E0,-1.8270543E2,-1.1215165E2],"categories":[],"categories_nodes":[],"categories_segments":[],"categories_sizes":[],"default_left":[0,0,0,0,0,0,0,0,0,0,0,0,0,0,0,0,0,0,0,0,0,0,0,0,0,0,0,0,0,0,0,0,0,0,0,0,0,0,0,0,0,0,0,0,0,0,0,0,0,0,0,0,0,0,0,0,0,0,0,0,0,0,0,0,0,0,0,0,0,0,0,0,0,0,0,0,0,0,0,0,0],"id":24,"left_children":[1,3,5,7,9,11,13,15,17,19,21,23,25,27,-1,29,31,33,35,37,39,-1,41,43,-1,45,47,49,51,-1,53,55,57,-1,59,61,63,65,-1,67,69,-1,-1,-1,71,73,75,77,-1,-1,79,-1,-1,-1,-1,-1,-1,-1,-1,-1,-1,-1,-1,-1,-1,-1,-1,-1,-1,-1,-1,-1,-1,-1,-1,-1,-1,-1,-1,-1,-1],"loss_changes":[6.966611E8,3.7242157E8,1.2292874E8,5.369936E7,2.8602157E8,6.868565E7,6.749024E7,1.0117389E8,3.9931176E7,1.7555766E8,1.4878838E8,1.5454128E7,2.2154354E7,7.259059E7,0E0,9.893028E6,9.652014E7,9.0979E6,3.403521E7,7.825837E7,1.3595222E8,0E0,6.32854E5,4.477228E6,0E0,2.4723064E7,5.349059E6,2.4327168E7,3.888499E7,0E0,4.6101E6,2.3386916E7,1.9682848E7,0E0,9.198481E4,2.433192E7,7.1641815E6,1.0101336E7,0E0,4.193181E7,1.3522922E8,0E0,0E0,0E0,1.226235E5,6.05253E6,2.2720228E7,2.6455484E4,0E0,0E0,8.100736E6,0E0,0E0,0E0,0E0,0E0,0E0,0E0,0E0,0E0,0E0,0E0,0E0,0E0,0E0,0E0,0E0,0E0,0E0,0E0,0E0,0E0,0E0,0E0,0E0,0E0,0E0,0E0,0E0,0E0,0E0],"parents":[2147483647,0,0,1,1,2,2,3,3,4,4,5,5,6,6,7,7,8,8,9,9,10,10,11,11,12,12,13,13,15,15,16,16,17,17,18,18,19,19,20,20,22,22,23,23,25,25,26,26,27,27,28,28,30,30,31,31,32,32,34,34,35,35,36,36,37,37,39,39,40,40,44,44,45,45,46,46,47,47,50,50],"right_children":[2,4,6,8,10,12,14,16,18,20,22,24,26,28,-1,30,32,34,36,38,40,-1,42,44,-1,46,48,50,52,-1,54,56,58,-1,60,62,64,66,-1,68,70,-1,-1,-1,72,74,76,78,-1,-1,80,-1,-1,-1,-1,-1,-1,-1,-1,-1,-1,-1,-1,-1,-1,-1,-1,-1,-1,-1,-1,-1,-1,-1,-1,-1,-1,-1,-1,-1,-1],"split_conditions":[4E0,1.2606E4,6E0,1.5736E4,2.5715E4,1.57085E4,3E1,7.405E3,4.2061384E7,3.6648723E3,7E0,1.4179143E4,1.6999E4,9E0,6.903745E1,2.756E3,1.4342833E4,3E0,2.0878E4,9.491E3,4.204E3,3.8235593E2,5E0,1.6623E4,-1.3564331E2,1.6515E4,6E0,7.813E3,1.3091E4,2.4139013E1,1.9934616E8,3.9925696E3,3E0,7.376625E1,8E0,2.3178E4,1.8E1,1.1764E4,2.9193298E2,1.5341E4,1.3131496E8,1.9926239E1,8.249329E1,-8.127725E1,1.6E1,5.241E3,6E0,1.4E1,-7.016545E1,-3.112408E1,1.7E1,6.3754314E1,-7.992495E1,-6.0376194E1,3.3232324E0,4.072578E1,-7.177245E1,8.391152E0,1.6111285E2,-9.5007715E0,5.19873E-1,-9.729265E1,3.0544834E1,-1.754578E1,5.6805E1,8.945986E1,-1.1054151E1,2.3891093E2,4.305658E1,-4.660924E1,5.2866177E1,-3.6821434E1,-1.3576914E1,2.7406836E0,6.334838E1,2.893371E1,-7.357895E1,-8.555215E0,-1.1326318E0,-1.8270543E2,-1.1215165E2],"split_indices":[3,6,3,12,10,15,2,6,18,14,2,15,11,1,0,6,16,1,7,7,10,0,1,6,0,10,1,6,11,0,18,14,1,0,1,11,2,9,0,6,18,0,0,0,2,12,1,2,0,0,2,0,0,0,0,0,0,0,0,0,0,0,0,0,0,0,0,0,0,0,0,0,0,0,0,0,0,0,0,0,0],"split_type":[0,0,0,0,0,0,0,0,0,0,0,0,0,0,0,0,0,0,0,0,0,0,0,0,0,0,0,0,0,0,0,0,0,0,0,0,0,0,0,0,0,0,0,0,0,0,0,0,0,0,0,0,0,0,0,0,0,0,0,0,0,0,0,0,0,0,0,0,0,0,0,0,0,0,0,0,0,0,0,0,0],"sum_hessian":[2.01E2,1.36E2,6.5E1,5E1,8.6E1,3.3E1,3.2E1,2.5E1,2.5E1,8E1,6E0,1.4E1,1.9E1,3.1E1,1E0,1.4E1,1.1E1,4E0,2.1E1,6E0,7.4E1,3E0,3E0,1E1,4E0,1.4E1,5E0,2.6E1,5E0,1E0,1.3E1,5E0,6E0,1E0,3E0,1.8E1,3E0,3E0,3E0,5E0,6.9E1,1E0,2E0,4E0,6E0,8E0,6E0,2E0,3E0,2E0,2.4E1,2E0,3E0,1.2E1,1E0,2E0,3E0,1E0,5E0,2E0,1E0,1.7E1,1E0,2E0,1E0,2E0,1E0,3E0,2E0,1.5E1,5.4E1,4E0,2E0,2E0,6E0,3E0,3E0,1E0,1E0,1.4E1,1E1],"tree_param":{"num_deleted":"0","num_feature":"19","num_nodes":"81","size_leaf_vector":"1"}},{"base_weights":[2.6894434E2,1.6403593E3,-2.5835166E3,1.1842806E4,1.238431E3,-3.137163E3,4.1958035E2,7.447232E2,2.3914539E3,1.374067E2,4.3755474E3,-1.726609E3,-4.3422593E3,2.2091616E3,-2.1697495E3,1.1315838E2,-2.6250336E1,3.7113289E3,-3.1089502E2,8.697184E3,1.9305398E3,-2.0665776E3,5.046E1,-4.6592495E3,6.80019E1,2.000955E1,8.077905E1,-6.4779196E0,-7.812664E1,7.580373E2,6.046066E3,-1.9345276E3,2.2687828E2,1.9564745E0,9.4759795E3,-8.781348E2,6.3971597E3,-2.6228296E3,-5.566887E2,2.3509512E1,-4.8898623E3,4.5916405E1,-1.5739637E1,8.079634E1,2.5503548E2,2.704834E1,-7.289377E1,-5.1750835E1,2.4693052E1,1.4738351E2,3.414508E2,8.5517025E0,-5.7946785E1,3.3557513E2,6.415542E1,-1.0247177E2,-3.6142307E1,3.1413427E1,-5.18518E1,-1.527715E2,5.635268E0],"categories":[],"categories_nodes":[],"categories_segments":[],"categories_sizes":[],"default_left":[0,0,0,0,0,0,0,0,0,0,0,0,0,0,0,0,0,0,0,0,0,0,0,0,0,0,0,0,0,0,0,0,0,0,0,0,0,0,0,0,0,0,0,0,0,0,0,0,0,0,0,0,0,0,0,0,0,0,0,0,0],"id":25,"left_children":[1,3,5,7,9,11,13,-1,15,17,19,21,23,25,27,-1,-1,29,31,33,35,37,-1,39,-1,-1,-1,-1,-1,41,43,45,47,-1,49,51,53,55,57,-1,59,-1,-1,-1,-1,-1,-1,-1,-1,-1,-1,-1,-1,-1,-1,-1,-1,-1,-1,-1,-1],"loss_changes":[7.827075E8,5.389214E8,1.093888E8,5.5408845E8,4.518782E8,8.599456E7,5.57653E7,0E0,2.133781E7,1.5816898E8,3.4246854E8,3.4764144E7,7.131578E7,3.423264E6,3.682068E6,0E0,0E0,7.126362E7,7.727577E7,8.005248E7,2.9415904E8,1.9536856E7,0E0,3.8977664E7,0E0,0E0,0E0,0E0,0E0,6.748359E6,2.64944E7,3.3092792E7,7.9392616E7,0E0,3.974176E7,1.8930624E7,1.5961853E8,1.6124024E7,1.6843294E7,0E0,2.8721856E7,0E0,0E0,0E0,0E0,0E0,0E0,0E0,0E0,0E0,0E0,0E0,0E0,0E0,0E0,0E0,0E0,0E0,0E0,0E0,0E0],"parents":[2147483647,0,0,1,1,2,2,3,3,4,4,5,5,6,6,8,8,9,9,10,10,11,11,12,12,13,13,14,14,17,17,18,18,19,19,20,20,21,21,23,23,29,29,30,30,31,31,32,32,34,34,35,35,36,36,37,37,38,38,40,40],"right_children":[2,4,6,8,10,12,14,-1,16,18,20,22,24,26,28,-1,-1,30,32,34,36,38,-1,40,-1,-1,-1,-1,-1,42,44,46,48,-1,50,52,54,56,58,-1,60,-1,-1,-1,-1,-1,-1,-1,-1,-1,-1,-1,-1,-1,-1,-1,-1,-1,-1,-1,-1],"split_conditions":[4E0,3.431E3,9E0,2E0,8E0,6E0,1.5177E4,7.447232E2,8E0,3.8473318E3,1.2029E4,2.1902E4,3.1E1,1E1,6E0,1.1315838E2,-2.6250336E1,1.4056E4,3E0,4.53E3,1.9875285E4,8.366429E3,5.046E1,7.691E3,6.80019E1,2.000955E1,8.077905E1,-6.4779196E0,-7.812664E1,1.087E4,3E0,5.2511456E7,9E0,1.9564745E0,1.4423E4,1.6808285E4,2.1E1,1.3412E4,1.839E4,2.3509512E1,2.6003E4,4.5916405E1,-1.5739637E1,8.079634E1,2.5503548E2,2.704834E1,-7.289377E1,-5.1750835E1,2.4693052E1,1.4738351E2,3.414508E2,8.5517025E0,-5.7946785E1,3.3557513E2,6.415542E1,-1.0247177E2,-3.6142307E1,3.1413427E1,-5.18518E1,-1.527715E2,5.635268E0],"split_indices":[3,10,1,1,1,3,11,0,1,14,12,12,2,2,3,0,0,11,1,11,13,14,0,9,0,0,0,0,0,8,3,18,2,0,6,15,2,12,6,0,8,0,0,0,0,0,0,0,0,0,0,0,0,0,0,0,0,0,0,0,0],"split_type":[0,0,0,0,0,0,0,0,0,0,0,0,0,0,0,0,0,0,0,0,0,0,0,0,0,0,0,0,0,0,0,0,0,0,0,0,0,0,0,0,0,0,0,0,0,0,0,0,0,0,0,0,0,0,0,0,0,0,0,0,0],"sum_hessian":[1.98E2,1.34E2,6.4E1,4E0,1.3E2,5.4E1,1E1,1E0,3E0,9.7E1,3.3E1,2.6E1,2.8E1,6E0,4E0,2E0,1E0,1E1,8.7E1,1.1E1,2.2E1,2.4E1,2E0,2.7E1,1E0,2E0,4E0,1E0,3E0,5E0,5E0,2.1E1,6.6E1,1E0,1E1,1.4E1,8E0,1.7E1,7E0,1E0,2.6E1,3E0,2E0,3E0,2E0,3E0,1.8E1,1.5E1,5.1E1,4E0,6E0,7E0,7E0,3E0,5E0,1E1,7E0,3E0,4E0,2.5E1,1E0],"tree_param":{"num_deleted":"0","num_feature":"19","num_nodes":"61","size_leaf_vector":"1"}},{"base_weights":[2.1129962E2,1.1359255E3,-4.100852E3,9.158544E3,6.627675E2,-4.3528027E3,6.698188E1,7.3355237E2,4.1904253E3,-1.2435119E2,4.5728696E3,-5.2544624E3,-2.2618875E3,-4.5172688E1,6.340112E3,3.5902686E3,-4.6382172E2,-3.3532748E2,5.757456E3,-9.148724E2,-5.6241914E3,3.5709568E1,-3.0713608E3,7.1536194E1,2.3165288E2,-2.7232593E2,3.125367E2,-1.550646E3,3.9008276E2,6.6534276E0,-2.0079807E1,4.2688047E3,9.667381E3,-7.166792E0,-3.4002464E1,-5.9282144E3,-2.8500398E3,-3.4537395E3,5.550732E0,4.240826E1,-6.9349884E1,-7.045125E1,-1.4666231E1,3.4930088E1,-6.003505E1,1.9055434E2,7.665544E1,8.776755E1,3.18643E2,-1.8659995E2,-7.187883E1,-1.3257599E2,2.7861591E1,-1.1853476E2,-3.425546E1],"categories":[],"categories_nodes":[],"categories_segments":[],"categories_sizes":[],"default_left":[0,0,0,0,0,0,0,0,0,0,0,0,0,0,0,0,0,0,0,0,0,0,0,0,0,0,0,0,0,0,0,0,0,0,0,0,0,0,0,0,0,0,0,0,0,0,0,0,0,0,0,0,0,0,0],"id":26,"left_children":[1,3,5,7,9,11,-1,-1,13,15,17,19,21,-1,23,25,27,29,31,33,35,-1,37,-1,-1,39,-1,41,43,-1,-1,45,47,-1,-1,49,51,53,-1,-1,-1,-1,-1,-1,-1,-1,-1,-1,-1,-1,-1,-1,-1,-1,-1],"loss_changes":[7.901223E8,6.126725E8,6.556979E7,5.813427E8,4.7761443E8,5.221504E7,0E0,0E0,1.0750669E8,1.6559576E8,1.530994E8,3.175744E7,3.7189524E7,0E0,1.437848E7,2.929327E8,1.1197017E8,1.2648872E6,8.096269E7,1.7242675E5,8.15808E5,0E0,1.3090752E7,0E0,0E0,3.0773296E7,0E0,4.374325E7,1.2822759E8,0E0,0E0,4.4451296E7,1.08624E6,0E0,0E0,3.64896E6,2.7822104E7,5.838192E6,0E0,0E0,0E0,0E0,0E0,0E0,0E0,0E0,0E0,0E0,0E0,0E0,0E0,0E0,0E0,0E0,0E0],"parents":[2147483647,0,0,1,1,2,2,3,3,4,4,5,5,8,8,9,9,10,10,11,11,12,12,14,14,15,15,16,16,17,17,18,18,19,19,20,20,22,22,25,25,27,27,28,28,31,31,32,32,35,35,36,36,37,37],"right_children":[2,4,6,8,10,12,-1,-1,14,16,18,20,22,-1,24,26,28,30,32,34,36,-1,38,-1,-1,40,-1,42,44,-1,-1,46,48,-1,-1,50,52,54,-1,-1,-1,-1,-1,-1,-1,-1,-1,-1,-1,-1,-1,-1,-1,-1,-1],"split_conditions":[1E0,4.204E3,3.1E1,2E0,9E0,1.7405E4,6.698188E1,7.3355237E2,1.0311E4,4.53E3,1.3091E4,7.813E3,1.3091E4,-4.5172688E1,3E0,1.3513429E4,1.3412E4,1.7483E4,2.5715E4,7E0,2.272E4,3.5709568E1,3.0584E4,7.1536194E1,2.3165288E2,3.786E3,3.125367E2,1.5318286E4,1.8878E4,6.6534276E0,-2.0079807E1,1.7468E4,1.4423E4,-7.166792E0,-3.4002464E1,1.8175E4,3E0,1.8769E4,5.550732E0,4.240826E1,-6.9349884E1,-7.045125E1,-1.4666231E1,3.4930088E1,-6.003505E1,1.9055434E2,7.665544E1,8.776755E1,3.18643E2,-1.8659995E2,-7.187883E1,-1.3257599E2,2.7861591E1,-1.1853476E2,-3.425546E1],"split_indices":[5,10,2,1,1,8,0,0,6,12,9,6,11,0,1,13,10,8,7,1,12,0,8,0,0,12,0,13,9,0,0,8,6,0,0,6,1,12,0,0,0,0,0,0,0,0,0,0,0,0,0,0,0,0,0],"split_type":[0,0,0,0,0,0,0,0,0,0,0,0,0,0,0,0,0,0,0,0,0,0,0,0,0,0,0,0,0,0,0,0,0,0,0,0,0,0,0,0,0,0,0,0,0,0,0,0,0,0,0,0,0,0,0],"sum_hessian":[1.96E2,1.62E2,3.4E1,8E0,1.54E2,3.3E1,1E0,1E0,7E0,1.29E2,2.5E1,2.2E1,1.1E1,2E0,5E0,1E1,1.19E2,5E0,2E1,2E0,2E1,2E0,9E0,2E0,3E0,7E0,3E0,5.2E1,6.7E1,2E0,3E0,1.6E1,4E0,1E0,1E0,1.7E1,3E0,8E0,1E0,4E0,3E0,2.9E1,2.3E1,5.1E1,1.6E1,6E0,1E1,1E0,3E0,1.5E1,2E0,2E0,1E0,6E0,2E0],"tree_param":{"num_deleted":"0","num_feature":"19","num_nodes":"55","size_leaf_vector":"1"}},{"base_weights":[-1.8403372E2,9.848661E2,-2.5549683E3,2.6596164E2,4.997433E3,-1.1525778E3,-3.8799355E3,-1.1012496E3,1.1869286E3,-3.2750537E2,6.794246E3,-2.6617732E3,2.5296149E2,-1.8555942E2,-2.6086704E3,-1.9613209E3,2.2418442E2,-1.0868891E2,2.564362E3,6.5203514E0,-1.9628004E1,8.291225E3,6.047478E2,-1.765538E3,-3.8612424E3,-1.1348734E3,1.0414518E3,-4.5158545E3,-1.2904485E3,-3.6937292E3,-1.3209491E3,3.7754827E3,-1.3138137E3,4.4871587E3,-1.1774303E3,1.4035985E3,6.6752554E3,5.4435654E3,3.787696E2,-3.0690102E1,4.464998E1,-7.026157E1,-8.947671E2,-1.2990686E2,-2.2744629E1,4.4279396E1,-7.4232315E1,1.652915E2,6.705053E1,-7.059287E0,-1.5064526E2,5.744949E1,-2.6301492E3,-4.231217E1,-1.2974933E2,-3.692706E0,-5.6152317E1,1.9725484E2,2.1955591E1,8.2211914E1,-6.653646E1,-3.8407322E1,1.6985298E2,4.7555973E1,-5.3800922E1,6.222381E1,-3.866818E1,-6.795254E1,3.2113223E2,1.7208348E2,4.6547344E1,-3.1806276E1,-1.1277656E1,2.1864315E1,-9.557461E0,-1.115806E2,4.5425373E1],"categories":[],"categories_nodes":[],"categories_segments":[],"categories_sizes":[],"default_left":[0,0,0,0,0,0,0,0,0,0,0,0,0,0,0,0,0,0,0,0,0,0,0,0,0,0,0,0,0,0,0,0,0,0,0,0,0,0,0,0,0,0,0,0,0,0,0,0,0,0,0,0,0,0,0,0,0,0,0,0,0,0,0,0,0,0,0,0,0,0,0,0,0,0,0,0,0],"id":27,"left_children":[1,3,5,7,9,11,13,15,17,19,21,23,25,-1,27,29,31,33,35,-1,-1,37,39,41,43,45,47,49,51,53,55,57,59,61,63,65,67,69,-1,-1,-1,-1,71,-1,-1,-1,-1,73,-1,-1,-1,-1,75,-1,-1,-1,-1,-1,-1,-1,-1,-1,-1,-1,-1,-1,-1,-1,-1,-1,-1,-1,-1,-1,-1,-1,-1],"loss_changes":[5.457078E8,3.7944496E8,1.1630602E8,1.4359178E8,1.9358355E8,7.0674024E7,8.05792E7,5.2878216E7,1.2163334E8,1.2104184E6,1.3396909E8,1.0382944E7,2.0879214E7,0E0,5.1996624E7,2.618356E7,1.0873621E8,1.8210712E8,1.480992E8,0E0,0E0,7.93872E7,7.2755945E6,3.426536E6,5.448848E6,2.8133528E7,1.2179631E7,1.8298672E7,6.945148E7,3.98944E6,1.4284644E7,4.631505E7,5.7391844E7,5.4669504E7,5.389074E7,5.1419856E7,2.7640035E8,1.347392E6,0E0,0E0,0E0,0E0,1.16477E5,0E0,0E0,0E0,0E0,2.4135615E6,0E0,0E0,0E0,0E0,5.5285984E7,0E0,0E0,0E0,0E0,0E0,0E0,0E0,0E0,0E0,0E0,0E0,0E0,0E0,0E0,0E0,0E0,0E0,0E0,0E0,0E0,0E0,0E0,0E0,0E0],"parents":[2147483647,0,0,1,1,2,2,3,3,4,4,5,5,6,6,7,7,8,8,9,9,10,10,11,11,12,12,14,14,15,15,16,16,17,17,18,18,21,21,22,22,23,23,24,24,25,25,26,26,27,27,28,28,29,29,30,30,31,31,32,32,33,33,34,34,35,35,36,36,37,37,42,42,47,47,52,52],"right_children":[2,4,6,8,10,12,14,16,18,20,22,24,26,-1,28,30,32,34,36,-1,-1,38,40,42,44,46,48,50,52,54,56,58,60,62,64,66,68,70,-1,-1,-1,-1,72,-1,-1,-1,-1,74,-1,-1,-1,-1,76,-1,-1,-1,-1,-1,-1,-1,-1,-1,-1,-1,-1,-1,-1,-1,-1,-1,-1,-1,-1,-1,-1,-1,-1],"split_conditions":[4E0,9E0,6E0,1.2606E4,1.3091E4,1.57085E4,1.6623E4,1.7E1,1.3842E4,1.7483E4,2.7143E4,5E0,1.4638E4,-1.8555942E2,1.6999E4,1.0304E4,2.2E1,4.204E3,1.4052E4,6.5203514E0,-1.9628004E1,2.5715E4,1.5E1,1.6623E4,2.1959E4,7E0,1.9323E4,7.813E3,1.3779E4,1.4195E4,5.186E3,1.3007E4,9.997E3,1.3E1,1.2435571E4,1.62435E4,1.4511E4,1E1,3.787696E2,-3.0690102E1,4.464998E1,-7.026157E1,1.6E1,-1.2990686E2,-2.2744629E1,4.4279396E1,-7.4232315E1,1.6009E4,6.705053E1,-7.059287E0,-1.5064526E2,5.744949E1,2.2E1,-4.231217E1,-1.2974933E2,-3.692706E0,-5.6152317E1,1.9725484E2,2.1955591E1,8.2211914E1,-6.653646E1,-3.8407322E1,1.6985298E2,4.7555973E1,-5.3800922E1,6.222381E1,-3.866818E1,-6.795254E1,3.2113223E2,1.7208348E2,